<?xml version="1.0"?>
<opencv_storage>
<opencv_ml_svm>
  <format>3</format>
  <svmType>C_SVC</svmType>
  <kernel>
    <type>LINEAR</type></kernel>
  <C>10.</C>
  <term_criteria><epsilon>1.1920928955078125e-07</epsilon>
    <iterations>1000</iterations></term_criteria>
  <var_count>625</var_count>
  <class_count>2</class_count>
  <class_labels type_id="opencv-matrix">
    <rows>2</rows>
    <cols>1</cols>
    <dt>i</dt>
    <data>
      0 1</data></class_labels>
  <sv_total>1</sv_total>
  <support_vectors>
    <_>
      5.03963351e-01 -1.26053631e+00 6.81590617e-01 1.61656356e+00
      -4.08035100e-01 1.32472456e-01 1.85563684e-01 -1.02184722e-02
      9.84604418e-01 3.61514628e-01 4.24215406e-01 7.59609938e-01
      -9.19414937e-01 -9.52847838e-01 -3.97846669e-01 4.92284708e-02
      -2.16880679e-01 5.92923403e-01 6.94822490e-01 7.25916207e-01
      1.28214335e+00 2.45459422e-01 -5.60350239e-01 1.81432888e-01
      -6.21532679e-01 -1.49288583e+00 7.69809961e-01 -9.33490992e-01
      6.13312840e-01 5.95864058e-01 -6.93962276e-01 -5.05259097e-01
      4.50697362e-01 3.76332760e-01 1.83264077e-01 5.17485201e-01
      9.96113062e-01 4.78272468e-01 6.95984364e-01 2.27858238e-02
      -6.81379676e-01 -2.06119940e-01 -7.16433048e-01 3.16936672e-01
      -9.30179358e-02 1.69758105e+00 -1.69719294e-01 5.55978000e-01
      4.28588212e-01 1.72597766e-02 -6.25092387e-01 -2.09936410e-01
      -7.78262615e-01 2.13485330e-01 -1.38149238e+00 5.11185348e-01
      -1.28293133e+00 1.30841017e+00 -2.29674056e-01 1.34157848e+00
      -7.00949609e-01 -1.28323615e-01 5.53656042e-01 6.84964836e-01
      -7.46225893e-01 9.81268361e-02 4.16648537e-01 -9.30991888e-01
      -5.88067710e-01 1.12958521e-01 -5.54453969e-01 -1.27635705e+00
      8.64022076e-01 7.57742047e-01 7.19273210e-01 -5.28275073e-01
      4.96759892e-01 5.99375427e-01 5.89185953e-01 -2.79244363e-01
      7.90770769e-01 6.39469102e-02 -8.10669839e-01 5.55274189e-01
      1.49321407e-01 6.04161322e-01 -1.67552799e-01 6.88438714e-02
      -3.76684606e-01 1.05442142e+00 3.01045001e-01 6.09692454e-01
      -4.27118719e-01 6.97922647e-01 -5.05533934e-01 -1.20403141e-01
      -3.58641803e-01 1.15364388e-01 5.25514424e-01 8.15020382e-01
      9.61634994e-01 1.99056625e+00 -1.44099009e+00 -8.62642288e-01
      8.75219166e-01 -7.65564501e-01 -2.95815021e-01 1.90166682e-01
      -1.09544063e+00 5.11735201e-01 1.77632257e-01 -5.37881315e-01
      -1.56666565e+00 -4.71832663e-01 7.55685449e-01 1.08073592e+00
      1.32292974e+00 1.39069271e+00 2.16147184e+00 -3.53290141e-02
      -3.67698431e-01 -2.50284046e-01 1.48387000e-01 -1.03226733e+00
      -2.73774505e-01 4.43498731e-01 -4.32324946e-01 -3.79160494e-01
      1.48710918e+00 1.07766998e+00 4.05020356e-01 -1.27707124e-01
      5.26568890e-01 7.54217565e-01 1.91533819e-01 1.85716295e+00
      9.06688511e-01 1.23428071e+00 8.85000050e-01 -4.29135174e-01
      4.98577625e-01 -7.09574297e-02 1.13133931e+00 9.04740572e-01
      1.69330120e-01 2.92264849e-01 5.82667172e-01 -4.72418427e-01
      -1.24762774e-01 -1.62749618e-01 -1.37030274e-01 1.53735566e+00
      2.55434918e+00 -3.36745352e-01 9.35166955e-01 8.21592033e-01
      -6.84941590e-01 -2.06382737e-01 3.24703068e-01 1.54992118e-01
      1.15846597e-01 6.04663134e-01 2.82636285e-01 -4.37696606e-01
      8.24828565e-01 -1.21318841e+00 2.14467198e-01 1.50979614e+00
      1.36849880e+00 -2.33351484e-01 5.52681983e-01 5.53616166e-01
      -5.70011199e-01 -6.69695079e-01 -8.84107202e-02 -2.32161582e-01
      -2.46109366e+00 1.03773987e+00 -2.57192910e-01 1.09477866e+00
      1.04243743e+00 -6.71592772e-01 4.16353673e-01 -1.94972992e-01
      -1.21074283e+00 -7.50837505e-01 -1.28360963e+00 -4.55805987e-01
      1.31778383e+00 3.68200064e-01 -8.40263963e-01 1.63187242e+00
      1.78570068e+00 9.55317140e-01 1.39484495e-01 -3.46304357e-01
      -5.76421879e-02 3.48778218e-01 9.49848294e-01 -1.42136669e+00
      1.41391814e-01 1.21189654e-01 -2.80459493e-01 -2.94859499e-01
      3.14549729e-02 7.03936040e-01 5.83526611e-01 -2.47654244e-01
      -4.77271855e-01 -1.22383809e+00 -2.27958746e-02 -4.23292547e-01
      -5.10770321e-01 6.77192867e-01 1.74438357e+00 -7.20407367e-01
      5.06173909e-01 7.85731316e-01 -4.07632720e-03 1.14918661e+00
      1.78823531e-01 5.92017889e-01 1.40825665e+00 8.86242688e-01
      4.67422724e-01 -4.64154631e-01 9.09313381e-01 -5.37760198e-01
      1.04042625e+00 -9.72545385e-01 4.99934614e-01 -1.27282634e-01
      -1.25422239e-01 4.82359707e-01 6.90256665e-03 -1.51698992e-01
      1.45277178e+00 1.85372040e-01 2.48518527e-01 2.43687853e-01
      8.15756261e-01 8.30094874e-01 7.05910802e-01 4.50628579e-01
      7.23860800e-01 7.39228487e-01 -5.91946065e-01 -6.95274830e-01
      1.23781607e-01 4.27812457e-01 -6.59501731e-01 6.25318170e-01
      1.07073998e+00 1.47607267e+00 1.05441296e+00 6.78463995e-01
      1.18577361e+00 6.68243051e-01 7.66358376e-01 -5.67867935e-01
      -2.66188920e-01 -3.31336766e-01 5.92156462e-02 -2.91250527e-01
      2.03767791e-01 8.75716150e-01 -4.01578486e-01 -6.27307177e-01
      -5.62481940e-01 6.43831968e-01 -1.58696681e-01 5.23218289e-02
      -1.53546125e-01 5.19546151e-01 7.27050781e-01 6.86595142e-02
      1.62212932e+00 1.43257332e+00 2.55387753e-01 -5.60159504e-01
      -1.18572541e-01 -3.05998866e-02 1.86295301e-01 -1.01393059e-01
      1.79278515e-02 7.57678092e-01 -3.30535360e-02 -6.59010634e-02
      -8.40602145e-02 3.01198959e-01 -5.95923252e-02 -9.19317484e-01
      2.69816160e-01 9.44787860e-01 -4.43820775e-01 4.88077164e-01
      1.03363132e+00 9.31283236e-01 7.01315820e-01 -8.35922241e-01
      1.41556513e+00 1.09568417e+00 -1.18180120e+00 2.06824541e+00
      -2.68328823e-02 -6.69759810e-01 9.50012982e-01 1.73547244e+00
      1.11154485e+00 4.85074759e-01 1.36557043e+00 -5.23200691e-01
      1.16593146e+00 -3.71899366e-01 3.53014588e+00 -8.45831871e-01
      2.84386575e-01 -4.84910160e-01 1.60316471e-02 6.49229407e-01
      1.82501507e+00 -1.54823899e-01 1.41160810e+00 4.76495892e-01
      6.61133051e-01 2.82264173e-01 -7.20963299e-01 -3.84557605e-01
      9.04555142e-01 -5.78935087e-01 -4.17385012e-01 1.17324013e-03
      2.21167073e-01 -2.57514119e-01 -1.80886984e-01 1.09517276e+00
      4.66255039e-01 7.53856838e-01 2.18294096e+00 -5.94939828e-01
      -2.96648026e-01 1.18518734e+00 -2.99461365e-01 -1.90307885e-01
      2.30739087e-01 -3.05831909e-01 -6.85011864e-01 -2.47178301e-01
      4.12711173e-01 -6.50685847e-01 -2.91394562e-01 9.43534911e-01
      9.92398202e-01 4.97582853e-01 -9.23992515e-01 -2.19684958e-01
      8.69001374e-02 -4.80021864e-01 -7.62200356e-02 1.34183979e+00
      4.86320227e-01 1.06875837e+00 -5.69426835e-01 7.72040009e-01
      3.88762146e-01 -1.35746986e-01 -9.70588863e-01 8.42387617e-01
      -5.25323749e-01 7.10592508e-01 3.33523810e-01 -1.50470233e+00
      -1.45902538e+00 1.04064977e+00 9.45461690e-01 -2.30629683e-01
      -4.38615471e-01 -2.33766198e+00 -1.36356607e-01 -1.55089283e+00
      -7.87187517e-01 1.47814387e-02 -1.56638697e-01 -5.20888448e-01
      -1.30902410e+00 8.02106380e-01 -3.97498935e-01 -4.98610586e-01
      1.85230717e-01 -2.51074612e-01 -9.53878045e-01 -2.88163334e-01
      -1.70877659e+00 1.93234399e-01 1.18442452e+00 1.38224328e+00
      -1.54302430e+00 1.06657481e+00 4.15198058e-01 1.00307012e+00
      6.80233836e-01 -1.00349474e+00 9.95863080e-01 4.35561448e-01
      4.53601539e-01 1.53926039e+00 -1.60207134e-02 3.89895439e-02
      3.24426502e-01 -4.81126726e-01 2.00527519e-01 -1.13906746e-03
      -1.43634871e-01 6.14045382e-01 6.82503819e-01 -2.44721338e-01
      1.18306708e+00 1.54624236e+00 1.80957496e+00 7.57532895e-01
      3.38395953e-01 -7.12290049e-01 7.13675857e-01 -8.64284694e-01
      1.39676607e+00 4.36746508e-01 1.78001511e+00 1.04777050e+00
      4.32177782e-01 1.11631083e+00 1.18828166e+00 -1.29990667e-01
      -6.33336425e-01 -1.05609703e+00 1.13734198e+00 1.02092516e+00
      4.15550739e-01 -5.05539060e-01 3.54513414e-02 1.26410931e-01
      1.96966922e+00 -4.34947200e-02 3.49177957e-01 4.43582743e-01
      -4.47450727e-01 2.52440482e-01 -4.46615636e-01 -3.85866106e-01
      8.87297809e-01 6.64463162e-01 -4.33920175e-01 -2.31482223e-01
      2.77058810e-01 1.00435996e-02 -9.71572325e-02 -9.20039043e-02
      -8.92603040e-01 -1.27889562e+00 -1.41957676e+00 -7.60259986e-01
      -2.44970061e-02 7.15741873e-01 8.20846498e-01 5.38234651e-01
      5.46717942e-01 1.65607488e+00 -3.61449659e-01 1.59874010e+00
      7.02379346e-01 -1.78714335e-01 5.38816571e-01 1.57059357e-01
      1.32103407e+00 1.67573974e-01 -1.99921584e+00 4.17592704e-01
      -9.55978036e-01 1.23905909e+00 -4.74793375e-01 4.57803279e-01
      3.40586275e-01 -1.74178705e-02 1.92052031e+00 -7.15885401e-01
      1.00017500e+00 1.69664586e+00 6.53996944e-01 7.04277396e-01
      6.26497194e-02 -1.00608790e+00 5.40054202e-01 9.35839713e-01
      6.61551654e-01 5.03012121e-01 6.47129059e-01 -7.07288086e-01
      1.67077470e+00 3.88568550e-01 7.02565372e-01 -1.28073528e-01
      5.37216067e-01 5.97933888e-01 8.36559296e-01 -2.77487308e-01
      -8.36692989e-01 1.24261892e+00 3.45292568e-01 2.22651243e-01
      7.01063156e-01 -8.00150931e-02 4.47132528e-01 6.45621181e-01
      -1.05801594e+00 5.68725228e-01 -8.22436288e-02 4.69197690e-01
      -7.19641507e-01 2.05082655e+00 -1.19137967e+00 -1.51939666e+00
      7.95816362e-01 6.17233932e-01 7.22624362e-01 -9.37153816e-01
      -4.11407024e-01 5.41034341e-01 1.27171540e+00 -2.40900922e+00
      1.50262272e+00 6.93544745e-01 -2.72938251e-01 -1.57546744e-01
      -1.52707458e+00 -5.30072033e-01 9.73162711e-01 6.41529858e-01
      1.57573307e+00 -6.95590258e-01 1.84429741e+00 -4.58559245e-01
      1.26805389e+00 -4.25065309e-01 -1.80178151e-01 1.46894038e+00
      -1.36637008e+00 -3.84810083e-02 -2.38204622e+00 -8.53458464e-01
      1.26956284e+00 8.99096370e-01 -1.91209126e+00 1.52748978e+00
      2.67188907e-01 -6.44349158e-01 7.30690897e-01 7.24445403e-01
      -4.19166982e-01 -3.82369429e-01 -9.06283736e-01 -1.26433432e+00
      1.05531144e+00 -5.66178858e-01 -2.16751829e-01 4.53752875e-01
      2.03035459e-01 2.79342115e-01 1.70228469e+00 -2.86310967e-02
      5.16195357e-01 -1.76280439e-01 -6.90008625e-02 -1.02976643e-01
      -1.23177910e+00 -6.05416059e-01 1.16465676e+00 3.19371521e-02
      -3.32821161e-01 7.65135646e-01 3.26980650e-03 -8.34534228e-01
      7.12150186e-02 6.34318739e-02 -1.03680861e+00 4.63674903e-01
      -3.75112355e-01 -6.87484086e-01 -7.92906135e-02 -1.27021825e+00
      6.60354495e-01 2.10246220e-01 -1.36431813e+00 -9.99991596e-02
      8.43149364e-01 2.24083692e-01 7.10939290e-03 -9.15123284e-01
      4.01383728e-01 1.35799241e+00 1.81511331e+00 1.70881009e+00
      1.39015809e-01 -2.31710863e+00 1.31832933e+00 9.62701142e-01
      4.03909773e-01 -9.47842896e-01 3.25476825e-01 -3.45034689e-01
      -2.10825890e-01 7.81557858e-01 1.25218344e+00 -9.31418478e-01
      4.04936790e-01 4.48388696e-01 5.96468925e-01 -6.07842347e-03
      -1.58792093e-01 2.82431580e-02 -1.57509053e+00 1.17291939e+00
      -3.95541131e-01 -2.03938007e+00 -8.44067156e-01 1.93767905e-01
      -1.59834042e-01</_></support_vectors>
  <decision_functions>
    <_>
      <sv_count>1</sv_count>
      <rho>4.0089402944924080e-01</rho>
      <alpha>
        1.</alpha></_></decision_functions></opencv_ml_svm>
</opencv_storage>
