<?xml version="1.0"?>
<opencv_storage>
<opencv_ml_svm>
  <format>3</format>
  <svmType>C_SVC</svmType>
  <kernel>
    <type>LINEAR</type></kernel>
  <C>10.</C>
  <term_criteria><epsilon>1.1920928955078125e-07</epsilon>
    <iterations>1000</iterations></term_criteria>
  <var_count>625</var_count>
  <class_count>2</class_count>
  <class_labels type_id="opencv-matrix">
    <rows>2</rows>
    <cols>1</cols>
    <dt>i</dt>
    <data>
      0 1</data></class_labels>
  <sv_total>1</sv_total>
  <support_vectors>
    <_>
      -6.13972425e-01 4.93915915e-01 -4.32986677e-01 1.61369085e-01
      3.31636697e-01 1.63936305e+00 -5.80724537e-01 6.66098952e-01
      3.44204247e-01 4.53436017e-01 -5.53870499e-01 6.66175902e-01
      -1.86026740e+00 3.92475091e-02 2.29060605e-01 -1.03926323e-01
      -6.67903721e-02 -8.19086283e-02 2.28615284e-01 3.57396394e-01
      1.16471142e-01 2.74072468e-01 6.51313961e-02 -8.53785336e-01
      5.46809077e-01 -1.74415529e-01 -8.88000429e-01 -2.00677410e-01
      -1.42715406e+00 -1.01780128e+00 -2.09888052e-02 5.16417563e-01
      3.86333883e-01 -3.08811307e-01 -1.00866985e+00 -8.10215652e-01
      -7.14148700e-01 1.28612125e+00 7.67459035e-01 -2.72752464e-01
      1.34328127e+00 2.80679107e-01 2.82508940e-01 -2.56100506e-01
      -5.21426439e-01 -5.70142329e-01 -9.06931460e-01 -8.70591581e-01
      5.11269987e-01 -2.83761263e+00 1.79946393e-01 -5.73555641e-02
      3.87570150e-02 7.00976193e-01 7.37306401e-02 -2.34422594e-01
      -1.73244491e-01 3.64928782e-01 4.39985633e-01 -5.73277324e-02
      1.11298636e-01 -6.67728186e-01 -4.90781128e-01 4.49141443e-01
      3.32974017e-01 3.61570925e-01 5.35464406e-01 -1.67446256e-01
      -3.27325195e-01 -5.17345846e-01 7.42057115e-02 2.63405234e-01
      7.52736568e-01 3.71695966e-01 6.44411206e-01 6.13794148e-01
      3.42245907e-01 1.24914013e-01 -9.92694497e-02 -8.70513916e-02
      -4.13876414e-01 5.33387840e-01 1.50042072e-01 -9.73550901e-02
      -7.78537214e-01 9.27463546e-02 -3.09222162e-01 -5.14274761e-02
      5.31403542e-01 -6.56546354e-01 3.21689665e-01 -7.81257391e-01
      -1.34881139e+00 3.09770167e-01 4.11541164e-01 -1.66832253e-01
      3.99129570e-01 4.82969612e-01 4.04583305e-01 4.08324450e-01
      7.89129436e-01 -1.00712135e-01 1.20446694e+00 -1.25173116e+00
      -1.64056435e-01 2.76967704e-01 -1.00922740e+00 9.74993184e-02
      2.37880170e-01 4.58671510e-01 -1.03766000e+00 3.00733894e-01
      -2.59008080e-01 -4.58329432e-02 -1.57249734e-01 1.42610138e-02
      3.00601870e-01 9.67358112e-01 5.58082163e-01 1.46831945e-01
      -2.24353150e-01 -8.12167209e-03 -1.27597237e+00 1.40569770e+00
      7.57635713e-01 -5.88407397e-01 3.00146043e-01 -9.27739024e-01
      1.09370172e+00 8.53683174e-01 1.71798095e-01 -4.11586426e-02
      5.38613439e-01 -7.94281185e-01 8.32991183e-01 -8.38641107e-01
      2.20015962e-02 3.51801813e-01 -9.71298575e-01 1.22697258e+00
      9.35039520e-01 5.27488351e-01 7.26811662e-02 1.51707202e-01
      2.85665810e-01 4.75143254e-01 2.39023730e-01 2.77235389e-01
      -6.04218125e-01 -6.32053792e-01 -6.36324704e-01 -8.40012968e-01
      -2.84162372e-01 -9.52441394e-01 -5.48059821e-01 3.27758729e-01
      -8.67987752e-01 1.57564723e+00 -2.26682425e-01 -1.66795403e-01
      -4.33456674e-02 6.61930889e-02 5.76051712e-01 9.46799755e-01
      1.21023238e+00 2.74925375e+00 1.63314641e+00 -6.82452917e-01
      -3.70875269e-01 -1.23337328e+00 -2.05017090e+00 -4.57773404e-03
      -1.20565557e+00 5.64621329e-01 1.77679610e+00 9.37782705e-01
      -1.39514863e-01 6.76484585e-01 2.78991431e-01 8.34987521e-01
      2.67475814e-01 1.70890301e-01 1.83637011e+00 6.92036092e-01
      2.91064829e-01 -5.50068617e-02 5.21302700e-01 9.10221279e-01
      9.66738090e-02 1.17558968e+00 2.14293694e+00 3.09998363e-01
      -7.60286152e-02 1.75069645e-01 1.67881572e+00 1.27426314e+00
      8.09496641e-01 -4.89793092e-01 2.14683086e-01 1.50006190e-01
      5.53361535e-01 -2.75378376e-01 -3.44779231e-02 5.62507212e-01
      1.61329284e-01 -3.34141463e-01 1.06763020e-01 -3.67244363e-01
      2.18316853e-01 1.92855448e-01 1.57269669e+00 -4.56352592e-01
      4.64745611e-02 3.84774625e-01 7.08039284e-01 -1.18516043e-01
      -1.44205832e+00 -5.57460904e-01 7.41764128e-01 2.17453390e-01
      4.18321460e-01 2.86052167e-01 -4.32114154e-01 -1.31561172e+00
      4.15954947e-01 -1.89755857e-01 9.09509957e-01 -1.01621747e-01
      2.40592912e-01 -8.66419196e-01 -1.13068068e+00 2.72620738e-01
      -4.98636812e-01 -5.87459505e-01 -1.30014911e-01 -5.58592796e-01
      -3.53366941e-01 -2.93691725e-01 3.68204862e-01 -4.28039640e-01
      1.11306465e+00 -1.30374479e+00 -1.33993223e-01 -6.14435077e-01
      -3.04919839e-01 1.08820450e+00 4.38284408e-03 -4.35141951e-01
      -4.00128216e-01 -6.13516033e-01 -4.85921830e-01 5.22686362e-01
      3.69294047e-01 -9.89907563e-01 -2.83646774e+00 -1.62928462e+00
      -4.81752425e-01 7.44916946e-02 1.09349139e-01 -1.51762736e+00
      -1.19128203e+00 -1.33023083e+00 3.02613854e-01 -2.86824614e-01
      1.74822018e-01 -2.04965815e-01 2.39901200e-01 2.34134197e-01
      -2.68221408e-01 -1.03866029e+00 4.99115407e-01 6.47055358e-02
      7.37140536e-01 -4.83186662e-01 -1.83880389e+00 -8.37077081e-01
      -6.93156898e-01 -3.24299186e-01 -1.51136577e+00 4.95809540e-02
      1.47370443e-01 9.70721468e-02 1.03307986e+00 -1.71247527e-01
      -3.21570665e-01 -3.34162861e-01 1.08467829e+00 -1.38581586e+00
      2.27023736e-01 3.85749072e-01 1.19436407e+00 6.43534422e-01
      6.26178205e-01 2.94463485e-01 -3.02091300e-01 1.75734743e-01
      1.05718136e+00 4.20372337e-01 2.08697245e-01 3.00790906e-01
      -2.63750225e-01 -1.98578978e+00 2.98965633e-01 -1.07433057e+00
      6.99657872e-02 1.43743008e-01 -2.16470432e+00 5.97705185e-01
      3.94371748e-02 2.29671335e+00 -1.44621336e+00 7.79295862e-02
      5.80280304e-01 -7.11865425e-01 1.14392424e+00 9.14081037e-01
      -2.79120840e-02 1.21763967e-01 5.90871513e-01 9.93207812e-01
      4.63408530e-01 9.70499218e-01 -4.75339472e-01 -4.57839370e-01
      -4.74120915e-01 -7.80397475e-01 5.54484010e-01 -3.29234153e-01
      1.25365472e+00 -2.15553594e+00 2.33127928e+00 -1.30662572e+00
      -8.77220631e-01 -7.86876529e-02 7.40190387e-01 6.48023605e-01
      -1.62772804e-01 -7.38390803e-01 -2.64013628e-03 8.87356400e-01
      4.64087695e-01 1.90424550e+00 -7.94422269e-01 -1.82153392e+00
      2.43972793e-01 5.61227620e-01 -4.34053302e-01 8.31490532e-02
      4.29616660e-01 4.79596525e-01 1.78750682e+00 -3.93898010e-01
      6.68220580e-01 1.08428204e+00 9.24481392e-01 -1.81775475e+00
      4.41828012e-01 5.80312729e-01 9.85495597e-02 3.27283055e-01
      -1.34260631e+00 1.35392654e+00 9.75503385e-01 6.85992479e-01
      3.90617073e-01 -2.65754610e-02 1.81271076e-01 3.85370493e-01
      -7.50860035e-01 -2.03345105e-01 -4.24916953e-01 -6.14561439e-01
      -2.97253668e-01 -3.69603842e-01 4.97622997e-01 2.57867873e-01
      7.50837147e-01 -7.84672558e-01 -2.64934570e-01 1.47433686e+00
      7.68901587e-01 1.47232306e+00 -4.49862987e-01 1.36534011e+00
      2.99621314e-01 2.19203591e-01 -8.10653195e-02 -2.11263180e+00
      7.30413258e-01 1.15111664e-01 -1.40123987e+00 8.90876502e-02
      1.26984012e+00 3.29118192e-01 7.43043900e-01 -1.37279201e+00
      -1.38274834e-01 1.42916894e+00 -1.48709214e+00 -4.17899430e-01
      2.08037749e-01 -1.51737943e-01 2.52665848e-01 4.17312950e-01
      -3.86981666e-01 -9.89513934e-01 -2.20537022e-01 7.85704050e-03
      1.09542906e+00 5.21514297e-01 5.02044916e-01 1.59269261e+00
      -4.23766375e-01 9.85785484e-01 1.15475214e+00 5.26359797e-01
      1.25884509e+00 2.73723841e-01 1.02290392e+00 3.40335757e-01
      -7.77692199e-01 6.17072165e-01 -8.75327766e-01 9.32324409e-01
      1.95193839e+00 1.02599300e-01 -5.97756267e-01 6.92964852e-01
      4.10676777e-01 -1.17520429e-01 9.30199564e-01 5.24790049e-01
      1.80766916e+00 2.09525728e+00 7.72294581e-01 9.23757136e-01
      7.82352462e-02 8.65597546e-01 2.32408404e-01 -9.98952806e-01
      6.23584747e-01 -1.56061888e+00 -7.91676342e-01 -7.17301607e-01
      2.13990375e-01 1.36667454e+00 -6.83854744e-02 5.13233662e-01
      -1.63213760e-01 -7.74721742e-01 -1.71400532e-02 -6.78959846e-01
      -6.98199570e-01 1.27862945e-01 4.48941916e-01 -1.26099437e-01
      1.02737021e+00 -9.60316539e-01 4.28206116e-01 1.06688273e+00
      -1.80126560e+00 -6.83935940e-01 1.14998269e+00 -1.03580236e+00
      -4.79386240e-01 3.33608463e-02 -2.40529627e-01 1.95059434e-01
      -3.68737876e-01 2.91133255e-01 -4.99789184e-03 -2.02057743e+00
      -1.86897171e+00 -1.57095993e+00 9.99853134e-01 -8.48390639e-01
      2.23402277e-01 -3.71785939e-01 -3.19793969e-02 1.44591439e+00
      3.20502877e-01 -4.60446566e-01 5.22372246e-01 -3.86799574e-02
      -1.68621391e-01 2.72200674e-01 -8.62351894e-01 6.60156131e-01
      3.59160990e-01 3.48563373e-01 8.55980456e-01 1.44441888e-01
      -2.58005261e-01 1.34555057e-01 -1.53629661e+00 -1.65643841e-01
      -2.74138361e-01 -3.50892246e-01 -1.23673999e+00 -2.35769868e-01
      -1.13648915e+00 -1.23877561e+00 6.73425913e-01 -9.14567530e-01
      -2.35680461e-01 -2.05073461e-01 2.00908989e-01 -1.50429511e+00
      -5.91765702e-01 4.41771328e-01 -2.31859177e-01 4.89178598e-01
      -8.09038818e-01 -2.24052787e+00 2.15868473e+00 8.53598416e-01
      -1.53220809e+00 -4.50290330e-02 -1.06942832e+00 -1.23171441e-01
      1.84777963e+00 -1.12819099e+00 5.92047751e-01 -1.20321259e-01
      6.38388246e-02 1.37445283e+00 7.46039748e-01 -2.71710604e-01
      3.23229969e-01 -1.01001501e+00 7.95720577e-01 -7.41964996e-01
      -5.28181970e-01 -4.11915511e-01 -1.61635041e-01 8.12493503e-01
      -1.68211806e+00 8.51016462e-01 1.55905321e-01 7.49032557e-01
      1.01805019e+00 1.10159767e+00 1.36242688e+00 2.37044349e-01
      1.73435897e-01 3.92959744e-01 1.71743679e+00 -3.62161785e-01
      4.30110723e-01 1.72670639e+00 1.91693640e+00 6.42125607e-01
      -1.86554775e-01 1.04100263e+00 8.58554617e-02 6.79853320e-01
      3.72651100e-01 3.48389953e-01 1.38008177e+00 1.79427028e-01
      8.11989188e-01 9.68464240e-02 -1.15486062e+00 -1.06615531e+00
      -6.00130975e-01 -9.13233384e-02 8.17331821e-02 1.19568539e+00
      1.81066430e+00 -2.93721080e-01 -1.35195768e+00 -1.14955950e+00
      9.43944417e-03 1.13312173e+00 2.07180619e+00 -2.04029989e+00
      1.52231112e-01 -2.09021777e-01 -9.48819146e-02 -5.92338108e-03
      -8.49175870e-01 6.48002625e-01 8.42423022e-01 -7.69002140e-01
      -3.42751861e-01 -1.57894850e+00 -5.96272290e-01 -6.33210719e-01
      -1.13108695e+00 1.29469001e+00 4.65727359e-01 -7.62620792e-02
      -1.94925416e+00 -1.38392138e+00 2.93154001e-01 1.22730911e+00
      -6.91776812e-01 3.95003021e-01 -1.09512532e+00 -1.02556515e+00
      3.06596667e-01 2.72637033e+00 -3.01356107e-01 -2.28305101e-01
      7.18041718e-01 -2.10692978e+00 -2.07924947e-01 2.46356398e-01
      -1.85593262e-01 8.10213625e-01 -2.43158251e-01 -5.61054349e-01
      -3.40775788e-01 -3.75030220e-01 8.13385189e-01 3.41550618e-01
      8.14527810e-01 -4.53950435e-01 1.04132199e+00 -1.72729862e+00
      -4.41651434e-01 -6.72798455e-01 -4.45758313e-01 5.31073511e-01
      7.42598653e-01</_></support_vectors>
  <decision_functions>
    <_>
      <sv_count>1</sv_count>
      <rho>-5.1436293597137868e-02</rho>
      <alpha>
        1.</alpha></_></decision_functions></opencv_ml_svm>
</opencv_storage>
