<?xml version="1.0"?>
<opencv_storage>
<opencv_ml_svm>
  <format>3</format>
  <svmType>C_SVC</svmType>
  <kernel>
    <type>LINEAR</type></kernel>
  <C>10.</C>
  <term_criteria><epsilon>1.1920928955078125e-07</epsilon>
    <iterations>1000</iterations></term_criteria>
  <var_count>625</var_count>
  <class_count>2</class_count>
  <class_labels type_id="opencv-matrix">
    <rows>2</rows>
    <cols>1</cols>
    <dt>i</dt>
    <data>
      0 1</data></class_labels>
  <sv_total>1</sv_total>
  <support_vectors>
    <_>
      -1.33148110e+00 -1.43576169e+00 6.69936419e-01 -1.07830930e+00
      -3.06249619e-01 -2.19619679e+00 -1.38427839e-01 5.07692337e-01
      7.84957290e-01 -8.09338689e-01 2.40271434e-01 -1.32343829e+00
      5.32232225e-01 -3.27759504e-01 -5.18937111e-01 2.89977223e-01
      4.76893246e-01 4.09656554e-01 -2.15692930e-02 6.81751609e-01
      -1.22200596e+00 -1.48088196e-02 -1.93937957e-01 -2.03545406e-01
      -1.26070201e+00 2.25255656e+00 3.35584819e-01 -4.07794118e-01
      -5.67178488e-01 2.04603225e-01 3.06324303e-01 1.74136966e-01
      -4.00643378e-01 9.27787498e-02 1.70426595e+00 2.72905797e-01
      -2.47578159e-01 6.07212424e-01 -5.77614188e-01 5.84404051e-01
      -1.44817483e+00 4.32365388e-01 -6.98134363e-01 6.18645012e-01
      2.38023609e-01 -1.43525338e+00 -8.09493005e-01 -7.72144020e-01
      -1.33858457e-01 9.11923885e-01 3.81523848e-01 9.52420652e-01
      2.32296847e-02 -7.21244156e-01 7.95867264e-01 7.63289571e-01
      -2.92334467e-01 -2.22162747e+00 -5.71241323e-03 1.05299079e+00
      -6.01931475e-02 -7.24204004e-01 -9.26296949e-01 4.41288531e-01
      8.48276317e-01 7.15239882e-01 2.98070610e-01 2.56562829e-01
      2.29543045e-01 -3.99569154e-01 -3.62689406e-01 -1.57792568e+00
      -2.27389479e+00 -2.02560210e+00 -1.42213035e+00 -5.60189247e-01
      5.77189744e-01 -1.11812547e-01 -7.14723170e-01 1.76184607e+00
      6.90000594e-01 4.72698420e-01 2.59729910e+00 -1.70572445e-01
      -9.61814761e-01 1.72152773e-01 -3.67853701e-01 -5.76925159e-01
      1.95460606e+00 2.15509847e-01 -5.51812112e-01 -1.90968323e+00
      5.10186553e-01 -1.38755441e-01 7.79629588e-01 1.03220987e+00
      1.04204285e+00 -3.09673339e-01 -8.25258851e-01 6.04372203e-01
      -6.72884703e-01 -2.14482129e-01 5.19366860e-01 6.15346789e-01
      8.52734387e-01 -2.16565430e-01 -2.56619185e-01 8.23771298e-01
      2.12913656e+00 3.47912894e-03 -1.31726599e+00 -2.58911282e-01
      -1.09630108e+00 -7.87789375e-02 3.64331573e-01 -5.72783470e-01
      -9.59840059e-01 2.34808728e-01 -3.83100718e-01 -7.75124729e-01
      -2.09705785e-01 -1.35531779e-02 1.13996124e+00 3.07777643e-01
      -3.74259502e-01 -1.12910748e-01 -2.01373473e-01 2.61027128e-01
      4.47511822e-01 9.85286713e-01 1.55987811e+00 7.89845809e-02
      -5.60570478e-01 -5.97882390e-01 4.68590498e-01 4.57283020e-01
      5.50023258e-01 -5.77609360e-01 7.22316504e-01 -6.51633978e-01
      4.45407152e-01 1.05700421e+00 3.87558728e-01 5.96991837e-01
      7.33633280e-01 1.60028815e+00 -2.69817948e-01 1.87300757e-01
      -1.83260047e+00 -7.34898627e-01 1.66669941e+00 9.50652480e-01
      1.61593533e+00 4.69744116e-01 7.57346153e-01 -1.98898703e-01
      -1.96912766e-01 -6.35894716e-01 -3.79326314e-01 -1.64765015e-01
      -2.74501860e-01 3.84961426e-01 1.68105781e+00 -2.95900702e-01
      8.49641860e-01 1.70485365e+00 1.50639154e-02 -1.89340723e+00
      1.87554491e+00 1.67461014e+00 4.10117149e-01 5.34189641e-01
      3.70102435e-01 1.09079397e+00 -8.96448195e-02 -4.61350791e-02
      1.20094144e+00 4.93739545e-01 3.33635211e-01 9.67269659e-01
      -1.11034073e-01 4.84377503e-01 -5.12576103e-01 4.10809278e-01
      -9.49449897e-01 3.70067626e-01 6.97421253e-01 1.62218183e-01
      -6.85201466e-01 -1.22022617e+00 2.06904009e-01 1.25706971e+00
      1.32424903e+00 1.15070963e+00 -3.66760999e-01 5.29460758e-02
      1.31768918e+00 -2.15468574e+00 -7.15873599e-01 -2.59314943e-02
      1.72302172e-01 -1.04211473e+00 3.32448538e-03 -2.14203405e+00
      9.19047594e-01 9.92794484e-02 -1.61044877e-02 7.29864180e-01
      1.72546610e-01 3.20502162e-01 -7.41894484e-01 -8.03130805e-01
      6.36668503e-01 -8.71488333e-01 -1.45279574e+00 -1.70116723e-01
      -6.94926858e-01 3.18581104e-01 4.76045817e-01 -1.66825429e-01
      5.37734568e-01 -9.53074634e-01 -3.63404363e-01 -2.18263596e-01
      -1.44581473e+00 3.02901696e-02 -2.80089796e-01 -5.48704267e-01
      -4.53707516e-01 1.21348119e+00 -5.57378411e-01 4.84289110e-01
      4.05925363e-01 4.12687570e-01 3.61565351e-01 1.31739950e+00
      4.94167417e-01 1.49787083e-01 -1.13554204e+00 -3.13783079e-01
      -9.90720540e-02 -9.61314917e-01 -6.26483262e-01 -3.38772953e-01
      2.87064284e-01 -1.00495657e-02 4.09427196e-01 1.60042286e+00
      -3.93645138e-01 8.80734503e-01 1.25438786e+00 -6.41855359e-01
      9.68201309e-02 -8.59323144e-01 -2.75856197e-01 -1.34612605e-01
      9.95731950e-01 -6.29440904e-01 -1.60659313e+00 5.31401932e-01
      -3.32975239e-01 -4.64766651e-01 4.63969916e-01 1.29883528e-01
      -2.62115812e+00 4.81060714e-01 1.80246878e+00 -6.10330224e-01
      1.50158554e-01 4.94552672e-01 8.65712583e-01 -5.49461663e-01
      8.07884559e-02 -1.81368440e-01 -3.08072776e-01 -9.02882665e-02
      -1.31532025e+00 -1.27464008e+00 2.22678900e+00 -5.17346382e-01
      -2.89071107e+00 -1.01267159e+00 -1.13235331e+00 8.81036162e-01
      1.34209943e+00 6.04759336e-01 -3.22766691e-01 6.61272228e-01
      2.46833459e-01 8.94122124e-01 8.60677138e-02 1.07196085e-01
      2.41121903e-01 -5.85230708e-01 -7.80434310e-01 4.91629690e-01
      1.62205443e-01 4.38325256e-01 1.47560149e-01 -5.77747822e-01
      -1.04339495e-01 4.27822649e-01 -1.18024981e+00 4.26654786e-01
      -7.75957525e-01 5.54921985e-01 -1.22228169e+00 7.00602591e-01
      7.43635237e-01 2.51870781e-01 7.67234743e-01 -8.01430762e-01
      -1.54732692e+00 4.11453061e-02 -9.62383926e-01 -7.10036576e-01
      1.09405971e+00 1.14919841e+00 -9.09860134e-01 -1.95968136e-01
      -3.26283932e-01 -6.17160797e-01 -3.09247494e-01 1.52348056e-01
      -2.84654427e+00 7.46614277e-01 -1.40348867e-01 -4.97869104e-01
      8.73879969e-01 3.17126036e-01 -2.39706540e+00 1.42072570e+00
      5.55035830e-01 2.08282089e+00 6.20244861e-01 1.34100187e+00
      9.94240418e-02 1.00202620e+00 -8.56972337e-01 -5.18143117e-01
      3.29164207e-01 2.61019439e-01 1.85734832e+00 7.01949358e-01
      -6.40336931e-01 7.43704438e-01 2.92100430e-01 3.92443061e-01
      -1.56166077e+00 2.04505906e-01 1.44198000e-01 -4.74646270e-01
      5.60661182e-02 -1.85546887e+00 6.24721229e-01 -1.18399894e+00
      6.29673362e-01 -2.47115850e-01 6.27930939e-01 7.78077126e-01
      7.14931607e-01 3.39063317e-01 3.58390510e-01 -4.45651978e-01
      -1.35796106e+00 2.88474232e-01 6.21509552e-01 3.07269484e-01
      6.21185660e-01 -1.90312624e-01 -5.10933280e-01 4.46433455e-01
      -5.24425805e-02 1.34803879e+00 1.11198199e+00 -6.63751423e-01
      1.06293774e+00 1.67445540e-01 -1.39896131e+00 -1.04055889e-01
      -1.25610232e+00 -4.65270251e-01 1.07466495e+00 -4.03510183e-01
      -8.75932038e-01 -4.37302470e-01 6.17360592e-01 -1.22229767e+00
      -3.81524898e-02 -8.41775760e-02 1.43403494e+00 2.39076808e-01
      1.49567437e+00 8.88227522e-01 -3.94232392e-01 -2.78534025e-01
      8.60175714e-02 1.21711683e+00 -6.23559415e-01 -7.10742828e-03
      -9.18341428e-02 1.75340092e+00 -1.44936189e-01 4.63220030e-01
      -3.41092795e-01 -1.30738318e+00 5.42867422e-01 1.08623612e+00
      5.71771383e-01 1.20424414e+00 -2.93541402e-01 4.86083835e-01
      -3.30588669e-01 -8.18294764e-01 3.19110274e-01 4.60347891e-01
      -3.40018690e-01 -1.20880985e+00 2.62507051e-01 -9.11063075e-01
      7.27052093e-02 1.28070188e+00 -1.10752964e+00 -5.06670535e-01
      1.17850387e+00 6.54583514e-01 6.02691583e-02 6.34502888e-01
      -4.26301450e-01 -7.02564180e-01 -7.45451927e-01 8.81346837e-02
      3.77301604e-01 1.58864170e-01 -1.67888653e+00 -2.56991927e-02
      2.88498104e-02 1.00764823e+00 2.98492741e-02 -1.28020680e+00
      1.85375318e-01 -1.34284091e+00 2.15455818e+00 4.68357861e-01
      -2.34251305e-01 1.63638085e-01 7.11625814e-01 4.88144279e-01
      4.02271934e-02 1.18629828e-01 1.40403974e+00 5.06671786e-01
      7.93613613e-01 2.58943081e-01 7.78469026e-01 5.86495936e-01
      -1.01715937e-01 1.74078608e+00 -1.34426787e-01 1.31744134e+00
      5.25097668e-01 4.65536356e-01 4.20073718e-01 8.79267529e-02
      -9.64586437e-01 -1.88233459e+00 3.55168968e-01 -6.24551952e-01
      6.79140091e-01 1.03702173e-01 -1.06564808e+00 3.60068023e-01
      1.49266362e+00 2.03241244e-01 6.10340238e-01 3.98765951e-01
      -1.24236977e+00 1.41679311e+00 1.19144768e-01 -6.36145532e-01
      1.13034987e+00 1.27201855e+00 -3.83589268e-01 -9.68305767e-01
      -1.04914272e+00 7.00100124e-01 7.94420063e-01 1.19985165e-02
      1.09663844e+00 1.52694428e+00 4.06329155e-01 2.86349565e-01
      1.55745775e-01 9.92848873e-01 1.24032509e+00 9.14415658e-01
      -3.95089686e-01 -2.68618435e-01 1.07670709e-01 -1.66799676e+00
      -2.09558630e+00 -2.93784320e-01 -2.97997332e+00 2.74776062e-03
      -1.71655548e+00 1.00866869e-01 -8.49842429e-01 3.30795735e-01
      -6.95330203e-01 -1.43974876e+00 -6.64933920e-01 -7.52045512e-02
      7.26145506e-01 -3.89156751e-02 1.24520861e-01 3.21514308e-02
      -9.67994750e-01 4.37030554e-01 6.64811730e-01 1.73170522e-01
      8.07522058e-01 -4.87666667e-01 -5.13406992e-01 1.58730078e+00
      8.10865045e-01 5.70826530e-01 -6.91983819e-01 -7.88102269e-01
      7.56508946e-01 6.92173064e-01 1.35476053e+00 3.42714369e-01
      4.04134363e-01 4.58028048e-01 -8.64733040e-01 -1.30905974e+00
      -1.04289579e+00 -4.89597358e-02 1.77761495e+00 5.53432226e-01
      3.92670453e-01 -9.72361192e-02 1.21780193e+00 -6.01147354e-01
      5.16912580e-01 -1.00291574e+00 -9.74549532e-01 1.25247109e+00
      -1.19871378e+00 1.58593759e-01 1.38961434e+00 -6.95627928e-01
      1.71888992e-01 2.90867835e-01 -5.81463695e-01 -1.50975907e+00
      -4.13750142e-01 -3.61782342e-01 -1.64564580e-01 1.60648036e+00
      6.87307358e-01 -2.21761644e-01 -2.05316305e-01 -7.32973695e-01
      6.51755869e-01 -3.80983412e-01 -1.48593628e+00 -6.67615950e-01
      6.75034106e-01 -3.61360699e-01 6.13757968e-01 4.83134329e-01
      -1.11355394e-01 -8.11753631e-01 -1.67279851e+00 1.31441081e+00
      3.61220777e-01 1.52076316e+00 -1.57328203e-01 -2.07380533e-01
      -5.40404797e-01 1.76380455e+00 -8.57437868e-03 6.91107392e-01
      1.00445735e+00 1.69154847e+00 -5.54813027e-01 6.89256370e-01
      -1.00219563e-01 -5.27504086e-01 4.96440589e-01 -1.41147316e-01
      1.01377034e+00 -7.74926394e-02 3.33429247e-01 -1.04532945e+00
      -9.00107443e-01 -1.60306108e+00 -2.01793253e-01 2.36501098e-01
      -1.01407263e-02 -6.70572340e-01 1.16517282e+00 -1.00392151e+00
      1.10012591e+00 6.65308475e-01 -8.82252872e-01 1.27313125e+00
      5.58502376e-01 -1.71795100e-01 -3.96939307e-01 1.91875541e+00
      1.08589463e-01 8.53950143e-01 -9.38289762e-02 4.99732792e-01
      2.45700598e-01 -2.07123347e-02 9.80534032e-02 8.39091718e-01
      -1.16840839e+00 -1.80698943e+00 -2.38596344e+00 1.48476124e-01
      -1.03674746e+00</_></support_vectors>
  <decision_functions>
    <_>
      <sv_count>1</sv_count>
      <rho>-2.8775068902108164e-01</rho>
      <alpha>
        1.</alpha></_></decision_functions></opencv_ml_svm>
</opencv_storage>
