<?xml version="1.0"?>
<opencv_storage>
<opencv_ml_svm>
  <format>3</format>
  <svmType>C_SVC</svmType>
  <kernel>
    <type>LINEAR</type></kernel>
  <C>10.</C>
  <term_criteria><epsilon>1.1920928955078125e-07</epsilon>
    <iterations>1000</iterations></term_criteria>
  <var_count>522</var_count>
  <class_count>2</class_count>
  <class_labels type_id="opencv-matrix">
    <rows>2</rows>
    <cols>1</cols>
    <dt>i</dt>
    <data>
      0 1</data></class_labels>
  <sv_total>1</sv_total>
  <support_vectors>
    <_>
      1.19620264e-02 -2.76003212e-01 7.75672972e-01 -1.25098491e+00
      1.24893233e-01 1.61963499e+00 4.92871433e-01 8.90340358e-02
      -4.06076312e-01 -1.66251794e-01 -8.49849060e-02 -1.26766935e-01
      2.48773210e-02 -1.46001084e-02 1.44211408e-02 -5.68814695e-01
      1.35633886e+00 1.67165935e+00 1.09670544e+00 4.59890574e-01
      1.13171689e-01 1.83702067e-01 -5.09568572e-01 7.59076297e-01
      -6.83505952e-01 -9.42897275e-02 2.62516290e-01 3.34568948e-01
      5.37815332e-01 2.20019296e-01 3.43095139e-02 9.46089029e-02
      1.68903440e-01 3.05129252e-02 -1.34007096e-01 -4.72248286e-01
      7.14610368e-02 -4.88073260e-01 -1.02984834e+00 -1.45665094e-01
      1.95830777e-01 -7.98699379e-01 -1.87200844e-01 -9.06680524e-02
      -2.04496026e-01 -5.03428459e-01 9.71977860e-02 7.44911551e-01
      -9.57591608e-02 -1.14514527e-03 5.55425473e-02 9.96657833e-02
      -2.00479195e-01 -1.24683052e-01 -1.34114936e-01 -2.41626184e-02
      -6.16302788e-01 -4.55444425e-01 -5.18867016e-01 -2.96529904e-02
      3.39591533e-01 1.44747242e-01 1.47241339e-01 3.13162565e-01
      1.61018342e-01 -8.49025190e-01 -3.98326814e-02 -1.40829638e-01
      -1.61802158e-01 -4.62114885e-02 2.37452611e-01 2.38347545e-01
      -1.89543553e-02 1.92942694e-01 -2.11749375e-01 3.90874594e-01
      6.71681901e-03 -4.74014670e-01 2.64251888e-01 1.48191482e-01
      -3.37005436e-01 1.56375140e-01 -5.00313863e-02 2.13446558e-01
      -4.22293782e-01 3.38419110e-01 -4.56238315e-02 -2.90798366e-01
      2.82650769e-01 6.64371159e-03 2.85520434e-01 -9.26611498e-02
      -3.73243243e-01 -9.28168595e-01 -3.15786377e-02 6.58661872e-03
      1.67160377e-01 -2.05421790e-01 -1.82096228e-01 1.54889137e-01
      -4.60577250e-01 -4.80299741e-01 -3.77923429e-01 1.22392893e+00
      3.43174636e-01 6.67991579e-01 -5.86066127e-01 3.32057029e-01
      -1.98761925e-01 -1.97226346e-01 -8.83438408e-01 -4.68737006e-01
      1.77942693e-01 -9.02589262e-02 5.37203923e-02 1.41666904e-01
      2.05995962e-01 5.69123849e-02 6.69562757e-01 -1.14103884e-01
      1.60368294e-01 1.53806508e-01 3.96076500e-01 2.97389328e-01
      -6.16963170e-02 -2.05614901e+00 1.31592810e-01 8.77446055e-01
      2.99631149e-01 -6.96232617e-02 7.23099947e-01 1.34412050e-01
      -4.96160328e-01 5.91739453e-02 1.42438829e-01 -1.25277027e-01
      -4.89633024e-01 -5.98636150e-01 -3.12732756e-01 -5.10627069e-02
      1.85037553e-01 2.85327494e-01 7.73620307e-02 -1.06215887e-02
      4.72869016e-02 -2.42352128e-01 -8.73577535e-01 -6.42684817e-01
      -1.48362979e-01 -3.44239533e-01 -3.39867137e-02 1.14837277e+00
      9.43859965e-02 -2.53282726e-01 -3.32107037e-01 1.40725315e+00
      5.03099620e-01 -4.38695028e-02 2.57021040e-01 3.44432518e-02
      -7.86771178e-02 5.26281416e-01 5.44862151e-01 9.17840600e-01
      6.54934525e-01 -4.93808419e-01 -5.33135943e-02 -2.38689676e-01
      3.62969488e-01 -7.68158631e-03 -2.62148470e-01 1.22350127e-01
      -4.20747101e-01 2.78950125e-01 -2.18012244e-01 1.09753442e+00
      -2.59268075e-01 -6.98463798e-01 -7.83831239e-01 -6.90291166e-01
      -2.99920946e-01 1.16890574e+00 -5.35554647e-01 2.32476488e-01
      -1.01337183e+00 -1.57869935e-01 -4.32337224e-01 6.10937119e-01
      8.60209838e-02 1.73048213e-01 -1.16729915e+00 5.95336974e-01
      3.98654342e-02 -1.60208142e+00 -1.33072639e+00 -4.86818701e-02
      -4.00006205e-01 -5.03973722e-01 -4.97390747e-01 -1.95648715e-01
      -4.73285139e-01 -7.33229816e-01 -1.61113441e-01 5.89320958e-01
      1.43756494e-01 -1.81832600e+00 -2.75527626e-01 4.33047950e-01
      4.38664667e-02 1.85616046e-01 2.59435505e-01 2.02473357e-01
      2.43393645e-01 1.83293915e+00 -4.86932784e-01 7.49190629e-01
      -2.13841856e-01 -8.43169540e-02 2.15281308e-01 -5.32886863e-01
      -4.47063446e-01 -5.44830620e-01 -9.75061879e-02 8.50578863e-03
      -2.70187527e-01 3.53560597e-01 -1.57257140e-01 -4.32709336e-01
      -2.76679009e-01 -1.97000012e-01 7.73327574e-02 5.40553510e-01
      2.64533073e-01 -4.65962380e-01 -3.03602695e-01 2.65238404e-01
      -5.24131238e-01 -5.32576203e-01 -5.25002360e-01 2.89626896e-01
      -8.01998377e-02 -6.11514866e-01 1.91574067e-01 -2.72248775e-01
      1.77522019e-01 -1.08633265e-02 2.24522144e-01 -9.74317253e-01
      7.55486846e-01 1.27378881e-01 1.90967572e+00 -1.23383224e+00
      4.80578840e-01 1.99330032e-01 6.43072903e-01 9.53035206e-02
      -1.66379750e-01 8.76968652e-02 1.66481704e-01 -1.38168737e-01
      -5.42742074e-01 -6.90271318e-01 1.67430675e+00 -6.52818084e-01
      1.65221250e+00 1.24985361e+00 4.24551159e-01 1.30420446e-01
      2.66654640e-01 -1.02730215e-01 -3.29883665e-01 1.35289654e-01
      -1.83812961e-01 -1.28857747e-01 1.01678170e-01 -1.76044393e+00
      -5.26983678e-01 1.97490100e-02 8.36349905e-01 3.57954986e-02
      4.44916263e-02 -9.01281953e-01 -1.60962204e-03 6.57771885e-01
      1.36163279e-01 5.74738026e-01 5.42941809e-01 9.34945643e-02
      1.63651615e-01 -5.74898720e-01 6.53043866e-01 -3.38666826e-01
      -1.07358241e+00 -1.90827131e-01 -3.77285868e-01 7.65133679e-01
      6.69032633e-02 -2.07599118e-01 -2.38774404e-01 5.19444272e-02
      4.29392457e-01 7.46754289e-01 7.52869904e-01 -4.35577989e-01
      -2.02272788e-01 6.97839141e-01 4.06117052e-01 -1.81183481e+00
      4.48558331e-01 8.62238824e-01 7.26558328e-01 -2.82239079e-01
      -6.02632649e-02 1.86936166e-02 4.19835597e-01 2.85278618e-01
      3.56818646e-01 -1.02513576e+00 1.58615991e-01 -3.73311818e-01
      -4.55029845e-01 1.80939749e-01 -1.46476433e-01 1.01685596e+00
      -1.59210265e-01 3.34559411e-01 -1.94698438e-01 -2.26062030e-01
      -1.41156614e-01 4.10640925e-01 -3.17204356e-01 -2.94092625e-01
      -1.30611628e-01 -7.09537685e-01 -3.12332297e-03 -1.86964899e-01
      4.73271668e-01 5.46206653e-01 -3.91801208e-01 1.18691742e+00
      -1.76067784e-01 5.29026866e-01 1.39089739e+00 -1.58147842e-01
      1.05142236e+00 2.23603821e+00 -9.41179469e-02 -3.80606174e-01
      -1.11025834e+00 6.89882934e-01 4.05572206e-01 3.60939473e-01
      3.43314894e-02 -2.65018791e-01 -8.88996720e-01 3.68093699e-01
      4.06032652e-01 3.28840345e-01 9.73559693e-02 -5.49229264e-01
      4.14585918e-01 7.77946234e-01 -8.94731581e-02 -2.47178808e-01
      2.25460872e-01 -8.63137543e-02 -5.08241475e-01 -4.06572253e-01
      -6.93933785e-01 -9.48246896e-01 -6.58094645e-01 1.14893007e+00
      2.96744049e-01 -3.39546502e-01 2.44534403e-01 -4.18178052e-01
      -3.64097208e-01 2.37737775e-01 2.91677177e-01 7.74775445e-02
      1.11628883e-01 -2.76082233e-02 4.48660851e-01 7.50568807e-01
      9.34130609e-01 -2.89469093e-01 5.25362372e-01 -4.04958844e-01
      -5.59869766e-01 -4.90134805e-01 -6.81037247e-01 -8.44196081e-01
      -3.99140984e-01 -9.52283025e-01 6.49798155e-01 2.91022323e-02
      4.28953350e-01 -4.96161729e-01 -2.07507536e-01 1.37369478e+00
      -3.49817187e-01 -1.31113499e-01 2.16937929e-01 -6.92417681e-01
      -2.08510309e-01 2.25265890e-01 3.26963067e-01 -8.17819059e-01
      -2.27581128e-01 3.69021654e-01 -7.77134061e-01 -8.97804320e-01
      -2.76505619e-01 -5.61239064e-01 1.12700753e-01 3.15438926e-01
      -5.19276798e-01 -3.09691519e-01 -1.80251181e-01 1.45249829e-01
      4.37226027e-01 7.85982847e-01 -1.74014851e-01 5.32007873e-01
      2.41381812e+00 3.04599345e-01 -1.26136929e-01 6.47022203e-02
      8.24949384e-01 -1.16130084e-01 4.01345551e-01 7.73177221e-02
      2.60610133e-01 -1.43243253e+00 -1.51087499e+00 -8.14567268e-01
      -1.00226335e-01 -4.28386688e-01 4.13946122e-01 8.35673690e-01
      6.49830520e-01 -6.73766851e-01 7.03012645e-01 -6.70279682e-01
      1.00186181e+00 3.67417723e-01 9.68957186e-01 1.81240346e-02
      -7.25756526e-01 -6.53534457e-02 -1.11031055e+00 1.37151825e+00
      3.65844667e-02 -2.13764966e-01 6.26795664e-02 5.97250998e-01
      1.25381961e-01 -1.39148355e-01 -9.56601053e-02 -2.65036877e-02
      -4.68380973e-02 1.74980924e-01 4.52799469e-01 7.74886549e-01
      7.78985679e-01 4.54279006e-01 -1.25176251e-01 -4.63403314e-01
      -7.89896250e-01 7.20856726e-01 1.29736677e-01 -2.71964580e-01
      6.29877388e-01 2.80828029e-01 -4.57452804e-01 -1.93738669e-01
      5.48934102e-01 2.25685760e-01 1.89397776e+00 -8.21204424e-01
      2.52790511e-01 9.42378640e-01 -9.74696815e-01 -2.08138913e-01
      1.89784676e-01 3.40775400e-01 -4.43462729e-01 2.46842995e-01
      1.21701324e+00 4.56362039e-01 -6.72023654e-01 -1.94984823e-01
      -4.12389576e-01 -2.88910139e-02 -3.79656196e-01 4.78314459e-01
      -9.15668845e-01 -2.20509005e+00 -1.62493512e-01 -6.39447510e-01
      5.18507123e-01 3.77208740e-01 -5.39484583e-02 7.25759745e-01
      6.64869726e-01 6.07318759e-01 -7.48855054e-01 -7.43364394e-01
      1.39342761e+00 8.67845356e-01 2.04090536e-01 -1.76186264e+00
      -4.86831486e-01 -6.00700378e-01 3.28828305e-01 4.10429299e-01
      -1.33865416e+00 1.03796864e+00 4.95225549e-01 -1.43435776e-01
      1.88411877e-01 2.20483243e-02</_></support_vectors>
  <decision_functions>
    <_>
      <sv_count>1</sv_count>
      <rho>-1.2417465153109550e+00</rho>
      <alpha>
        1.</alpha></_></decision_functions></opencv_ml_svm>
</opencv_storage>
