<?xml version="1.0"?>
<opencv_storage>
<opencv_ml_svm>
  <format>3</format>
  <svmType>C_SVC</svmType>
  <kernel>
    <type>LINEAR</type></kernel>
  <C>10.</C>
  <term_criteria><epsilon>1.1920928955078125e-07</epsilon>
    <iterations>1000</iterations></term_criteria>
  <var_count>522</var_count>
  <class_count>2</class_count>
  <class_labels type_id="opencv-matrix">
    <rows>2</rows>
    <cols>1</cols>
    <dt>i</dt>
    <data>
      0 1</data></class_labels>
  <sv_total>1</sv_total>
  <support_vectors>
    <_>
      -4.50684950e-02 4.34624776e-02 6.97636485e-01 1.05116867e-01
      9.44380760e-02 -3.83042157e-01 -1.32242382e-01 -3.73413861e-01
      -4.95465547e-01 -1.43215612e-01 5.83479553e-02 3.75197642e-02
      8.43816698e-01 -1.40305564e-01 2.73341000e-01 6.91377372e-02
      3.52095455e-01 1.44409593e-02 1.30314767e-01 7.04241335e-01
      6.96873888e-02 -1.61414072e-02 -1.63375974e-01 -4.89036879e-03
      -1.34479120e-01 -1.81830619e-02 1.47494286e-01 1.57797094e-02
      -1.23184800e-01 3.37234773e-02 1.66185945e-02 4.68045510e-02
      1.15378164e-02 -6.52141543e-03 2.94134945e-01 3.28294225e-02
      -2.39914253e-01 -4.64171588e-01 1.84580877e-01 3.17407660e-02
      -2.29027599e-01 9.59002674e-02 -2.95443758e-02 -1.34363268e-02
      1.93961158e-01 1.60442423e-02 1.03016704e-01 2.91274577e-01
      -9.53119714e-03 -4.29293551e-02 -1.82278946e-01 -5.02960265e-01
      4.79965538e-01 2.28947759e-01 6.81950748e-02 3.17614935e-02
      2.82177459e-02 1.10761486e-01 5.23739271e-02 3.48366089e-02
      -9.95023772e-02 2.12234557e-02 8.48092213e-02 1.71518236e-01
      -6.05222940e-01 7.29043484e-01 -8.67617726e-02 5.66212475e-01
      1.16852432e-01 1.47198558e-01 3.54103833e-01 2.20962390e-01
      1.93133041e-01 1.84599727e-01 -2.82334745e-01 6.56989887e-02
      8.34095925e-02 1.89440161e-01 2.77476549e-01 -3.23228119e-03
      -4.13609743e-02 1.49304733e-01 4.09413651e-02 -1.45138195e-02
      -2.15883851e-01 7.37905875e-02 5.30268438e-02 1.21135108e-01
      3.49862799e-02 8.04214925e-02 -1.37582660e-01 1.59929022e-01
      1.12641461e-01 -1.54177025e-01 1.22540273e-01 3.55319418e-02
      -8.66604671e-02 2.03061011e-02 6.25435263e-02 9.67922285e-02
      1.30364791e-01 2.74245352e-01 1.47676855e-01 -7.00363219e-01
      -6.83405876e-01 -7.79563487e-01 -1.07888751e-01 -1.27604157e-01
      4.18972634e-02 9.59084034e-02 1.91889405e-01 1.67296797e-01
      4.14830983e-01 -7.47298226e-02 -3.05615459e-02 4.26730560e-03
      -3.64572674e-01 -3.86964977e-01 2.59113133e-01 -5.79535782e-01
      1.18793003e-01 1.02049105e-01 7.63417333e-02 3.28510366e-02
      1.13024615e-01 -2.70928085e-01 1.10182337e-01 8.87572765e-03
      2.05420386e-02 3.51473212e-01 4.80835974e-01 -1.42835677e-01
      -1.85231134e-01 7.80280977e-02 7.20358640e-02 2.17023566e-01
      1.90451145e-01 1.31170809e-01 3.23275506e-01 5.48265837e-02
      8.58266279e-02 -1.09134853e-01 -9.97610271e-01 -5.08300185e-01
      -1.51340768e-01 3.86238158e-01 2.04398762e-02 2.16208220e-01
      -4.88120168e-02 -1.94020852e-01 3.16672176e-01 4.61356372e-01
      2.36239985e-01 8.71822536e-02 1.55019686e-01 7.69452393e-01
      2.41196528e-01 -2.22336277e-01 3.44181471e-02 1.44682318e-01
      3.93779650e-02 -4.76072580e-01 -1.20139575e+00 -4.67638910e-01
      -3.78815472e-01 2.13797241e-01 -8.79228354e-01 -1.35561153e-01
      7.65166759e-01 1.88590184e-01 1.13817826e-01 2.42383838e-01
      3.38556081e-01 4.21537086e-02 5.19570932e-02 -2.43853867e-01
      8.21028501e-02 7.81955570e-02 1.26301512e-01 7.08329901e-02
      9.45771262e-02 -1.99979067e-01 2.84866422e-01 2.83739567e-01
      3.44732910e-01 3.95054460e-01 -3.79569530e-01 3.90583426e-02
      6.67228876e-03 -6.30077347e-02 -6.45064637e-02 -8.04145813e-01
      -2.53831714e-01 3.30578804e-01 4.40279812e-01 -3.80869359e-01
      1.50041059e-01 1.65960908e-01 -4.65735272e-02 1.09337740e-01
      4.03178662e-01 1.52834713e-01 -9.37684923e-02 -4.41422284e-01
      -1.24433495e-01 2.07491189e-01 1.36631150e-02 -2.86382675e-01
      7.55938292e-02 -4.12098706e-01 -8.23065877e-01 -3.48326266e-01
      -3.46077919e-01 -9.66675878e-02 1.31127506e-01 -1.17698729e-01
      8.83035958e-02 8.65175501e-02 -4.48796302e-02 3.06482930e-02
      1.05038628e-01 2.79023230e-01 1.16058044e-01 8.34887996e-02
      3.94782633e-01 4.05337028e-02 1.06963754e-01 2.37907067e-01
      2.87436038e-01 4.25615907e-02 -2.79306807e-02 -3.68553400e-02
      6.99428469e-02 -2.26578876e-01 9.57504511e-02 -6.68713674e-02
      4.86453820e-04 6.78265244e-02 2.25391969e-01 -1.57270208e-01
      -5.89143410e-02 -1.38693035e-01 3.95738900e-01 2.40768820e-01
      4.44347505e-03 1.84142459e-02 9.52702761e-02 -2.71599650e-01
      5.04149497e-02 -2.00840160e-01 -8.78472701e-02 -6.55506372e-01
      6.74633086e-02 9.83327180e-02 7.96037316e-02 3.00113577e-02
      1.61461279e-01 4.24691767e-01 1.72869310e-01 -6.08662553e-02
      2.49787029e-02 2.47671396e-01 -1.88395202e-01 2.59159505e-01
      -2.09386930e-01 -4.87374850e-02 6.34770334e-01 -1.21582761e-01
      3.95126874e-03 -2.22214609e-02 -3.41793090e-01 3.61927077e-02
      -1.18233912e-01 -7.61653900e-01 -8.02773774e-01 4.85589802e-01
      5.25988698e-01 -6.74446046e-01 -6.21139646e-01 -5.49436033e-01
      6.95832968e-01 -7.03577921e-02 -9.24407184e-01 -1.86282977e-01
      -5.80219626e-01 3.25832367e-02 1.76454023e-01 1.80489406e-01
      5.90155125e-02 2.45683379e-02 2.93637812e-01 8.34015757e-02
      1.41721487e-01 1.49398949e-02 5.60973287e-01 -4.76478875e-01
      3.62175219e-02 7.70378038e-02 -3.17179024e-01 -3.91193926e-02
      -7.12830544e-01 -2.41552472e-01 4.53319609e-01 3.33617121e-01
      -2.14572266e-01 -3.47535089e-02 -2.72121400e-01 -4.20260802e-02
      -1.23072214e-01 -4.89967853e-01 1.02110647e-01 4.73317474e-01
      -4.77606356e-01 -9.17574689e-02 -3.82450968e-01 -4.43022847e-01
      -4.48313445e-01 -4.39957142e-01 -6.78363442e-01 -3.10949951e-01
      1.90048441e-01 1.06974810e-01 4.59960736e-02 2.19344929e-01
      -1.61602288e-01 -1.22864150e-01 -1.29534900e-01 3.43049839e-02
      7.97547773e-02 1.00305527e-02 -1.68736845e-01 5.05548358e-01
      2.78005153e-01 3.25125605e-01 1.47970825e-01 3.32767516e-01
      -7.15585232e-01 -9.02555287e-01 2.05300048e-01 -2.20624819e-01
      1.08484082e-01 4.77925450e-01 3.03816676e-01 -5.62724546e-02
      -3.30083191e-01 -4.13392246e-01 -3.20718408e-01 2.43765235e-01
      8.41490149e-01 -3.41377035e-02 -8.08742791e-02 -9.14254412e-02
      1.05277076e-01 1.32153615e-01 1.33630380e-01 -3.48206103e-01
      -7.83549607e-01 -5.88035822e-01 2.46230960e-01 -1.22937866e-01
      -1.98457271e-01 -9.77944955e-02 -1.00443773e-01 -1.73949316e-01
      -5.29434681e-02 -6.60612211e-02 -1.04500584e-01 7.16835931e-02
      3.32595736e-01 4.01500046e-01 3.44366133e-01 -2.08305001e-01
      8.66243765e-02 8.11757982e-01 1.73463270e-01 4.59059805e-01
      7.06431031e-01 2.11205378e-01 -2.50157386e-01 -3.06184381e-01
      2.53116339e-01 1.12140492e-01 -4.99180198e-01 -4.21103299e-01
      -4.81649578e-01 -1.11986138e-02 4.33912575e-01 -4.52597797e-01
      1.06109865e-01 2.11108401e-01 2.49129720e-02 1.41657174e-01
      -1.47556350e-01 1.97193012e-01 -1.41608762e-02 1.39744177e-01
      -1.02744766e-01 -2.16052204e-01 1.39257610e-01 -3.28137994e-01
      -2.01223210e-01 3.69272888e-01 2.21199512e-01 5.11522777e-02
      -7.98344687e-02 -8.36709738e-02 4.03444290e-01 -3.83060127e-01
      -3.43385041e-02 -1.85371652e-01 8.12205553e-01 -3.03925741e-02
      -2.87595570e-01 -3.61378133e-01 2.43436307e-01 -1.30887419e-01
      -1.38958603e-01 -7.77446702e-02 2.87283421e-01 -3.32056135e-01
      4.07984778e-02 -1.93542033e-01 -2.87943900e-01 -4.13307846e-01
      -5.41515470e-01 -2.26916716e-01 -3.16730052e-01 -7.99385011e-02
      -4.98380244e-01 -8.15516055e-01 -2.08067939e-01 1.70431495e-01
      1.25248313e-01 -2.37159997e-01 -1.61538795e-01 6.61377907e-01
      -5.14865279e-01 -1.16449857e+00 -3.96161407e-01 -8.65075648e-01
      5.44011593e-01 -4.59106773e-01 -7.39330530e-01 5.27719975e-01
      7.40116239e-01 3.07581633e-01 4.83714044e-02 -7.76405632e-01
      1.02893233e+00 -1.49090022e-01 -3.48632485e-01 3.92957628e-01
      1.70656770e-01 3.15895528e-01 8.86933744e-01 4.67017025e-01
      -1.11414659e+00 -5.66260457e-01 2.21015722e-01 6.70333281e-02
      4.31512713e-01 -6.18982077e-01 -5.86562037e-01 1.58485264e-01
      -4.27876741e-01 -5.35162687e-01 -7.19408225e-03 -6.70591116e-01
      7.45375678e-02 2.37302840e-01 8.52678791e-02 -1.94433212e-01
      -1.47525951e-01 2.41594806e-01 -9.70614433e-01 1.06841516e+00
      6.07687235e-01 -1.26614898e-01 2.29331389e-01 -7.68975094e-02
      3.69115710e-01 -6.70290291e-01 2.47259680e-02 -1.94571719e-01
      1.90105900e-01 3.99676897e-02 -2.09713191e-01 2.82124002e-02
      3.14079195e-01 3.05802345e-01 1.35024619e+00 -1.05399382e+00
      6.84590340e-01 6.58099473e-01 9.59957898e-01 -9.69402678e-03
      -1.84859291e-01 6.54710829e-01 -1.20623147e+00 -7.31799453e-02
      2.07940191e-01 3.82558256e-02 8.43694627e-01 1.79609463e-01
      -7.04845130e-01 -5.77877462e-01 7.60769665e-01 2.83216596e-01
      -8.59357834e-01 -3.78567785e-01 -2.15773031e-01 5.96632540e-01
      -6.81415558e-01 4.05389696e-01 -5.10679185e-01 4.89215739e-02
      1.39208913e+00 -6.22892439e-01 2.03453749e-01 5.86054325e-01
      -6.56669915e-01 1.16052246e+00</_></support_vectors>
  <decision_functions>
    <_>
      <sv_count>1</sv_count>
      <rho>-1.4353706139599389e+00</rho>
      <alpha>
        1.</alpha></_></decision_functions></opencv_ml_svm>
</opencv_storage>
