<?xml version="1.0"?>
<opencv_storage>
<opencv_ml_svm>
  <format>3</format>
  <svmType>C_SVC</svmType>
  <kernel>
    <type>LINEAR</type></kernel>
  <C>10.</C>
  <term_criteria><epsilon>1.1920928955078125e-07</epsilon>
    <iterations>1000</iterations></term_criteria>
  <var_count>522</var_count>
  <class_count>2</class_count>
  <class_labels type_id="opencv-matrix">
    <rows>2</rows>
    <cols>1</cols>
    <dt>i</dt>
    <data>
      0 1</data></class_labels>
  <sv_total>1</sv_total>
  <support_vectors>
    <_>
      -6.57553300e-02 -3.22943330e-01 -5.37249923e-01 1.17616642e+00
      4.75074425e-02 -1.14859268e-03 -1.54400170e-01 1.30253166e-01
      -2.93595016e-01 -1.85780093e-01 -4.76008952e-02 1.57051951e-01
      1.30889580e-01 4.76123452e-01 2.07013693e-02 2.18570456e-01
      -2.50685960e-01 -1.11715369e-01 3.57211351e-01 -4.51365381e-01
      7.72737190e-02 4.58134972e-02 2.72099078e-02 -1.08825795e-01
      2.01585796e-02 1.78322375e-01 2.77505890e-02 5.07428721e-02
      -2.61256486e-01 -1.40521914e-01 1.23180009e-01 -7.43475854e-02
      5.53206690e-02 1.15064345e-02 -2.37732038e-01 8.07632878e-02
      6.47610798e-02 -1.23208672e-01 -2.55505070e-02 -1.49476737e-01
      1.57548077e-02 -1.07973441e-01 -5.04936516e-01 6.66019171e-02
      3.74688990e-02 -2.09574223e-01 3.29070911e-02 -3.21507305e-01
      -3.20514925e-02 -8.42649490e-02 1.01581477e-01 1.50281280e-01
      -8.17893982e-01 -7.22670317e-01 -1.91802129e-01 -3.41354936e-01
      -2.08319142e-01 -2.70515144e-01 -4.62109894e-01 -9.55657661e-01
      -1.18432686e-01 1.09216934e-02 1.77456792e-02 -2.64663160e-01
      -2.57530540e-01 -2.47458905e-01 4.02113572e-02 4.13483679e-01
      5.57072520e-01 6.25607595e-02 -3.48448977e-02 6.61209822e-02
      6.26388714e-02 8.50503799e-03 2.99538314e-01 1.29752636e-01
      -3.51372153e-01 -4.25256848e-01 -6.47471488e-01 -4.50669348e-01
      -2.00990260e-01 -2.04919010e-01 -1.87365651e-01 2.36555755e-01
      1.80597708e-01 -2.37540871e-01 1.77929848e-01 6.10005260e-01
      -3.52639854e-01 -4.10988219e-02 2.02788636e-01 -9.31505188e-02
      -3.60090286e-02 -5.23011312e-02 4.43753600e-02 5.64641878e-02
      -6.16168603e-02 -4.07989264e-01 8.87112394e-02 -7.65671656e-02
      -1.60634220e-01 -1.74256235e-01 1.33688569e-01 9.22427922e-02
      -7.39344895e-01 -3.33056636e-02 3.98908049e-01 -3.30495983e-01
      9.29843821e-03 -6.97426870e-02 -2.12217525e-01 -9.90746822e-03
      -5.51115721e-03 2.74419963e-01 7.39729777e-02 5.37290657e-03
      1.02360718e-01 -8.56417343e-02 -1.46790192e-01 6.00775778e-02
      -3.96111570e-02 -1.72761142e-01 2.66936660e-01 3.84795308e-01
      -3.45876440e-02 6.29725337e-01 -1.36051923e-01 -4.13585305e-02
      1.79726347e-01 -1.15095425e+00 2.48093717e-02 -1.81431100e-01
      5.99983335e-01 3.84565532e-01 1.96296260e-01 -4.21800017e-01
      -5.53079247e-01 -1.10206082e-01 -4.50258851e-01 1.62829593e-01
      1.50593430e-01 1.15061842e-01 3.44051212e-01 2.84308046e-01
      1.65926665e-02 2.32024062e-02 -2.77113259e-01 -6.68704152e-01
      -4.28750366e-01 -2.79599577e-01 -4.39133972e-01 -9.82869327e-01
      -2.34324098e-01 -8.86219367e-02 -3.12341511e-01 -2.41752520e-01
      1.33711457e-01 -3.39821309e-01 -6.48654252e-03 -1.35815933e-01
      1.03695653e-01 8.80008399e-01 4.37237382e-01 1.82797298e-01
      -5.08640818e-02 -2.29622602e-01 3.13939929e-01 -4.72574502e-01
      -6.49852097e-01 -1.18193960e+00 -1.54187260e-02 -9.38900173e-01
      -9.21520889e-02 -6.71259165e-01 -6.02818839e-02 -5.70761442e-01
      -6.42543077e-01 -2.34867916e-01 -4.13729072e-01 -3.46869260e-01
      -4.82553124e-01 -2.06261590e-01 -3.93016368e-01 1.09354563e-01
      1.12222731e-01 -5.09723872e-02 3.51152539e-01 4.77177510e-03
      3.29808705e-02 -6.38712570e-02 -5.42096719e-02 5.15263855e-01
      -4.95835274e-01 -3.96486074e-02 -2.16083065e-01 -5.48764169e-02
      -2.41956770e-01 -2.78883308e-01 -3.18127215e-01 -2.00690366e-02
      -1.95843816e-01 1.12728512e+00 -5.13218880e-01 -5.54824173e-01
      -2.45098278e-01 2.86063522e-01 -8.61403286e-01 -3.75228912e-01
      -1.38291091e-01 -2.20506772e-01 1.72626227e-01 -5.13783246e-02
      -7.57429376e-02 -7.29491770e-01 -8.82838219e-02 1.60148785e-01
      2.78273821e-01 6.85391128e-02 -1.90699458e-01 1.10732736e-02
      -6.62585646e-02 -1.14750043e-01 2.44357493e-02 2.35126670e-02
      2.24031270e-01 3.82694528e-02 -3.34705800e-01 3.48873660e-02
      2.31571011e-02 4.34018373e-01 7.46988133e-02 1.40037686e-01
      8.28206390e-02 -3.21729556e-02 2.39768803e-01 6.20938949e-02
      2.77076960e-01 -5.27014844e-02 2.87457407e-01 1.68318134e-02
      -9.58073325e-03 4.09360640e-02 2.38194257e-01 -4.60662954e-02
      1.54964969e-01 -7.63845295e-02 -1.75370276e-01 2.41756082e-01
      1.24132119e-01 4.22532201e-01 7.17312470e-02 6.47890329e-01
      1.94916040e-01 9.55402330e-02 2.04212978e-01 -8.45150709e-01
      1.76015452e-01 -2.64662743e-01 -4.31230277e-01 2.96240747e-01
      1.08325668e-01 1.31659850e-01 4.04398531e-01 1.07910968e-01
      3.51482809e-01 -7.91093186e-02 -6.49015307e-01 1.48986250e-01
      7.05460683e-02 9.83735844e-02 4.06410903e-01 2.23866224e-01
      5.01196906e-02 8.12632814e-02 1.32532030e-01 3.28985840e-01
      -1.25354633e-01 4.39635277e-01 2.07686648e-01 4.05406624e-01
      -8.02454710e-01 2.18428686e-01 -1.80276304e-01 -2.83879638e-01
      -1.76159721e-02 1.42674148e-01 -7.73390681e-02 -2.47074559e-01
      -1.47091120e-01 2.70459712e-01 -5.71315251e-02 -1.73479512e-01
      -4.66081709e-01 -1.06147146e+00 -5.26511550e-01 8.98583889e-01
      5.62113047e-01 1.76952243e-01 4.45588753e-02 7.12765083e-02
      4.46756840e-01 3.85151654e-01 7.05122888e-01 7.35159516e-02
      3.11738104e-01 -1.31057680e-01 -2.47032702e-01 -3.85568559e-01
      -9.17301700e-02 5.44774413e-01 3.92488331e-01 -4.21567634e-02
      2.28201538e-01 9.78711993e-02 -1.14080288e-01 1.47522107e-01
      1.25647709e-01 9.74655926e-01 3.45157623e-01 6.03348732e-01
      -1.18486333e+00 -6.95405960e-01 -4.27733541e-01 -1.46114334e-01
      4.57151800e-01 -1.31270558e-01 -5.42205237e-02 -3.48518074e-01
      -3.02828103e-01 7.38715947e-01 6.77912295e-01 -4.21822757e-01
      -3.29832256e-01 -5.66718340e-01 2.99133092e-01 9.60362256e-02
      7.86793590e-01 4.90728170e-01 8.65205705e-01 1.75512910e-01
      1.71490297e-01 -1.49063671e+00 -6.82188332e-01 -6.50740027e-01
      -1.47416756e-01 -9.15312290e-01 2.76771873e-01 -2.86107242e-01
      -6.58633590e-01 5.38114130e-01 1.18843362e-01 1.52175099e-01
      -7.30477367e-03 -3.45967128e-04 -5.91593236e-03 1.72824085e-01
      5.89233160e-01 -7.37617398e-03 6.76679790e-01 6.37807071e-01
      1.21448827e+00 -5.64825654e-01 6.82309389e-01 -5.82212865e-01
      -2.64220446e-01 1.21811129e-01 2.88262665e-01 1.38722271e-01
      -2.04273328e-01 -2.69818395e-01 -8.65994990e-02 -8.93103182e-02
      1.69466794e-01 9.97002572e-02 1.32778540e-01 -4.42070030e-02
      -1.15342848e-02 2.01512262e-01 1.49576172e-01 8.60844254e-02
      -3.54840815e-01 -2.87252609e-02 2.91226715e-01 3.51331800e-01
      2.67084897e-01 2.47948259e-01 3.00844133e-01 7.55092025e-01
      1.07686535e-01 -1.34720817e-01 -1.42006442e-01 -3.22220922e-01
      1.01196587e-01 -1.07734174e-01 -1.09581363e+00 -3.85470659e-01
      -5.30154288e-01 9.38271433e-02 -5.33758886e-02 7.64360726e-01
      1.80984333e-01 2.67484993e-01 -1.48472413e-01 1.84725866e-01
      5.05591705e-02 1.28155077e+00 7.76066899e-01 6.60475016e-01
      -8.03653449e-02 1.60925597e-01 2.11801291e-01 -8.56035590e-01
      8.17575976e-02 1.76539016e+00 -3.99895430e-01 -2.37223562e-02
      5.31397581e-01 1.22046506e+00 6.04465485e-01 6.46950454e-02
      -3.85478228e-01 1.23124266e+00 7.02103198e-01 7.14328140e-02
      1.05366325e+00 5.81831336e-01 -5.18656850e-01 -1.18260968e+00
      -4.76873279e-01 1.00598502e+00 -4.60060716e-01 -2.50313673e-02
      1.06434405e-01 7.02623725e-01 -4.35196519e-01 3.53116363e-01
      8.08921382e-02 2.47268565e-02 2.91487187e-01 -8.01242590e-02
      7.14540482e-01 1.59731939e-01 4.56555486e-01 8.72782528e-01
      4.60250340e-02 -5.71686208e-01 -2.30571628e-01 -1.48387000e-01
      -8.06977928e-01 -5.44669509e-01 1.73037603e-01 2.15818688e-01
      2.35997692e-01 -2.56254394e-02 -9.34872031e-01 -7.58632183e-01
      2.43353441e-01 1.97508484e-01 -1.12607265e+00 -5.54869950e-01
      -7.19345033e-01 -4.68860902e-02 8.52954924e-01 5.08270323e-01
      -1.03060659e-02 -2.46471036e-02 -6.95876777e-02 3.46560329e-01
      3.97440255e-01 -7.22143874e-02 -8.76125097e-01 -3.63963336e-01
      -1.11532258e-02 7.14906812e-01 5.38024366e-01 8.04110840e-02
      3.20041329e-01 2.99840033e-01 -2.89381623e-01 -1.54507920e-01
      -4.42731172e-01 -4.56034333e-01 5.35246968e-01 -3.30184788e-01
      8.34786773e-01 3.49049307e-02 3.69279683e-02 3.89190614e-01
      -7.89371356e-02 7.78865635e-01 -3.40000033e-01 -2.43957698e-01
      1.19142389e+00 1.81838915e-01 -6.15666866e-01 4.82564345e-02
      3.10926437e-01 7.19664454e-01 -3.66942018e-01 -3.12508285e-01
      3.51942837e-01 2.87931144e-01 9.67544615e-01 -2.61163056e-01
      8.68399799e-01 -3.01505655e-01 8.71735871e-01 -2.75028288e-01
      1.98563993e-01 4.13003504e-01 3.49317223e-01 1.12187397e+00
      -4.14100647e-01 -1.32890987e+00 -1.87008274e+00 9.37650427e-02
      3.21242899e-01 -2.52923179e+00 -1.27807677e-01 -3.80919129e-01
      2.91873962e-01 -3.77075166e-01</_></support_vectors>
  <decision_functions>
    <_>
      <sv_count>1</sv_count>
      <rho>2.1861386594349269e-01</rho>
      <alpha>
        1.</alpha></_></decision_functions></opencv_ml_svm>
</opencv_storage>
