<?xml version="1.0"?>
<opencv_storage>
<opencv_ml_svm>
  <format>3</format>
  <svmType>C_SVC</svmType>
  <kernel>
    <type>LINEAR</type></kernel>
  <C>10.</C>
  <term_criteria><epsilon>1.1920928955078125e-07</epsilon>
    <iterations>1000</iterations></term_criteria>
  <var_count>522</var_count>
  <class_count>2</class_count>
  <class_labels type_id="opencv-matrix">
    <rows>2</rows>
    <cols>1</cols>
    <dt>i</dt>
    <data>
      0 1</data></class_labels>
  <sv_total>1</sv_total>
  <support_vectors>
    <_>
      -4.23971638e-02 2.64598671e-02 -5.87922812e-01 -1.25315413e-01
      -1.14850914e-02 -2.90583968e-02 -2.53480613e-01 3.62312458e-02
      -3.93818431e-02 1.03801049e-01 3.17042246e-02 6.54338626e-03
      -3.89440715e-01 4.48037863e-01 3.73808295e-01 4.80740666e-02
      1.84394196e-01 -5.80448918e-02 7.35745672e-03 -1.15484990e-01
      -3.30299884e-02 7.00105261e-03 -2.91950792e-01 -2.99539000e-01
      -2.23949686e-01 -2.79538035e-01 -1.36717811e-01 -5.28842732e-02
      2.86623299e-01 1.27608925e-01 -1.74508229e-01 -2.85543222e-02
      3.67600061e-02 2.59889774e-02 9.39820781e-02 2.99819887e-01
      2.54904449e-01 2.35397339e-01 3.25434983e-01 -1.46190692e-02
      2.25280528e-03 4.47324425e-01 -1.55174300e-01 -4.33172807e-02
      3.26765507e-01 -1.72005355e-01 8.38527009e-02 1.30893797e-01
      9.76530835e-02 1.29562214e-01 3.00907381e-02 6.20781407e-02
      2.41637394e-01 1.73387960e-01 1.41334772e-01 -3.04710343e-02
      -2.18550578e-01 7.07851052e-02 1.79684646e-02 -3.79413188e-01
      -4.49945685e-03 3.10625434e-02 3.42779011e-02 1.88131988e-01
      2.34368116e-01 4.77130786e-02 3.39036882e-02 -3.71931225e-01
      5.60278632e-02 -1.14187948e-01 6.45719767e-02 3.13137621e-02
      -1.92326121e-02 8.58609751e-02 2.18774155e-01 -7.65721723e-02
      3.33364755e-01 -4.98514622e-03 4.26653087e-01 1.74099252e-01
      7.51618296e-02 -3.68006021e-01 2.88640290e-01 -1.44450784e-01
      1.60483614e-01 -2.60909833e-02 -2.43234292e-01 8.74232966e-03
      7.16942735e-03 2.91626472e-02 4.25023064e-02 7.67208859e-02
      1.06894441e-01 -1.08577359e+00 3.86516005e-02 4.36359085e-02
      4.13369536e-02 -2.22099334e-01 -1.47557616e-01 -5.49787544e-02
      2.72497833e-02 3.29568833e-02 3.11326571e-02 -1.79086939e-01
      9.77184594e-01 -6.50849223e-01 -1.12619805e+00 2.62600124e-01
      3.76171879e-02 -6.41625822e-02 2.27161691e-01 1.67807266e-01
      -9.73368943e-01 1.27160087e-01 3.87745015e-02 -1.47611031e-03
      -5.48308250e-03 1.70193031e-01 -3.01147819e-01 3.03687394e-01
      -4.41438481e-02 -3.42916325e-03 -6.44205093e-01 -6.88542426e-01
      -2.80247271e-01 4.64242339e-01 -9.20185149e-02 2.54911125e-01
      2.55536526e-01 -1.72471538e-01 -2.67274976e-01 -1.57236546e-01
      -6.51549734e-03 -5.66536076e-02 -7.39055723e-02 -8.19076300e-02
      3.56934257e-02 -7.65482187e-02 -1.72473546e-02 1.17082782e-01
      -5.58863953e-02 1.64693221e-01 6.29899502e-02 3.99316177e-02
      -1.10054843e-01 7.63433576e-01 2.57781327e-01 1.69611305e-01
      2.68233865e-01 1.59614846e-01 4.20894682e-01 -1.01624569e-02
      -4.05162945e-02 -1.72660932e-01 -5.34107648e-02 4.62595150e-02
      1.23072349e-01 2.95226753e-01 9.38653797e-02 2.79412508e-01
      3.10519844e-01 2.80750394e-01 -8.99170414e-02 -2.42203549e-01
      -1.56228617e-01 1.15930831e+00 2.02474045e-03 5.01726158e-02
      4.64568853e-01 3.71581107e-01 -1.26661789e-02 2.73569167e-01
      -1.21282870e-02 2.34106511e-01 2.12069809e-01 -6.90017819e-01
      -5.26964013e-03 1.13032475e-01 3.35691422e-02 -4.15942864e-03
      -2.70954728e-01 1.03490971e-01 -2.33220205e-01 4.51883823e-01
      3.53444904e-01 1.01369508e-01 3.32095921e-01 -2.67690551e-02
      -8.43983367e-02 -8.70598853e-02 3.91357005e-01 3.77456322e-02
      1.67684823e-01 3.52362543e-01 2.44034618e-01 5.89004345e-03
      1.73792958e-01 9.27500948e-02 -2.90396005e-01 -7.60975778e-02
      -2.13484396e-03 -5.81144989e-01 -1.09969057e-01 -3.00993193e-02
      1.96302801e-01 -6.43165588e-01 -5.44678867e-01 4.26542789e-01
      -7.64565542e-02 -1.34588256e-01 4.58853804e-02 -4.91831042e-02
      -1.54344395e-01 3.71502846e-01 3.06368396e-02 -6.35411918e-01
      6.85461983e-02 -1.91039946e-02 9.72103328e-03 4.41812165e-02
      -3.89772165e-03 4.88938577e-02 8.96665677e-02 3.45155708e-02
      7.99066946e-02 3.97743620e-02 -8.98114219e-02 1.33483514e-01
      1.58499360e-01 -7.34935641e-01 -4.86326903e-01 -5.15699923e-01
      -4.32437479e-01 6.30544871e-02 -6.20629825e-02 1.23107664e-01
      3.29443589e-02 2.88749278e-01 1.16253823e-01 1.49047956e-01
      3.43332849e-02 -2.92692572e-01 4.34097387e-02 2.38938510e-01
      8.00832957e-02 1.11569189e-01 1.12206720e-01 -3.16976786e-01
      2.66679734e-01 -1.87019323e-04 -3.27081010e-02 -5.67464769e-01
      -8.65954041e-01 -7.86747992e-01 -4.72114772e-01 -1.33709624e-01
      -6.67198539e-01 -1.14301324e+00 -1.75897613e-01 1.10735536e-01
      1.33436978e-01 1.01835154e-01 6.42365590e-02 2.87401855e-01
      4.20452207e-02 8.14990029e-02 -7.56355464e-01 1.66261405e-01
      1.12588726e-01 4.88659292e-02 6.01209886e-02 -4.65394147e-02
      5.04068807e-02 -1.52193168e-02 4.09052381e-03 -3.38166177e-01
      1.20144337e-01 -4.56255786e-02 -8.40003565e-02 1.14081740e-01
      -4.42487508e-01 1.23554237e-01 -1.57277146e-03 2.74601579e-01
      2.27291554e-01 -1.18719947e+00 -7.58053243e-01 -6.86753929e-01
      -3.53331238e-01 1.19352497e-01 -4.30058956e-01 1.73065916e-01
      3.21934700e-01 2.60739267e-01 1.36552989e-01 3.20577115e-01
      4.56630766e-01 1.59166660e-02 2.75119934e-02 1.25771761e-01
      2.52757788e-01 -2.49479294e-01 9.10924822e-02 -2.15374127e-01
      6.20748252e-02 -5.86170495e-01 -6.34229422e-01 1.30365998e-01
      -2.38522068e-02 1.03109276e+00 7.21685350e-01 2.24805072e-01
      8.14435109e-02 1.37444541e-01 -1.46715298e-01 -8.92250240e-03
      -2.06616260e-02 -3.43998253e-01 3.47909108e-02 -9.47695524e-02
      5.39802670e-01 8.09166133e-02 2.46440247e-01 -1.45599350e-01
      -2.62623966e-01 -6.48479819e-01 -2.51262665e-01 -7.25521073e-02
      1.47672161e-01 1.94577664e-01 7.15186954e-01 -4.88839038e-02
      6.72391057e-02 2.09312201e-01 5.68789661e-01 7.04506319e-03
      7.34133273e-02 2.92942040e-02 2.25128859e-01 8.40831921e-02
      1.55661687e-01 4.77659285e-01 -1.84292927e-01 2.91426897e-01
      -7.63392523e-02 -2.70913184e-01 -2.44902730e-01 8.47077444e-02
      2.01707304e-01 1.55230269e-01 2.25003697e-02 9.52602088e-01
      1.44210100e-01 7.99005032e-02 -2.77715445e-01 2.55525947e-01
      3.56751800e-01 2.19647557e-01 5.48163533e-01 3.09699308e-02
      1.14760406e-01 7.89817989e-01 3.04556310e-01 -6.90353453e-01
      6.70368969e-02 4.82847765e-02 -8.85877609e-02 -1.50942355e-01
      -6.90644560e-03 1.22903965e-01 1.81846619e-01 5.33343971e-01
      1.34758711e-01 -3.20175678e-01 -2.92818202e-03 -3.45899239e-02
      -2.69509315e-01 7.99822733e-02 1.62557736e-01 2.13125840e-01
      2.06158264e-03 -1.43235698e-01 -1.69349492e-01 -1.18368462e-01
      2.82663196e-01 3.92702550e-01 4.36476409e-01 -1.78313002e-01
      3.34189415e-01 1.38457000e-01 1.03902891e-02 3.57047558e-01
      2.01783016e-01 -2.36505792e-02 -1.84900731e-01 1.01715319e-01
      8.73931348e-02 -1.53183043e-01 6.05552904e-02 -1.30443621e+00
      -3.50569606e-01 -3.41472059e-01 -5.37389219e-01 -2.41804823e-01
      -9.85551551e-02 -5.27146101e-01 7.13097528e-02 2.65074358e-03
      1.44878030e-01 2.79491544e-01 2.90799886e-01 -1.47402442e+00
      1.93038166e-01 -1.38886356e+00 -1.45100906e-01 -5.45764804e-01
      4.00743671e-02 2.15767458e-01 9.56546050e-03 -1.00762866e-01
      4.31239188e-01 -8.23735476e-01 3.88296247e-01 9.84063521e-02
      2.26946697e-01 1.46904483e-01 4.65074450e-01 -2.16123372e-01
      -2.70824164e-01 -1.36498854e-01 -6.80615194e-04 6.97200239e-01
      6.29907623e-02 5.27240098e-01 -5.14220595e-01 4.12368298e-01
      1.63028926e-01 1.34720981e-01 -3.89595658e-01 2.00316086e-01
      -7.21608222e-01 3.93126756e-01 2.70420879e-01 2.01992139e-01
      -1.09000497e-01 -1.76417783e-01 8.41186196e-02 -2.25129068e-01
      2.84482598e-01 1.17239691e-01 -5.40581606e-02 -3.85078996e-01
      4.84943599e-01 -1.72429010e-02 3.27985883e-01 -1.11965016e-01
      -6.30780235e-02 6.10056758e-01 -2.62366295e-01 7.89159685e-02
      5.36349788e-02 4.51221913e-02 -4.90673669e-02 -1.85710281e-01
      2.20909670e-01 4.74875532e-02 7.20748782e-01 -2.27123462e-02
      2.89671868e-01 -5.10143042e-01 4.43478785e-02 5.13685979e-02
      1.79623500e-01 4.88268863e-03 -9.05500501e-02 5.49455225e-01
      7.28717744e-01 -1.08448289e-01 -4.34845865e-01 -5.00412464e-01
      3.13482612e-01 -1.84063166e-01 -4.36429143e-01 3.12939346e-01
      9.16009322e-02 1.62200153e-01 3.26597124e-01 1.63285613e-01
      -1.90427139e-01 4.93151188e-01 -5.34904338e-02 -3.21837544e-01
      -1.87296867e+00 -1.87133148e-01 2.02164650e-01 -1.69328619e-02
      3.91343355e-01 2.27647379e-01 2.10149312e+00 -1.59833446e-01
      4.53733325e-01 -1.27411023e-01 1.82797685e-01 2.02374920e-01
      -5.34299374e-01 -3.81033570e-01 9.05822739e-02 -3.63161981e-01
      2.32542809e-02 8.38069096e-02 -3.22563946e-01 9.29329768e-02
      -7.57879317e-01 4.13200647e-01 1.36619404e-01 -1.83803439e-01
      3.98068465e-02 4.47333217e-01 9.97316763e-02 -4.69529837e-01
      -1.03867352e+00 -2.00009778e-01</_></support_vectors>
  <decision_functions>
    <_>
      <sv_count>1</sv_count>
      <rho>-3.9403592416521827e-01</rho>
      <alpha>
        1.</alpha></_></decision_functions></opencv_ml_svm>
</opencv_storage>
