<?xml version="1.0"?>
<opencv_storage>
<opencv_ml_svm>
  <format>3</format>
  <svmType>C_SVC</svmType>
  <kernel>
    <type>LINEAR</type></kernel>
  <C>10.</C>
  <term_criteria><epsilon>1.1920928955078125e-07</epsilon>
    <iterations>1000</iterations></term_criteria>
  <var_count>522</var_count>
  <class_count>2</class_count>
  <class_labels type_id="opencv-matrix">
    <rows>2</rows>
    <cols>1</cols>
    <dt>i</dt>
    <data>
      0 1</data></class_labels>
  <sv_total>1</sv_total>
  <support_vectors>
    <_>
      -2.89347589e-01 -3.85033488e-01 -3.65768075e-01 -1.15450406e+00
      -3.78788710e-02 -6.60463393e-01 -7.71754906e-02 -7.07829650e-03
      2.20106557e-01 4.64925587e-01 4.79863018e-01 4.45775539e-01
      7.88675249e-01 -2.84362167e-01 6.65497661e-01 -3.28683019e-01
      -1.19348431e+00 -2.80201603e-02 -9.27489400e-01 8.85609806e-01
      3.54801863e-01 1.31592497e-01 -5.49835861e-01 7.95762334e-03
      6.42940760e-01 -1.76917687e-01 -5.98239154e-02 1.18296191e-01
      2.98995584e-01 3.64900380e-01 -1.59085661e-01 6.17237031e-01
      -1.65715992e-01 1.66799530e-01 1.21943116e+00 9.50581789e-01
      3.19914550e-01 2.38765597e-01 -2.83047438e-01 3.36129814e-01
      -1.70718360e+00 1.30743399e-01 4.22991246e-01 -7.54481733e-01
      1.55300945e-01 -5.98154426e-01 -3.51575345e-01 -9.91670012e-01
      8.77568033e-03 -4.29219097e-01 8.43606889e-03 3.82271498e-01
      5.60411215e-01 1.23566389e-01 -3.04567128e-01 -6.87056482e-01
      7.10580409e-01 4.76910144e-01 4.27919716e-01 3.92323956e-02
      -4.60057892e-02 2.52445281e-01 3.40232044e-01 -5.84683895e-01
      2.77419776e-01 -1.21650863e+00 1.11311123e-01 -1.34686899e+00
      -1.01761162e+00 1.75150737e-01 -3.15204948e-01 -1.29126117e-01
      2.32927129e-01 3.72044034e-02 -5.09624958e-01 -1.26402354e+00
      2.05552533e-01 -3.40374783e-02 3.33448142e-01 -4.71339822e-02
      -1.64432853e-01 -4.89624679e-01 -1.06769252e+00 6.33186400e-02
      3.76398981e-01 -3.40946853e-01 -1.34093404e-01 -2.30547026e-01
      4.42426980e-01 -6.17847383e-01 -9.12008286e-01 -7.25701332e-01
      -1.16482210e+00 3.67577225e-01 2.18245890e-02 -7.58716315e-02
      1.02826521e-01 4.02292162e-01 -1.90971747e-01 -1.62707180e-01
      2.03441940e-02 -6.07425392e-01 -6.16625905e-01 -3.52994651e-01
      -2.17082530e-01 1.97576833e+00 3.79670799e-01 5.24619341e-01
      3.25176328e-01 6.88988864e-02 -6.38922274e-01 -7.89789915e-01
      3.23469073e-01 -4.09380078e-01 1.42977819e-01 2.72859097e-01
      -1.08525217e-01 4.46950644e-02 -2.06825599e-01 1.42249390e-01
      -1.93418458e-01 -8.92011449e-02 -1.24131382e-01 5.12374677e-02
      2.01159413e-03 -2.47995362e-01 3.40704322e-01 -9.80729818e-01
      -2.47053683e-01 -7.09990263e-01 7.46920466e-01 -7.35754967e-01
      -8.50859523e-01 -7.65563726e-01 -8.38747084e-01 1.14990091e+00
      -8.05593282e-02 4.91138399e-02 -3.63684922e-01 -4.20278370e-01
      3.47608417e-01 3.58577631e-02 4.56135064e-01 2.53084213e-01
      2.48606324e-01 -5.56565702e-01 1.41089416e+00 2.36483179e-02
      1.42011613e-01 3.24525326e-01 2.82480866e-01 -1.17352709e-01
      2.73457885e-01 -3.20238769e-02 8.59069228e-02 -4.91219699e-01
      -2.14164346e-01 1.59821975e+00 -5.72303116e-01 -3.12576205e-01
      -1.17558146e+00 6.34035349e-01 3.00670326e-01 -3.44791293e-01
      1.97505914e-02 -5.67282200e-01 1.92062825e-01 5.04127800e-01
      8.76160979e-01 -3.44419897e-01 -9.68060736e-03 -1.70628637e-01
      -8.96805942e-01 5.21096587e-01 7.56356835e-01 4.86650407e-01
      1.52746403e+00 3.53208333e-01 9.98428166e-02 2.19645128e-02
      9.21210572e-02 6.65761709e-01 1.80742308e-01 -3.78561080e-01
      7.24128261e-02 -3.02662492e-01 -6.35265410e-01 -3.99773493e-02
      -2.18257055e-01 7.37173343e-03 -2.02023908e-01 -1.31288305e-01
      -2.25913495e-01 7.74200082e-01 3.38455379e-01 -6.34586930e-01
      -4.12732184e-01 -3.36368233e-01 -5.96594512e-01 -2.42735241e-02
      2.62282610e-01 1.95639338e-02 9.17783082e-01 -4.13846701e-01
      5.40748060e-01 1.41331345e-01 1.40072656e+00 1.89436242e-01
      1.83730766e-01 5.36729574e-01 1.17766961e-01 -1.16676897e-01
      -1.27053395e-01 -4.04819041e-01 -6.15509093e-01 -1.04181450e-02
      -7.94088602e-01 -1.85947776e-01 1.53769886e+00 8.83562956e-03
      -4.10291165e-01 -6.78485572e-01 -1.66705877e-01 1.79476812e-01
      5.91877639e-01 -1.46866739e-01 3.33363920e-01 -6.32134080e-01
      -2.00195521e-01 -6.90370202e-01 -1.80658549e-01 -1.33825272e-01
      -3.76698643e-01 1.44550689e-02 1.42225176e-01 3.33823919e-01
      -3.23365688e-01 -4.85959947e-01 -5.01091182e-01 -7.91264415e-01
      1.07596719e+00 -2.10120991e-01 -2.98628598e-01 -2.56481737e-01
      5.99960387e-01 1.09370209e-01 1.46117896e-01 5.63628078e-01
      -3.07094812e-01 -6.37998572e-04 -3.16128254e-01 -1.76815003e-01
      8.58395696e-01 3.63172032e-02 -7.17466891e-01 2.92752057e-01
      -3.02844066e-02 4.48100597e-01 -1.13753760e-02 1.46429777e+00
      -2.79077619e-01 -2.07610369e-01 -1.87495753e-01 -7.40268052e-01
      3.84887122e-02 4.22872126e-01 1.31240261e+00 -4.28381383e-01
      1.05042303e+00 -9.43920910e-01 -1.02062011e+00 -1.51188344e-01
      -9.59697813e-02 -1.77593917e-01 -2.16403320e-01 7.54707217e-01
      9.04358506e-01 2.96432793e-01 1.02490067e+00 2.53348231e-01
      1.78368819e+00 -5.42114854e-01 1.13914418e+00 1.26206017e+00
      2.37961799e-01 -2.79472023e-02 -1.32879645e-01 -2.25612987e-02
      -2.01412588e-01 -5.62011562e-02 1.20077002e+00 1.32406402e+00
      -8.38544294e-02 3.34677339e-01 -9.66766059e-01 9.00763690e-01
      1.24880455e-01 3.06858838e-01 -1.67491101e-03 4.00412351e-01
      1.13441646e-01 1.14800143e+00 3.13179642e-01 -7.39875436e-01
      -2.54180372e-01 5.40684938e-01 8.98970664e-01 7.97823548e-01
      6.72318280e-01 4.06441033e-01 -6.55692995e-01 2.25421995e-01
      -3.83126259e-01 -1.52707919e-02 -2.33733341e-01 -5.76817036e-01
      -4.43905562e-01 -4.38923568e-01 -1.91284597e-01 -2.73918927e-01
      -1.01311281e-01 -5.88325918e-01 -2.97017187e-01 9.89996195e-01
      -7.80976236e-01 1.72937408e-01 6.10871851e-01 6.81370199e-01
      4.86964971e-01 -8.06228518e-01 1.87586453e-02 -1.49314940e+00
      6.11748576e-01 4.64605391e-01 3.02987367e-01 -5.59233069e-01
      1.66420951e-01 7.73973286e-01 -1.16073012e-01 2.88183391e-01
      5.04202902e-01 3.19037586e-01 -2.07048267e-01 -2.44519204e-01
      8.81603062e-01 1.37313247e+00 -7.88660347e-01 -5.85801564e-02
      -1.08879066e+00 1.14519429e+00 -3.78205299e-01 -1.53825426e+00
      6.09410226e-01 4.92530048e-01 -4.25282538e-01 9.97160524e-02
      2.66360849e-01 4.57292050e-01 2.97774822e-01 1.21660776e-01
      -4.38742161e-01 -5.13511539e-01 -1.44636476e+00 1.19629169e+00
      7.59512484e-01 -9.15530443e-01 -4.58998501e-01 4.85751659e-01
      2.58245524e-02 -2.65522480e-01 -7.01540649e-01 -6.99040517e-02
      6.29911304e-01 -2.02624127e-01 1.90830186e-01 -6.41348183e-01
      -3.99349421e-01 5.23043454e-01 3.90485302e-02 -1.00983582e-01
      2.07305044e-01 5.50410211e-01 2.57188827e-01 -3.58707756e-01
      -2.91433543e-01 1.65014255e+00 8.98521125e-01 -3.39265764e-01
      8.00993860e-01 -2.04339480e+00 5.97740002e-02 -2.68139131e-02
      -5.51392555e-01 5.49064279e-01 8.12802434e-01 8.82635564e-02
      1.19137056e-01 2.82908469e-01 1.73299050e+00 2.76035964e-01
      -5.23068249e-01 -2.11950198e-01 -3.35464567e-01 -3.17536473e-01
      1.25701976e+00 1.01059484e+00 1.38639224e+00 -1.16371191e+00
      4.71872658e-01 2.48868003e-01 2.01820898e+00 3.80139053e-01
      1.76251590e+00 7.90124714e-01 -1.73974723e-01 1.61490366e-01
      5.18269539e-02 5.48870742e-01 3.36975038e-01 1.14800549e+00
      -5.77457309e-01 1.73875779e-01 -3.71690840e-01 1.00285816e+00
      -1.14490533e+00 -8.70154917e-01 2.01367998e+00 -3.74944240e-01
      9.48930919e-01 -7.19437078e-02 1.21652579e+00 7.07912385e-01
      1.07323182e+00 -1.23496878e+00 -1.03426063e+00 4.54146266e-01
      -3.78785402e-01 3.78855318e-01 1.96928456e-01 -4.13444519e-01
      1.05081391e+00 7.08473086e-01 1.08793527e-01 3.10439020e-01
      -1.82168531e+00 4.19184007e-02 -5.01260817e-01 -1.84646174e-02
      2.70679682e-01 -8.25040817e-01 -4.39048141e-01 -9.91523266e-01
      1.16066277e+00 7.94746131e-02 4.24185187e-01 2.57635526e-02
      4.41752702e-01 2.06854612e-01 -7.84798190e-02 1.03216469e+00
      -7.71784633e-02 -2.57328129e+00 4.50764596e-01 2.95086175e-01
      -1.17543720e-01 -3.33680332e-01 9.54329312e-01 -4.15574908e-01
      5.01810551e-01 -1.81223109e-01 -1.26862001e+00 -5.28496146e-01
      1.84318960e+00 8.66680861e-01 -2.31259242e-01 -1.17464709e+00
      1.26473618e+00 -8.24241221e-01 -8.90376329e-01 7.98839748e-01
      3.22651297e-01 1.32662404e+00 1.13136065e+00 -3.03611517e-01
      1.57975423e+00 5.32713175e-01 5.90791881e-01 1.80881307e-01
      1.72795475e-01 -3.75938088e-01 1.10438681e+00 -2.96616405e-01
      -7.88955092e-01 -1.71216890e-01 4.51078355e-01 -6.08896375e-01
      4.68252450e-02 6.23101294e-01 -8.60761166e-01 -5.02928138e-01
      1.16086709e+00 2.32592732e-01 -1.23647583e+00 -9.19232607e-01
      -3.17633212e-01 1.25880814e+00 -6.97125614e-01 -3.32012177e-01
      -2.56299317e-01 -6.71021223e-01 2.78847605e-01 1.10226274e+00
      -1.47618979e-01 3.22749108e-01 1.90468061e+00 -1.01972473e+00
      -1.18391657e+00 9.79584754e-01 -1.48198044e+00 -1.01156700e+00
      -9.18343902e-01 -1.43792009e+00</_></support_vectors>
  <decision_functions>
    <_>
      <sv_count>1</sv_count>
      <rho>-1.1975739177723295e-01</rho>
      <alpha>
        1.</alpha></_></decision_functions></opencv_ml_svm>
</opencv_storage>
