<?xml version="1.0"?>
<opencv_storage>
<opencv_ml_svm>
  <format>3</format>
  <svmType>C_SVC</svmType>
  <kernel>
    <type>LINEAR</type></kernel>
  <C>10.</C>
  <term_criteria><epsilon>1.1920928955078125e-07</epsilon>
    <iterations>1000</iterations></term_criteria>
  <var_count>522</var_count>
  <class_count>2</class_count>
  <class_labels type_id="opencv-matrix">
    <rows>2</rows>
    <cols>1</cols>
    <dt>i</dt>
    <data>
      0 1</data></class_labels>
  <sv_total>1</sv_total>
  <support_vectors>
    <_>
      4.88038287e-02 7.95652568e-01 -1.29388556e-01 4.68583912e-01
      1.77078217e-01 -6.85126483e-01 -7.56705165e-01 -1.20192170e-01
      7.64639318e-01 6.83672726e-01 2.17783019e-01 1.56395167e-01
      2.40210772e-01 8.78416896e-02 -1.00967932e+00 1.07175195e+00
      -8.94381642e-01 -1.48247492e+00 -6.77443326e-01 1.64898448e-02
      6.48714155e-02 -3.18423361e-01 1.01316583e+00 2.86246359e-01
      9.64815617e-01 6.14991009e-01 2.89248526e-01 -1.57274485e-01
      -1.59217727e+00 1.08874910e-01 1.34715766e-01 5.97272694e-01
      -9.67842415e-02 -2.28636891e-01 4.80808973e-01 2.72318751e-01
      -3.13712865e-01 1.27329612e+00 9.84678030e-01 3.38847935e-02
      2.93104164e-02 4.52949435e-01 2.26727477e-03 3.89548630e-01
      -5.96492708e-01 6.66355968e-01 5.70067883e-01 -1.14599741e+00
      8.40528682e-02 9.02810752e-01 8.73391256e-02 2.46982765e-03
      1.91371024e-01 1.93344012e-01 4.52391177e-01 2.35812128e-01
      3.04275841e-01 1.75309455e+00 1.51284730e+00 1.30410230e+00
      5.88624068e-02 -3.95206332e-01 -4.52724725e-01 1.49394834e+00
      3.34472924e-01 9.88868177e-01 3.32357734e-01 1.51191163e+00
      1.21758640e+00 8.42251420e-01 1.13264941e-01 4.39054549e-01
      3.20542902e-01 -1.51778102e-01 6.29019558e-01 1.71325493e+00
      3.46020788e-01 9.87921834e-01 -2.96452314e-01 -2.15526596e-02
      1.26969039e-01 7.52154231e-01 3.18583369e-01 -1.29086703e-01
      6.81998551e-01 3.86781812e-01 2.55637437e-01 -2.14783001e+00
      3.28183323e-01 3.95721614e-01 -1.20468271e+00 5.45175314e-01
      1.07243443e+00 4.23335701e-01 2.68288940e-01 5.27684353e-02
      2.06314698e-01 5.09645283e-01 5.93968570e-01 3.71191949e-01
      5.67355037e-01 5.12420297e-01 1.18124020e+00 -4.92656291e-01
      -3.36962909e-01 -1.31341088e+00 -3.50448675e-02 4.09204453e-01
      -5.03099710e-02 5.43206811e-01 1.39650965e+00 1.27356076e+00
      1.24929321e+00 4.28576134e-02 -3.67940404e-02 -6.68573305e-02
      2.09872350e-01 3.96898240e-01 1.26387990e+00 -6.77922726e-01
      2.62400843e-02 -3.35772097e-01 6.79129958e-01 4.00708318e-01
      9.43469346e-01 1.22703314e+00 -5.78011155e-01 4.93653029e-01
      -6.09069802e-02 1.07779419e+00 -1.00155926e+00 3.34043026e-01
      4.94525582e-01 1.49647164e+00 1.28904748e+00 9.49214339e-01
      1.11877179e+00 6.20998263e-01 6.71244740e-01 9.93482053e-01
      -1.00463641e+00 5.37743986e-01 8.40382501e-02 9.20893475e-02
      -7.48950839e-01 4.92860615e-01 -8.95366848e-01 7.30580628e-01
      2.60594457e-01 -1.37135297e-01 -6.43388391e-01 -9.34395254e-01
      1.05503201e+00 9.71091866e-01 5.58415353e-01 -1.34024906e+00
      7.17529237e-01 1.41338539e+00 1.51120245e+00 6.89940304e-02
      -1.21309325e-01 -1.01701093e+00 5.33729382e-02 -1.03632164e+00
      -3.41799945e-01 -4.39718246e-01 -1.24526811e+00 -7.19550133e-01
      -1.10023439e+00 8.04238498e-01 -2.42060229e-01 -4.10003513e-01
      1.48534667e+00 1.03171773e-01 -4.62678373e-01 9.32613134e-01
      -1.01496235e-01 9.90662456e-01 1.24908471e+00 1.10042214e+00
      1.30037189e+00 3.13296050e-01 1.22860086e+00 -4.48536336e-01
      -1.58186650e+00 1.94073319e-01 4.99385566e-01 -6.23917639e-01
      1.81381792e-01 4.39447425e-02 1.49885476e+00 5.21828771e-01
      1.58420753e+00 -4.23320204e-01 -6.51551709e-02 1.35769868e+00
      -5.42325556e-01 7.56960332e-01 2.94029331e+00 -1.07731916e-01
      9.36078489e-01 -1.49415600e+00 1.51559460e+00 7.98126400e-01
      7.59028718e-02 1.26521003e+00 4.33611125e-01 5.02567470e-01
      6.78002119e-01 3.78201038e-01 8.71697783e-01 1.09419024e+00
      1.64327216e+00 -2.10154390e+00 7.53946364e-01 3.60215694e-01
      1.77073073e+00 7.20007658e-01 -1.64550185e+00 7.49920547e-01
      8.63709271e-01 4.13213521e-01 3.42054665e-01 5.58265269e-01
      4.51082259e-01 -1.34970471e-01 1.17711258e+00 -3.43598872e-01
      -8.22481751e-01 1.21858847e+00 9.41978693e-01 5.99909425e-01
      7.61286974e-01 5.06306410e-01 4.73753214e-01 1.10139884e-01
      -1.16355151e-01 9.81605172e-01 4.56795454e-01 -1.15944885e-01
      -4.73835051e-01 2.98436493e-01 5.22814572e-01 5.98351061e-01
      -8.13302323e-02 2.28212461e-01 2.11168975e-01 -6.12148821e-01
      1.31136417e+00 9.54400361e-01 -9.11470175e-01 1.44616961e-01
      1.65771767e-01 9.14835095e-01 8.74957621e-01 1.90334648e-01
      9.62065935e-01 -4.89436910e-02 8.32588196e-01 -3.81703615e-01
      8.94826055e-01 5.66096723e-01 -8.37384343e-01 5.92945218e-01
      -8.84364665e-01 9.38199937e-01 -1.02938759e+00 -1.46801269e+00
      -2.17341825e-01 1.09066749e+00 -5.54319024e-01 2.41759926e-01
      3.31425309e-01 5.55975020e-01 5.37202954e-01 1.70195746e+00
      6.10277653e-01 4.26314145e-01 6.64564371e-01 6.33531034e-01
      1.73285449e+00 1.31364954e+00 5.95943034e-01 -7.69640088e-01
      -1.27131820e+00 2.13410243e-01 8.75744164e-01 7.86568403e-01
      8.70568633e-01 2.82827586e-01 -4.46062116e-03 -4.00880486e-01
      1.45598912e+00 1.36416984e+00 1.08044982e+00 -1.07597816e+00
      -7.66009390e-02 5.12442768e-01 1.27222621e+00 5.15399039e-01
      -8.92779827e-01 -9.99218002e-02 1.46278039e-01 1.83717048e+00
      4.72811788e-01 -9.77138460e-01 -9.39311504e-01 2.74330467e-01
      6.23945713e-01 -8.83892596e-01 -1.02016628e+00 4.16538358e-01
      3.76821488e-01 8.08712125e-01 -2.58555442e-01 -1.57538474e-01
      -1.31012440e-01 6.56025708e-01 4.75300252e-01 -5.56049526e-01
      4.66125727e-01 6.78605795e-01 1.17882252e+00 -1.30650610e-01
      7.32341290e-01 1.25392890e+00 -7.81059802e-01 1.16101682e+00
      -1.20558965e+00 -4.58616130e-02 1.36816239e+00 1.27174520e+00
      1.17159081e+00 1.72547185e+00 1.03413701e+00 -4.32055712e-01
      3.46835345e-01 2.65641838e-01 -1.08303040e-01 -2.77680111e+00
      -1.08358729e+00 2.09973812e+00 3.12411100e-01 2.11593851e-01
      -3.01977187e-01 -1.03070056e+00 3.85063767e-01 1.35958421e+00
      1.29877710e+00 8.18990529e-01 -5.12625158e-01 7.35832095e-01
      2.22237736e-01 -3.01347431e-02 -4.98997808e-01 5.32037206e-03
      -3.39206725e-01 1.11099207e+00 -8.43968868e-01 -4.70700085e-01
      2.17456017e-02 -2.54804683e+00 -4.43091065e-01 5.85087717e-01
      -6.00879133e-01 -8.38199854e-02 1.22650780e-01 4.33389284e-02
      1.09559059e+00 1.13977528e+00 1.76724291e+00 -1.98363793e+00
      1.09546818e-01 1.93784666e+00 -6.54302239e-01 1.13023567e+00
      2.06312394e+00 -5.44398248e-01 -4.04760242e-01 5.40934086e-01
      9.93216276e-01 6.01498008e-01 9.81096685e-01 3.03579390e-01
      -5.57332516e-01 -1.85743138e-01 -8.49700511e-01 5.51117241e-01
      4.60939944e-01 1.48891008e+00 8.41895759e-01 6.51330471e-01
      -1.05222963e-01 1.21284533e+00 -2.46593267e-01 6.85731471e-01
      1.40369785e+00 3.85232270e-01 -5.17157316e-01 -8.20068061e-01
      3.08449626e-01 6.22928083e-01 1.26773381e+00 1.10584605e+00
      1.11261159e-01 -1.08907446e-01 -8.07096362e-02 6.65228844e-01
      1.77048612e+00 -6.59504473e-01 -5.42796493e-01 2.56355047e+00
      1.72168231e+00 3.87537420e-01 -7.86880612e-01 -8.26357782e-01
      9.88586545e-01 5.68213724e-02 1.09205079e+00 -2.63119508e-02
      6.47128463e-01 -1.09564960e+00 5.53916991e-01 -1.54153323e+00
      -1.25966394e+00 -7.76747406e-01 -1.12755847e+00 8.02614450e-01
      2.69735068e-01 3.02130431e-01 -1.43667209e+00 -4.49990705e-02
      1.19705871e-01 7.78209329e-01 6.50854945e-01 1.09766729e-01
      2.57914096e-01 9.34429288e-01 1.32180059e+00 2.17795208e-01
      8.33457708e-01 -1.40774095e+00 -1.74160957e+00 -1.45069790e+00
      -1.14071213e-01 1.79553998e+00 7.56993830e-01 2.50887543e-01
      2.70244423e-02 4.10840064e-01 5.34876525e-01 -5.06565273e-01
      -2.66567135e+00 9.00740921e-01 -3.50262612e-01 6.74821615e-01
      -9.40098763e-02 -2.01831055e+00 3.71672772e-02 1.09740210e+00
      9.02703047e-01 1.05082154e+00 -1.38045859e+00 -7.79448271e-01
      -6.24217749e-01 4.71906692e-01 -2.63877392e-01 2.11391854e+00
      5.14544964e-01 7.55069077e-01 1.20727468e+00 2.22783780e+00
      -2.94832498e-01 2.88902670e-01 1.27986121e+00 -4.28648740e-01
      -9.32873547e-01 9.43617582e-01 1.35216844e+00 1.77844250e+00
      -2.44334087e-01 -2.99561262e-01 5.48176646e-01 2.52005672e+00
      1.05756633e-01 -3.22661459e-01 1.22391307e+00 1.87093407e-01
      -4.58456762e-02 -1.69381964e+00 -3.58837634e-01 1.02418613e+00
      1.17436096e-01 4.68300432e-01 1.01389623e+00 1.32558718e-01
      8.77134223e-03 8.88281643e-01 -1.03714752e+00 -1.55260623e-01
      1.08145940e+00 -1.61450839e+00 -1.45877111e+00 -3.48183177e-02
      4.73143786e-01 -1.30222571e+00 -7.77727664e-01 8.43146622e-01
      3.40038270e-01 2.25572929e-01 -1.12341948e-01 -4.51862216e-01
      1.66359448e+00 5.31009197e-01 8.96755815e-01 -1.31613696e+00
      -1.66449815e-01 -1.41045177e+00 -2.61873960e-01 3.18497717e-01
      8.12680185e-01 -1.01115799e+00</_></support_vectors>
  <decision_functions>
    <_>
      <sv_count>1</sv_count>
      <rho>3.0005903940131401e-01</rho>
      <alpha>
        1.</alpha></_></decision_functions></opencv_ml_svm>
</opencv_storage>
