<?xml version="1.0"?>
<opencv_storage>
<opencv_ml_svm>
  <format>3</format>
  <svmType>C_SVC</svmType>
  <kernel>
    <type>LINEAR</type></kernel>
  <C>10.</C>
  <term_criteria><epsilon>1.1920928955078125e-07</epsilon>
    <iterations>1000</iterations></term_criteria>
  <var_count>522</var_count>
  <class_count>2</class_count>
  <class_labels type_id="opencv-matrix">
    <rows>2</rows>
    <cols>1</cols>
    <dt>i</dt>
    <data>
      0 1</data></class_labels>
  <sv_total>1</sv_total>
  <support_vectors>
    <_>
      -1.98033750e-02 7.30709955e-02 6.33313179e-01 -2.19836518e-01
      -9.96938813e-03 8.38950574e-01 4.98948723e-01 3.02092224e-01
      2.31846437e-01 1.28535375e-01 -1.53448442e-02 -3.92575003e-03
      -8.53751004e-01 1.30800307e-01 -3.75964791e-02 2.05776125e-01
      9.43793580e-02 4.46419299e-01 5.08388102e-01 -2.90518016e-01
      -5.17412424e-01 9.33463797e-02 2.99754530e-01 1.44060031e-01
      -4.22050148e-01 1.67763859e-01 -2.16738377e-02 -2.88373441e-03
      2.05295812e-02 -1.00628147e-02 7.64827356e-02 -7.70047382e-02
      1.38779625e-01 4.91476133e-02 -5.76574981e-01 -5.32923937e-01
      6.66398322e-03 2.80020684e-01 6.59170821e-02 3.13742906e-01
      4.12231028e-01 -2.93567777e-01 -1.03749573e-01 4.31302041e-02
      3.00274752e-02 -5.44353664e-01 -2.88412750e-01 1.08433574e-01
      1.50857702e-01 1.10199548e-01 2.89744198e-01 1.63253263e-01
      2.32033178e-01 1.26902744e-01 -3.87383811e-02 -2.71179266e-02
      4.45810296e-02 1.88500479e-01 9.17058438e-02 1.20773956e-01
      -1.67713299e-01 1.27166301e-01 7.21606910e-02 1.58277191e-02
      8.24352130e-02 6.57331169e-01 3.18269789e-01 4.92499739e-01
      -3.96161467e-01 1.22009337e-01 -3.09411466e-01 -5.51921606e-01
      -4.76008356e-01 -4.71479058e-01 -1.12934910e-01 8.09341848e-01
      3.56732234e-02 2.68264174e-01 2.60115385e-01 4.57878672e-02
      -1.34242431e-03 2.89466172e-01 2.26820797e-01 7.19815195e-02
      -3.49721700e-01 1.01271540e-01 1.52986705e-01 9.40956593e-01
      -1.00970440e-01 3.44139375e-02 4.81602639e-01 9.83572528e-02
      1.08589679e-01 4.58385460e-02 -1.98832944e-01 -5.49117886e-02
      2.63881147e-01 1.38719082e-01 1.84905052e-01 7.12754801e-02
      -3.88205226e-05 2.47821704e-01 -4.59545804e-03 7.40486562e-01
      -1.80060431e-01 3.96480381e-01 4.60052118e-02 3.59925994e-04
      -4.98637706e-02 -1.46704450e-01 -1.04806488e-02 4.25177515e-02
      1.65081739e-01 1.50764540e-01 -1.69022843e-01 -4.86967117e-02
      2.86860734e-01 -2.07965687e-01 2.13972956e-01 8.84270549e-01
      2.45954394e-01 1.87476948e-01 1.31322235e-01 8.27165917e-02
      9.69601497e-02 5.37222862e-01 2.32194170e-01 -1.21025421e-01
      -1.50646374e-01 1.80003226e-01 2.77970493e-01 -5.75596951e-02
      1.31756393e-02 -2.03588426e-01 -1.30553514e-01 -9.86222401e-02
      1.58458740e-01 -7.24545121e-02 1.55019432e-01 -1.93699300e-01
      -1.93411931e-02 -1.29934356e-01 3.60814124e-01 1.99527085e-01
      -7.95425475e-02 6.53206050e-01 5.03400527e-02 1.60727978e-01
      1.88799109e-02 3.82088125e-01 -1.04902908e-01 4.35173735e-02
      1.12754963e-01 -5.54072373e-02 4.29770984e-02 3.05443466e-01
      -6.31131113e-01 -2.56787688e-01 -8.67896676e-02 -2.05942407e-01
      9.14074600e-01 -7.44179785e-01 3.50089520e-01 2.81874925e-01
      -3.64067557e-04 9.77761507e-01 4.81244355e-01 3.04429203e-01
      1.72484055e-01 2.74171442e-01 1.26971737e-01 1.14899583e-01
      1.52017668e-01 -3.97667997e-02 -2.51268417e-01 3.11580032e-01
      2.71046013e-01 1.15708679e-01 7.30436966e-02 -1.76510550e-02
      9.52390134e-02 9.96939838e-02 2.45722130e-01 8.10294449e-02
      9.15874958e-01 -5.53400144e-02 -3.25048834e-01 6.79002032e-02
      1.60787135e-01 1.33357301e-01 1.49502710e-01 2.91385978e-01
      3.90209407e-01 3.40216398e-01 3.48299086e-01 3.92203987e-01
      3.18963200e-01 1.10016540e-02 9.81786102e-03 -4.25644591e-02
      1.14980653e-01 1.23041101e-01 -1.80982023e-01 -6.81168139e-01
      -2.37394571e-01 1.29100353e-01 -5.30632317e-01 -1.61913082e-01
      -3.46964389e-01 -2.03333899e-01 -1.52742416e-01 2.67334189e-02
      2.66925693e-01 6.04117393e-01 1.85880020e-01 1.60906330e-01
      4.21151370e-02 -2.67996229e-02 2.98121005e-01 -3.06906775e-02
      -6.17959313e-02 2.41691053e-01 -2.33150929e-01 -3.41168761e-01
      -8.31604898e-01 6.26783222e-02 -2.94957876e-01 -4.73646373e-02
      -1.37725279e-01 1.09938212e-01 1.16764978e-01 8.86893943e-02
      2.11756721e-01 -2.57236928e-01 -2.06919193e-01 -2.82805443e-01
      -1.35608725e-02 2.89279092e-02 -3.15753184e-02 4.33912277e-01
      -4.48295265e-01 6.23896122e-01 -2.04275280e-01 -7.26302147e-01
      -6.61878586e-01 -3.85913670e-01 -2.85381287e-01 5.66142857e-01
      -1.06727433e+00 -5.05863965e-01 -1.41960278e-01 -2.14669570e-01
      9.85302925e-02 4.12385434e-01 1.73417643e-01 1.34157762e-01
      7.95177817e-02 4.49917465e-02 -2.75959074e-02 -6.37706742e-02
      -2.13816807e-01 -1.80818424e-01 -2.63756186e-01 2.54429847e-01
      -7.35521138e-01 -7.44017899e-01 -3.77068520e-01 2.80153126e-01
      -7.99055457e-01 4.83043402e-01 8.39730799e-01 -5.56156516e-01
      3.52448039e-02 5.01936078e-01 6.31652832e-01 -1.29298434e-01
      -5.41189373e-01 -2.42078006e-01 -1.27519041e-01 -9.65710282e-02
      -5.45314908e-01 1.58650935e-01 1.89353138e-01 -2.03598484e-01
      4.80279267e-01 1.02139734e-01 9.37204510e-02 1.40027061e-01
      1.91871852e-01 5.44039346e-03 -1.33232191e-01 1.49992923e-03
      1.75538838e-01 1.97604656e-01 3.01241487e-01 -1.13708770e+00
      -3.56657296e-01 -4.47494805e-01 6.36373684e-02 2.35978365e-02
      1.91534132e-01 -1.80368423e-01 -6.39785647e-01 -6.93809032e-01
      2.89546460e-01 2.11283684e-01 6.76994801e-01 7.36461461e-01
      -1.66282356e-01 1.94922723e-02 2.48101830e-01 -7.04452634e-01
      5.51496334e-02 -3.96345332e-02 -2.26796821e-01 2.43312284e-01
      3.08584660e-01 4.86291409e-01 1.38440654e-01 1.23523422e-01
      3.19504440e-01 5.39954528e-02 3.26624393e-01 -2.98220456e-01
      1.31414875e-01 -2.89541781e-02 -4.53547798e-02 -2.33728409e-01
      2.67181218e-01 -1.75954610e-01 2.97130972e-01 3.05648983e-01
      -8.67570043e-01 -7.37512827e-01 -1.36677909e+00 1.42418191e-01
      2.46422887e-01 1.66492850e-01 -2.94075638e-01 -5.07430220e-03
      8.04080293e-02 1.59849092e-01 5.11782050e-01 1.09461713e+00
      1.76622882e-01 -1.96488276e-02 2.25835502e-01 -1.64491490e-01
      6.50549531e-01 2.36142218e-01 -3.49091709e-01 -6.81145608e-01
      -8.76475513e-01 -6.99844360e-01 1.52371264e+00 5.21802187e-01
      5.57204068e-01 1.47299603e-01 -2.75802642e-01 -4.18616623e-01
      5.02006531e-01 9.24360275e-01 7.32727468e-01 1.36171505e-01
      1.01649709e-01 1.11040905e-01 1.14721484e-01 2.54215747e-02
      2.42789425e-02 9.36727822e-02 -2.79898852e-01 -1.81802288e-01
      -7.66490877e-01 -8.79422963e-01 -4.28489745e-02 -7.43869126e-01
      -1.03563547e+00 -7.06244588e-01 6.63453788e-02 7.01557100e-02
      -6.07893586e-01 -9.16585147e-01 -2.67020855e-02 -7.75339007e-02
      4.81254071e-01 -3.15848529e-01 -4.71557796e-01 1.65986553e-01
      -5.66000342e-01 2.11009175e-01 1.35111377e-01 -2.76417527e-02
      1.33121256e-02 1.85195819e-01 3.29772353e-01 -6.90210387e-02
      -4.34418857e-01 2.53565520e-01 -9.98138368e-01 9.05233100e-02
      2.44223118e-01 1.79022580e-01 1.69855282e-01 4.05970849e-02
      -1.36340141e-01 6.39742374e-01 -1.71685493e+00 6.62813842e-01
      -8.93366754e-01 -3.02167356e-01 1.74053282e-01 4.94219899e-01
      -2.77263790e-01 3.70858788e-01 -1.44817084e-01 2.96703447e-02
      -7.89772533e-03 -6.33581161e-01 -2.76564658e-01 -1.44598460e+00
      3.87531519e-01 3.79101068e-01 -5.08200713e-02 4.45040762e-02
      -4.67210650e-01 7.61842132e-02 8.78304318e-02 -7.91815445e-02
      -2.06887171e-01 1.24709703e-01 5.67793787e-01 -6.68519318e-01
      -1.02360737e+00 -4.15255845e-01 -5.57901800e-01 -2.35333443e-02
      6.74669147e-01 -2.91551441e-01 -6.81619108e-01 5.12747705e-01
      -3.20978999e-01 2.20748365e-01 -7.28450343e-02 -1.21837652e+00
      -6.64441586e-02 -4.10136878e-01 -1.78398818e-01 -7.21356452e-01
      1.03640878e+00 8.82095814e-01 3.05562466e-01 -2.62115330e-01
      8.22402388e-02 3.77692759e-01 -4.03413959e-02 -4.93606448e-01
      6.10432327e-02 4.57605243e-01 5.17103970e-01 -4.80150640e-01
      -8.50690380e-02 4.12283182e-01 4.25527692e-01 -6.58632219e-01
      -9.52014998e-02 -1.14134952e-01 -7.88090974e-02 -1.26818419e-01
      -1.82759315e-01 -3.79536636e-02 5.89484215e-01 -1.32345155e-01
      -1.46716154e+00 -8.27982664e-01 8.98701325e-02 7.50267684e-01
      -4.60526824e-01 1.15678084e+00 8.21544603e-02 -3.93053025e-01
      -4.88227963e-01 7.56995007e-02 3.82679433e-01 -2.89298952e-01
      -1.60690391e+00 -5.74703395e-01 -8.63786757e-01 -8.90049040e-01
      -7.29299307e-01 2.76439376e-02 -2.74581879e-01 1.08281195e+00
      3.21682602e-01 -3.89137357e-01 -7.53261983e-01 -9.51101184e-02
      1.37090480e+00 -1.34275317e+00 -1.41800821e-01 1.05536413e+00
      -4.26525086e-01 7.17165530e-01 -4.11456376e-01 -5.05717933e-01
      -2.08657086e-02 1.45429611e+00 -1.55917138e-01 4.07456160e-01
      -1.21753883e+00 -6.53757215e-01 -1.97834402e-01 -6.66937172e-01
      -5.80243230e-01 2.99394011e-01 6.55536950e-02 1.52648878e+00
      5.38486131e-02 4.28444386e-01 3.96590263e-01 -4.81662184e-01
      -6.05183780e-01 7.56359875e-01</_></support_vectors>
  <decision_functions>
    <_>
      <sv_count>1</sv_count>
      <rho>-2.3830604860604212e+00</rho>
      <alpha>
        1.</alpha></_></decision_functions></opencv_ml_svm>
</opencv_storage>
