<?xml version="1.0"?>
<opencv_storage>
<opencv_ml_svm>
  <format>3</format>
  <svmType>C_SVC</svmType>
  <kernel>
    <type>LINEAR</type></kernel>
  <C>10.</C>
  <term_criteria><epsilon>1.1920928955078125e-07</epsilon>
    <iterations>1000</iterations></term_criteria>
  <var_count>625</var_count>
  <class_count>2</class_count>
  <class_labels type_id="opencv-matrix">
    <rows>2</rows>
    <cols>1</cols>
    <dt>i</dt>
    <data>
      0 1</data></class_labels>
  <sv_total>1</sv_total>
  <support_vectors>
    <_>
      -4.32921141e-01 -7.54522160e-02 -1.09482883e-02 1.00359023e+00
      1.92270315e+00 5.84565103e-01 5.26114665e-02 -8.82304609e-02
      -6.09184146e-01 -5.49273789e-01 -7.78079152e-01 -6.81500852e-01
      -3.31107497e-01 -3.86151761e-01 4.51092184e-01 -5.60842097e-01
      2.12448567e-01 -1.67697132e+00 3.87788296e-01 2.35348359e-01
      -1.93344012e-01 -9.77765992e-02 3.71097028e-01 1.04098272e+00
      -4.33591492e-02 -5.52181602e-01 8.10904056e-02 2.03811240e+00
      7.58066893e-01 1.08396399e+00 7.64952958e-01 4.86622512e-01
      4.32711065e-01 4.28734183e-01 -7.90303409e-01 2.54131883e-01
      -1.56440794e-01 3.50211203e-01 7.86868930e-01 7.07502842e-01
      -1.96129739e-01 -1.27433681e+00 -1.41501725e-01 -1.52346933e+00
      2.80969322e-01 -1.37136921e-01 2.05208015e+00 2.27748632e+00
      -8.82483244e-01 -9.60159183e-01 -3.24418664e-01 -4.25119698e-01
      1.12921119e+00 5.78190446e-01 -3.12713146e-01 -5.08092701e-01
      1.26888740e+00 4.59971353e-02 1.07147801e+00 -1.08935637e-02
      1.50689721e-01 1.62070870e+00 6.95534468e-01 8.76456559e-01
      7.69510567e-01 -9.76316214e-01 7.49208450e-01 -1.00277746e+00
      4.09057260e-01 5.41043937e-01 -7.05396950e-01 6.60115004e-01
      1.98551154e+00 -3.21870670e-02 2.70291984e-01 8.95164371e-01
      -6.24052167e-01 4.75376219e-01 6.46415412e-01 -1.79570124e-01
      -1.00632262e+00 -2.45113516e+00 -1.72581211e-01 1.10170889e+00
      1.19707513e+00 -3.30714047e-01 7.19752669e-01 6.86414242e-02
      -1.85999095e-01 -1.12201643e+00 -2.66577512e-01 -4.13807541e-01
      3.44942033e-01 -6.27363503e-01 -2.38189355e-01 -7.78917149e-02
      8.01640272e-01 -3.41215014e-01 8.76790941e-01 -3.44186485e-01
      -1.45384693e+00 -4.73072559e-01 -8.98493826e-01 1.05930662e+00
      -2.02149168e-01 8.76925886e-01 -1.11476219e+00 -9.23366845e-01
      -1.73036849e+00 -3.86321545e-01 8.91950905e-01 -1.06788194e+00
      1.43894196e+00 -1.45459771e+00 4.25082922e-01 2.06504747e-01
      -6.76780760e-01 -5.63247740e-01 -1.36974609e+00 -6.27647340e-02
      3.91407788e-01 -2.42113292e-01 2.20043570e-01 -9.12775517e-01
      2.22313449e-01 -1.88609242e-01 2.77080625e-01 1.06810367e+00
      -2.47173190e-01 -4.35953587e-01 -1.74539052e-02 -8.41083676e-02
      1.83234423e-01 5.12884498e-01 -1.64677367e-01 -1.75525561e-01
      -4.19771820e-01 -3.69595528e-01 -2.13636470e+00 -4.49449748e-01
      2.84987688e-01 -2.11863771e-01 -1.31122872e-01 -8.18151891e-01
      8.00847650e-01 4.21872944e-01 1.67371422e-01 2.95843959e-01
      1.44115686e+00 -1.13399720e+00 -5.54237626e-02 -4.33672488e-01
      8.51665318e-01 1.02575019e-01 -6.89433813e-01 -2.40460858e-02
      5.41723788e-01 1.52393160e-02 -1.88783124e-01 7.38618314e-01
      -5.84150590e-02 1.35600150e+00 -3.89354080e-01 7.11118698e-01
      1.01169743e-01 -6.37864787e-03 1.32579732e+00 5.18398464e-01
      -8.53155196e-01 1.41800433e-01 1.49536550e-01 3.25288594e-01
      8.47459614e-01 -5.98086059e-01 -3.77966762e-01 -1.40418518e+00
      -6.69208586e-01 -1.55387151e+00 -7.92230248e-01 -1.62085783e+00
      7.92558268e-02 4.95267630e-01 1.39761090e+00 4.96179670e-01
      1.01624978e+00 6.88110650e-01 -1.81402210e-02 -7.60277689e-01
      3.04514170e-01 -9.29843903e-01 -6.33490384e-01 1.63866699e+00
      6.32242322e-01 -1.87137257e-02 1.39158201e+00 9.34738040e-01
      1.05083084e+00 2.10855350e-01 1.28034687e+00 1.19597995e+00
      -1.42466500e-01 1.04620242e+00 1.56830776e+00 8.39994133e-01
      1.01142965e-01 3.01806867e-01 -7.12973654e-01 3.52113634e-01
      8.51239860e-01 8.54671717e-01 4.82930213e-01 -1.45089769e+00
      1.40056694e+00 6.82951510e-01 -1.38158393e+00 2.54299849e-01
      -8.07621121e-01 -4.93444614e-02 -1.81407917e+00 -4.31785166e-01
      2.38709956e-01 -3.28453243e-01 2.81811915e-02 1.30976498e-01
      1.60037339e+00 4.75644439e-01 -3.06876659e-01 2.17602587e+00
      1.53546631e-01 -1.93203345e-01 -3.01517636e-01 -8.11887801e-01
      3.74299318e-01 -3.79809380e-01 4.37579662e-01 -2.98928708e-01
      -7.13791609e-01 1.54602304e-01 6.02724314e-01 1.86282897e+00
      -1.18294299e-01 -3.94983068e-02 -2.08606601e-01 -3.18487853e-01
      -3.68003905e-01 -7.76178576e-03 -1.66209251e-01 8.66025746e-01
      3.11121028e-02 3.31067085e-01 6.17684543e-01 8.58500421e-01
      -3.89706016e-01 -4.65281636e-01 2.31908131e+00 1.25607598e+00
      1.88823640e-01 6.02412164e-01 1.11960208e+00 2.36345029e+00
      1.14540637e+00 7.88746536e-01 2.11012781e-01 5.03295995e-02
      -6.00105263e-02 4.26015973e-01 -1.73936641e+00 3.57921898e-01
      -7.66862482e-02 3.38004902e-02 -2.06113005e+00 1.61224151e+00
      1.14512575e+00 9.88321006e-01 1.56251836e+00 1.06387854e+00
      1.17304218e+00 8.04858923e-01 6.87806189e-01 -4.14233983e-01
      5.78274012e-01 -9.71755505e-01 5.22765636e-01 1.83794230e-01
      -2.63882846e-01 -3.18531662e-01 9.26639199e-01 -7.34216690e-01
      -5.53094983e-01 -3.05106729e-01 -3.08546257e+00 9.45193708e-01
      4.28494692e-01 -1.05280685e+00 7.67598093e-01 -4.85534906e-01
      -1.59270096e+00 1.52162582e-01 -4.59266543e-01 6.31421506e-01
      -3.89708221e-01 -3.82490188e-01 7.89420128e-01 -8.67969215e-01
      1.39262986e+00 1.82469082e+00 -1.53358400e+00 -5.59711814e-01
      9.10076201e-01 6.46049231e-02 7.53565431e-01 -1.10122657e+00
      -2.46217661e-02 -6.18382096e-01 -1.10179341e+00 2.15270734e+00
      8.15613627e-01 -1.11132205e+00 1.30336851e-01 -1.13495910e+00
      -1.32402349e+00 -1.18126023e+00 7.52461314e-01 -4.40579921e-01
      5.13254881e-01 1.71988383e-01 2.54182339e-01 8.21562052e-01
      2.06701875e-01 9.37663674e-01 2.07314801e+00 -1.95429325e+00
      7.12583125e-01 -2.05804393e-01 8.78723443e-01 -1.02604426e-01
      -9.42182243e-01 -1.54446453e-01 2.82304566e-02 -3.02458629e-02
      -7.41548359e-01 4.53197174e-02 2.06365570e-01 -1.14943457e+00
      -1.45752156e+00 3.25948179e-01 -1.44232786e+00 6.58500612e-01
      1.29173791e+00 9.90308583e-01 -1.34383714e+00 1.19143176e+00
      2.24354148e-01 2.56328285e-01 1.42405677e+00 1.04757881e+00
      -1.72725096e-01 1.77907073e+00 1.31388247e+00 2.03653336e+00
      -9.74185616e-02 -7.26745129e-01 -1.37688041e+00 -7.05892086e-01
      -1.09483473e-01 -6.02845252e-02 3.04341763e-01 -1.11075498e-01
      3.28909189e-01 -2.72578287e+00 -8.76115113e-02 1.39810634e+00
      1.54979420e+00 -3.47423387e+00 5.63961208e-01 1.36745262e+00
      8.95909548e-01 -6.26627058e-02 1.43896222e+00 1.21889345e-01
      7.25905120e-01 4.55053508e-01 -9.16870415e-01 2.38530010e-01
      1.97695300e-01 4.20568347e-01 -2.22420786e-02 1.03867185e+00
      -3.38408560e-01 1.12596202e+00 -1.19131066e-01 6.89021766e-01
      7.89089084e-01 -1.23190141e+00 -5.60341537e-01 -9.61866200e-01
      2.96414733e-01 -4.73379284e-01 1.05056000e+00 -3.73277187e-01
      4.08387572e-01 7.34555662e-01 3.77988577e-01 -2.61117607e-01
      3.14238518e-01 -3.74637097e-01 -6.30555987e-01 -9.94956195e-01
      4.49916810e-01 -9.11110997e-01 1.21674836e+00 1.69324243e+00
      -3.44662100e-01 8.60557258e-01 1.17694628e+00 1.96673226e+00
      5.40447176e-01 -3.45545501e-01 4.02680397e-01 -1.44669250e-01
      -8.13754320e-01 1.63831007e+00 9.53838050e-01 1.27791202e+00
      -2.21585482e-01 4.02681082e-01 7.44356930e-01 -9.68296528e-01
      1.20953882e+00 1.44575939e-01 -7.88071215e-01 1.32517684e+00
      -2.14296877e-01 -4.59098548e-01 3.60637426e-01 5.91670752e-01
      -2.63409287e-01 -7.02484727e-01 -1.35585284e+00 4.29750562e-01
      -2.81964839e-02 1.04856148e-01 2.78542399e-01 -8.13519001e-01
      2.69810677e-01 -5.61260998e-01 -5.60396910e-01 6.61540627e-02
      -9.46934104e-01 1.03764057e+00 9.97782409e-01 -7.94493973e-01
      -2.28357267e+00 1.07849002e+00 1.27694988e+00 2.26445460e+00
      7.26916194e-02 -4.21336055e-01 1.40010667e+00 9.50942338e-01
      -1.64270806e+00 -1.39957345e+00 1.68868035e-01 -6.84171766e-02
      1.54491019e+00 2.44235778e+00 3.49452823e-01 5.61359823e-01
      1.32719529e+00 3.90153215e-03 2.86381274e-01 7.05841959e-01
      1.94176838e-01 -1.14967549e+00 2.59896219e-01 3.86168122e-01
      1.32836628e+00 -1.91108495e-01 6.72797382e-01 -9.33326125e-01
      -1.84134591e+00 -1.08291090e+00 -1.15000093e+00 1.44107902e+00
      7.37149179e-01 -6.08843505e-01 -1.59287739e+00 4.87107597e-02
      -1.02608788e+00 -9.58083272e-01 -5.88638902e-01 -7.13618636e-01
      -1.05286658e+00 5.61407566e-01 2.71928400e-01 -1.02363133e+00
      8.48374784e-01 -6.27669215e-01 -1.01170599e+00 2.53597409e-01
      1.95929110e-02 4.04513068e-02 5.16592085e-01 8.32705572e-02
      3.13647300e-01 -7.27759778e-01 7.41462111e-01 2.14310065e-01
      -1.15879393e+00 6.36851966e-01 -3.92906487e-01 -6.97684467e-01
      -7.63798833e-01 5.23061752e-01 -6.97150409e-01 6.08150899e-01
      -6.19712323e-02 3.06387573e-01 -1.41581917e+00 1.64696798e-01
      3.07882547e-01 5.08483291e-01 -7.45110989e-01 -6.45341054e-02
      1.21130979e+00 3.24011773e-01 -1.03011894e+00 -4.74598527e-01
      5.55749014e-02 4.08065096e-02 3.31194252e-01 7.91787505e-01
      -4.49128926e-01 -1.78581148e-01 7.82923758e-01 -3.56112331e-01
      1.20557308e+00 -3.11065108e-01 -2.17739582e+00 6.48574680e-02
      -2.40431476e+00 1.63453937e+00 -1.41807389e+00 4.99944866e-01
      -2.58453876e-01 -1.36409653e-02 1.19467497e+00 -2.33869910e-01
      1.45189214e+00 -4.33236778e-01 -4.63584930e-01 -8.51467475e-02
      2.52074575e+00 -1.30951953e+00 5.90385199e-01 3.71885240e-01
      -9.37898636e-01 -4.26327080e-01 1.64827891e-02 -5.12789428e-01
      3.76803428e-01 1.84266150e+00 -9.54528302e-02 -1.40056384e+00
      -2.30097070e-01 9.27894890e-01 1.25763714e+00 -1.19499171e+00
      7.07386613e-01 6.05926216e-01 5.60192823e-01 -4.35451359e-01
      -5.09972461e-02 6.76346004e-01 -6.10048115e-01 -6.20867133e-01
      9.16794062e-01 -1.57344711e+00 2.32795119e+00 -2.70863962e+00
      1.32247734e+00 2.34896705e-01 -4.79130954e-01 5.93405068e-01
      -1.22354341e+00 -2.30039805e-01 -2.96778351e-01 -1.46862578e+00
      -1.15405309e+00 3.12803864e-01 5.73522151e-02 9.68689203e-01
      -1.21013105e+00 -4.93349135e-01 1.09577966e+00 -8.20696890e-01
      2.79131353e-01 -4.23944384e-01 -3.99663091e-01 1.35181248e-01
      -3.32460850e-01 -1.14000797e+00 1.29552633e-01 1.15518600e-01
      9.82636586e-02 7.87075043e-01 7.23880470e-01 -4.04456025e-03
      -4.48818594e-01 5.77188134e-01 2.31077205e-02 -4.65704620e-01
      -1.49019763e-01 1.03349268e-01 1.15257449e-01 4.43912059e-01
      -1.63101852e-01 5.88352621e-01 -7.41020799e-01 -6.27614796e-01
      3.71497303e-01 -1.76201150e-01 8.84667575e-01 -4.54801619e-01
      7.73987532e-01</_></support_vectors>
  <decision_functions>
    <_>
      <sv_count>1</sv_count>
      <rho>-1.0974012388164531e+00</rho>
      <alpha>
        1.</alpha></_></decision_functions></opencv_ml_svm>
</opencv_storage>
