<?xml version="1.0"?>
<opencv_storage>
<opencv_ml_svm>
  <format>3</format>
  <svmType>C_SVC</svmType>
  <kernel>
    <type>LINEAR</type></kernel>
  <C>10.</C>
  <term_criteria><epsilon>1.1920928955078125e-07</epsilon>
    <iterations>1000</iterations></term_criteria>
  <var_count>625</var_count>
  <class_count>2</class_count>
  <class_labels type_id="opencv-matrix">
    <rows>2</rows>
    <cols>1</cols>
    <dt>i</dt>
    <data>
      0 1</data></class_labels>
  <sv_total>1</sv_total>
  <support_vectors>
    <_>
      4.19737071e-01 1.62148833e+00 1.15176308e+00 1.58053184e+00
      -6.59240901e-01 -2.42607951e-01 3.74710798e-01 -6.46975577e-01
      7.42437661e-01 -9.66454484e-03 1.72562361e-01 1.14303576e-02
      6.41437829e-01 1.07054925e+00 4.64399576e-01 1.48023915e+00
      2.76679099e-01 -5.86441636e-01 -1.72206253e-01 -5.69716036e-01
      -1.51200557e+00 1.79629058e-01 1.02787626e+00 1.14124417e+00
      8.55666026e-02 8.91768098e-01 2.23383045e+00 1.44630983e-01
      1.71864405e-01 -8.96840632e-01 2.74352521e-01 2.52501756e-01
      -2.55701733e+00 -1.18798055e-01 -6.85673714e-01 7.10935652e-01
      -6.29583657e-01 -4.12397504e-01 6.11702740e-01 -1.31680465e+00
      2.93412060e-01 5.52534223e-01 8.14450562e-01 5.00402808e-01
      5.86426020e-01 5.39909542e-01 4.95483845e-01 8.23488981e-02
      -2.66706657e+00 3.81933182e-01 -4.32148218e-01 -5.82719803e-01
      -4.06995595e-01 -2.00929451e+00 -6.27009451e-01 4.91440535e-01
      -9.98885036e-02 8.96886066e-02 -5.65719426e-01 -1.00665271e+00
      -6.46443442e-02 -1.48649120e+00 -3.31893601e-02 -5.93487620e-01
      1.94796908e+00 -9.14114416e-01 -2.17954263e-01 2.62431890e-01
      7.22764552e-01 5.13224006e-01 9.48678851e-01 -1.87129810e-01
      -1.73705888e+00 -9.32438374e-02 -5.06365776e-01 8.35127831e-01
      3.03592414e-01 -4.16895151e-01 -3.48463565e-01 1.16008431e-01
      -4.06574816e-01 8.44010413e-01 -4.18662786e-01 3.52989942e-01
      4.35058624e-01 -3.81473422e-01 -3.09511483e-01 5.97136915e-01
      -9.69563246e-01 -2.48615682e-01 4.98329192e-01 3.83450031e-01
      2.40615472e-01 -8.50424290e-01 -2.63700753e-01 1.19239450e+00
      5.00579059e-01 -6.84002876e-01 3.14062834e-01 -4.08012360e-01
      2.21231416e-01 -1.93413377e+00 -6.67708635e-01 1.14630520e+00
      -2.73182653e-02 -1.08514786e+00 4.37179834e-01 1.88708872e-01
      -1.40340149e+00 -1.43759206e-01 -1.38032067e+00 -8.71948957e-01
      2.46342734e-01 -9.49108079e-02 9.30068552e-01 3.88311803e-01
      1.98221415e-01 3.81927676e-02 -2.90135108e-02 9.38607216e-01
      -5.55172144e-03 -1.77065277e+00 -1.67372477e+00 -1.56684446e+00
      -4.92715955e-01 5.90061009e-01 3.48977178e-01 -8.39145243e-01
      -7.61972249e-01 -6.68415964e-01 -1.08946664e-02 3.58229727e-01
      6.09862626e-01 -7.20311999e-01 8.23343277e-01 3.24704319e-01
      7.57424533e-02 1.06925882e-01 1.08477068e+00 1.04173577e+00
      -4.25518304e-01 -6.82441473e-01 -9.51448858e-01 -6.43629730e-01
      -4.75355119e-01 4.55142647e-01 -3.34540844e-01 -4.54600036e-01
      1.93674147e+00 1.10848737e+00 -2.55492359e-01 1.47601104e+00
      -6.99749067e-02 6.47881567e-01 -4.94697481e-01 5.10477245e-01
      6.00130081e-01 -6.69764757e-01 8.40242267e-01 -6.64412916e-01
      -8.65490139e-01 -4.25071120e-01 4.77718413e-01 7.77702153e-01
      -7.71506667e-01 -1.80948830e+00 -1.22255635e+00 -1.56163073e+00
      1.68799236e-01 2.81532049e-01 1.30278456e+00 -5.24518788e-01
      1.27427256e+00 -3.24865520e-01 -1.19546521e+00 1.23173869e+00
      7.09076151e-02 6.47676945e-01 3.41296792e-01 1.43287492e+00
      -4.11624610e-02 -2.91741312e-01 1.94135737e+00 -1.75737783e-01
      6.74414575e-01 2.53839225e-01 -1.17397749e+00 1.03621662e-01
      6.79268360e-01 -1.09185763e-01 -7.20574707e-03 1.93185419e-01
      6.91818357e-01 -9.99142587e-01 -1.40375078e+00 -9.39183891e-01
      3.21809143e-01 -9.20409709e-03 1.26454997e+00 7.90948629e-01
      -2.29757175e-01 8.06742787e-01 -1.01984596e+00 -1.12100184e+00
      -6.94485068e-01 -2.80602962e-01 1.00477770e-01 8.34257364e-01
      -1.94690838e-01 1.05008936e+00 2.03643823e+00 -2.20216012e+00
      -2.09685373e+00 -1.15009146e-02 -1.29003239e+00 1.50939107e+00
      -9.63170528e-02 -1.59878820e-01 -7.24498987e-01 -8.06388199e-01
      -5.17263353e-01 -3.97219867e-01 -3.57047528e-01 9.02944207e-02
      -1.03200316e+00 -6.85086250e-02 -1.19724259e-01 7.86193669e-01
      -5.57436407e-01 2.61336714e-01 -1.05444878e-01 -4.90771174e-01
      6.58157989e-02 -4.02335227e-01 2.42244937e-02 3.01221997e-01
      -2.64285505e-01 1.63749278e-01 4.94339883e-01 -1.23697340e+00
      -1.45011973e-02 8.64839613e-01 -7.43507504e-01 -8.62859637e-02
      1.71678662e-01 -5.49780488e-01 -2.01609880e-01 2.02847511e-01
      -3.54669362e-01 9.88914013e-01 -1.01059079e+00 -1.94890523e+00
      -1.03770375e+00 -4.34855074e-01 -1.29161322e+00 -1.31809220e-01
      4.31562930e-01 3.73606414e-01 1.81320801e-01 -6.42392814e-01
      -5.17942786e-01 -9.78364572e-02 3.54504436e-01 6.46985471e-02
      9.20463741e-01 -1.26664311e-01 6.96490049e-01 3.40579376e-02
      1.46650121e-01 -4.56518382e-02 2.91758060e-01 -4.84424174e-01
      -5.60146272e-01 -8.57260227e-01 -9.24217477e-02 -3.67714018e-01
      -5.06950617e-01 -1.39192224e-01 -4.06828284e-01 5.36430657e-01
      4.06173110e-01 1.14069748e+00 -1.13429517e-01 -1.78221714e+00
      -8.83757100e-02 -1.19957089e-01 -6.35517657e-01 7.36910522e-01
      -1.85353231e+00 -1.25417161e+00 3.74616146e-01 9.93601501e-01
      -5.39871335e-01 -1.16659975e+00 -2.42503166e-01 4.63958442e-01
      3.44751269e-01 -1.51743189e-01 2.93857932e-01 2.75756866e-02
      7.50735879e-01 1.29819727e+00 1.14159930e+00 -3.06188613e-01
      1.03188634e+00 -5.12732685e-01 1.46845591e+00 -1.04583144e+00
      -5.45609176e-01 -9.71936524e-01 -6.47423603e-03 -1.57550901e-01
      1.25329122e-01 7.19218314e-01 -4.31989789e-01 6.34876117e-02
      -3.67134422e-01 -7.54043758e-01 4.78882641e-01 -2.05287993e-01
      7.53157496e-01 -1.84531629e-01 9.06707048e-01 5.07588685e-01
      1.61455452e+00 8.08842242e-01 3.86318028e-01 2.03264594e+00
      1.11141646e+00 1.02624178e+00 -2.17083380e-01 6.14497006e-01
      1.78897560e+00 -7.89170802e-01 -4.14043099e-01 -1.60795748e+00
      -1.22140551e+00 -1.18640554e+00 -5.99745393e-01 9.15593505e-01
      1.07709026e+00 -4.94739115e-01 -4.80813205e-01 1.57999933e+00
      6.51576757e-01 -6.03811085e-01 -1.91353106e+00 -1.19956136e+00
      -6.66781738e-02 1.17237359e-01 -2.22226173e-01 3.12394232e-01
      8.96599829e-01 1.47709990e+00 -4.40986276e-01 7.71144986e-01
      -7.82963395e-01 -1.15317023e+00 -2.03628942e-01 -1.73503315e+00
      -2.70781755e-01 -1.57350707e+00 1.25026894e+00 -4.99189906e-02
      9.84442532e-02 3.71454686e-01 1.91595519e+00 2.94836372e-01
      2.43794322e-01 -3.88837069e-01 5.87150574e-01 -1.10499763e+00
      -2.28553280e-01 1.51838213e-01 -7.28653371e-01 -1.14343309e+00
      -1.54467368e+00 -1.57542300e+00 1.10572362e+00 1.87330425e-01
      1.63715705e-01 -1.11082447e+00 -1.35698187e+00 -1.75900972e+00
      1.15543926e+00 -1.04312491e+00 -1.25758755e+00 6.34624898e-01
      -1.27844918e+00 4.09798115e-01 1.12041259e+00 -6.49265170e-01
      3.98183875e-02 3.49438399e-01 -8.36935461e-01 -4.23576593e-01
      8.48138750e-01 7.14822292e-01 3.02851140e-01 8.08199823e-01
      5.41501105e-01 1.00842988e+00 -9.27223787e-02 1.21800311e-01
      1.68161958e-01 2.10025534e-02 6.84397638e-01 -6.65182233e-01
      3.24502468e-01 5.01639068e-01 5.66207409e-01 -1.52630246e+00
      1.34285355e+00 7.34076440e-01 -1.63597986e-01 -4.86299157e-01
      6.26347601e-01 -9.62247789e-01 -5.75450718e-01 -9.99023974e-01
      1.43605381e-01 -3.76051635e-01 9.40657258e-02 -6.00569189e-01
      -6.77790046e-01 -2.81540722e-01 -8.26650202e-01 -1.85531065e-01
      -1.50662220e+00 -6.70405090e-01 2.05770135e-01 -3.28192115e-01
      5.98123670e-01 1.20470667e+00 3.00517064e-02 -7.40714490e-01
      1.87668636e-01 -1.03739433e-01 7.79094994e-01 1.20196974e+00
      -9.05323863e-01 1.32316649e+00 -1.46470532e-01 -1.40107036e+00
      -3.76870662e-01 -5.32389224e-01 5.57291210e-01 6.29214287e-01
      1.01846147e+00 1.84130359e+00 -7.17208982e-01 7.81912804e-01
      -1.54731059e-02 9.61903572e-01 -2.37591982e-01 -2.42927432e-01
      1.67137992e+00 2.28424668e+00 2.29126379e-01 -9.10013378e-01
      1.25867307e+00 1.07106495e+00 1.37361020e-01 1.96260914e-01
      -9.83813405e-01 -1.15704083e+00 1.16022027e+00 2.70612299e-01
      3.27981532e-01 -2.79051721e-01 -9.77399945e-01 9.80346143e-01
      -3.08804184e-01 1.23136604e+00 1.87897670e+00 1.69590004e-02
      -5.79128206e-01 7.21760631e-01 4.76837218e-01 1.14416218e+00
      8.39396119e-01 3.36470246e-01 3.51675928e-01 5.19149423e-01
      5.83708763e-01 3.27579707e-01 5.25481105e-01 3.77797097e-01
      1.01569247e+00 3.76510054e-01 4.34334219e-01 1.22315121e+00
      5.52202463e-01 -7.63679445e-01 -1.52701125e-01 -1.56301439e-01
      -9.34895515e-01 1.64196944e+00 1.18651128e+00 -1.22244298e-01
      -5.89729846e-01 3.00858110e-01 1.23114800e+00 -1.93204895e-01
      -1.35391915e+00 -8.98864865e-01 2.30399704e+00 1.74198902e+00
      3.37509125e-01 -3.83669436e-01 -3.19852680e-01 4.97433484e-01
      -1.45735085e-01 1.35578585e+00 -1.53705406e+00 -9.75544333e-01
      -3.70916694e-01 -1.82878232e+00 -1.58049774e+00 2.58848667e-01
      -1.54122442e-01 -1.74534261e-01 -7.44707525e-01 -2.92020831e-02
      -1.83417857e+00 -1.83594704e-01 4.63156462e-01 1.94832218e+00
      -3.75695050e-01 1.09804988e+00 1.84402823e-01 1.05927432e+00
      -4.84601855e-01 -2.26926506e-01 -4.66524720e-01 7.94866145e-01
      3.08138609e-01 6.02789462e-01 4.51840237e-02 -1.23658717e+00
      -1.31605256e+00 -1.15853143e+00 -1.78658798e-01 -8.97793412e-01
      4.28868473e-01 -5.36862314e-01 1.17441916e+00 3.79619524e-02
      8.92855376e-02 5.91164231e-01 4.32841890e-02 -6.50691211e-01
      -1.23184216e+00 -8.98739040e-01 1.79333836e-01 1.96897894e-01
      4.44166631e-01 1.09453297e+00 -5.09730399e-01 -1.37053764e+00
      -1.07508504e+00 6.48845494e-01 8.05747211e-01 -1.93862438e-01
      -6.02790713e-01 -1.43035722e+00 -1.13166988e+00 1.48005939e+00
      -8.42973769e-01 1.35425413e+00 -7.56938308e-02 1.28071630e+00
      3.07511091e-01 2.14898214e-01 8.97939354e-02 1.45762014e+00
      1.76409394e-01 8.27785358e-02 3.60770971e-02 1.02815127e+00
      -1.91378355e-01 -7.15359747e-01 6.31752789e-01 -8.99892271e-01
      -6.30389512e-01 -7.92383909e-01 -7.19611347e-01 5.74073315e-01
      2.50176966e-01 3.28919172e-01 -4.65038158e-02 4.76234227e-01
      1.20761359e+00 -1.02944717e-01 6.93319619e-01 -2.23461971e-01
      6.71443269e-02 4.64925498e-01 -2.96010226e-01 -1.72558713e+00
      3.09030175e-01 -3.39406222e-01 -7.45712698e-01 3.30665037e-02
      2.53114924e-02 8.51853490e-01 1.72722876e-01 -6.22924209e-01
      7.86925375e-01 -6.97452664e-01 5.21244556e-02 -3.01302433e-01
      -2.87890524e-01 -8.74020010e-02 5.93241863e-02 -8.32255960e-01
      2.80924708e-01 5.36354840e-01 8.07873130e-01 4.24637228e-01
      1.28255868e+00 -1.31796867e-01 -2.49419287e-01 4.57797557e-01
      1.03830385e+00</_></support_vectors>
  <decision_functions>
    <_>
      <sv_count>1</sv_count>
      <rho>-1.4362747297393874e-01</rho>
      <alpha>
        1.</alpha></_></decision_functions></opencv_ml_svm>
</opencv_storage>
