<?xml version="1.0"?>
<opencv_storage>
<opencv_ml_svm>
  <format>3</format>
  <svmType>C_SVC</svmType>
  <kernel>
    <type>LINEAR</type></kernel>
  <C>10.</C>
  <term_criteria><epsilon>1.1920928955078125e-07</epsilon>
    <iterations>1000</iterations></term_criteria>
  <var_count>625</var_count>
  <class_count>2</class_count>
  <class_labels type_id="opencv-matrix">
    <rows>2</rows>
    <cols>1</cols>
    <dt>i</dt>
    <data>
      0 1</data></class_labels>
  <sv_total>1</sv_total>
  <support_vectors>
    <_>
      -1.00545540e-01 -4.51934904e-01 -2.45994210e-01 -1.35394782e-01
      -4.19253975e-01 3.26732308e-01 1.34510189e-01 -2.45006815e-01
      -8.54806900e-01 5.21015346e-01 -7.86898583e-02 4.64329839e-01
      -3.00010830e-01 -6.59470111e-02 -2.23925009e-01 -1.84400961e-01
      -4.31796052e-02 -2.96782907e-02 -1.16306853e+00 -3.57150018e-01
      7.57926330e-02 -1.96635857e-01 1.05182938e-02 -3.29883069e-01
      2.78551102e-01 2.31265631e-02 5.26334383e-02 5.02011061e-01
      5.77539682e-01 4.24500436e-01 6.87133968e-02 9.50443447e-02
      -2.77342033e-02 -8.49199772e-01 -3.26514021e-02 -5.83869636e-01
      -1.30020574e-01 3.56608666e-02 1.02569774e-01 7.18347073e-01
      1.37717053e-01 5.63320816e-01 4.24230784e-01 -2.28049368e-01
      5.25971770e-01 -7.84027576e-01 -1.10022262e-01 -2.50506371e-01
      9.37492609e-01 2.55972654e-01 5.48202395e-02 7.67971575e-01
      -3.06249350e-01 3.36794704e-02 2.49357492e-01 6.03591263e-01
      6.30987138e-02 5.99887848e-01 -3.76062483e-01 -4.02173072e-01
      5.74366033e-01 4.94738489e-01 -1.98189944e-01 2.59393543e-01
      -4.44107145e-01 4.90905762e-01 5.38598597e-01 -1.28861859e-01
      -2.42403626e-01 -1.23310514e-01 -1.74060374e-01 5.24316393e-02
      1.92863673e-01 2.93383121e-01 -3.81453126e-03 -1.69621035e-01
      7.14130923e-02 4.51516002e-01 5.53759933e-01 -4.21077311e-01
      1.56486332e-01 2.46885102e-02 -9.32587326e-01 -1.08006871e+00
      -1.02407372e+00 -1.75938383e-01 -6.02684952e-02 -2.29451030e-01
      -3.57461780e-01 -1.92881629e-01 5.11984348e-01 -7.17667162e-01
      -1.44200778e+00 -1.65805697e-01 -7.79040158e-02 -2.70222053e-02
      -1.19146429e-01 -2.40785077e-01 -1.14011419e+00 2.15408221e-01
      6.74356401e-01 3.46983582e-01 4.93202120e-01 2.21695174e-02
      4.37052429e-01 1.50321996e+00 6.05151989e-02 1.88299567e-01
      -6.51996881e-02 -1.09754384e-01 4.54071790e-01 -6.06261671e-01
      -5.14763668e-02 -5.12014568e-01 -1.81611106e-01 -7.27009997e-02
      5.72867393e-01 4.53760207e-01 3.63790482e-01 5.59452176e-01
      9.10083592e-01 4.47152227e-01 -5.45400046e-02 -6.51226342e-01
      1.07229963e-01 2.42702484e-01 -4.60131228e-01 1.26757324e-01
      -7.21055344e-02 3.67565118e-02 -5.48924327e-01 -2.58718610e-01
      5.72728403e-02 -1.57918423e-01 4.85365950e-02 2.82601506e-01
      2.37057835e-01 3.80527079e-01 3.30606669e-01 1.70018971e-01
      -4.90969241e-01 1.42398846e+00 -3.15275431e-01 -2.88691759e-01
      -1.44724891e-01 -1.04445326e+00 -5.72212040e-01 -1.99393407e-01
      -7.36374855e-01 1.67901412e-01 3.61351550e-01 -5.08881919e-02
      -2.38071959e-02 6.52879775e-02 4.81742442e-01 2.07036495e-01
      5.48795499e-02 9.44064036e-02 2.23780349e-01 -8.73833358e-01
      -9.07915413e-01 -1.12068057e+00 3.95565946e-03 -3.82358044e-01
      -1.42498806e-01 -1.91667974e-01 -9.17061120e-02 -2.90635169e-01
      1.03248775e+00 1.60297170e-01 -1.18642207e-02 9.52325821e-01
      -1.25167251e-01 7.62838542e-01 3.36621910e-01 6.45279735e-02
      -1.15523852e-01 -7.92583376e-02 -7.47394621e-01 1.25699949e+00
      -5.10252059e-01 -8.33640516e-01 3.92328426e-02 -4.73266810e-01
      3.68517429e-01 -4.12908792e-01 7.29099751e-01 -6.60777748e-01
      -3.70112628e-01 4.60307896e-01 1.10920921e-01 3.32455218e-01
      2.55676031e-01 8.82529318e-01 3.26623917e-01 1.27518818e-01
      8.29782844e-01 7.01302946e-01 4.23215151e-01 -6.34919226e-01
      -3.03558439e-01 2.11011425e-01 -7.06454590e-02 4.32067998e-02
      2.18133703e-01 -3.87821048e-01 -8.07803631e-01 5.27698934e-01
      -2.89844364e-01 -4.51530628e-02 -4.82985467e-01 2.10189328e-01
      1.43371463e-01 6.51852712e-02 2.56940216e-01 4.04249996e-01
      -2.32983828e-01 -3.30960453e-01 7.72984743e-01 2.62568220e-02
      1.24056309e-01 1.74092487e-01 2.60789871e-01 4.13069367e-01
      7.36734986e-01 -4.34432060e-01 2.87051857e-01 3.88069123e-01
      -1.15903199e-01 8.47640693e-01 1.63032636e-01 8.92103650e-03
      3.45700681e-01 3.05784822e-01 3.56549844e-02 -1.30662560e-01
      -5.26499271e-01 -4.87805128e-01 -1.78359494e-01 -3.90205353e-01
      -4.92961006e-03 1.31965339e-01 -1.74573101e-02 -5.85785471e-02
      -1.32331520e-01 7.98194036e-02 2.05364197e-01 -1.83738634e-01
      -5.50568923e-02 4.04037595e-01 -4.07308549e-01 -3.14377993e-01
      -7.98450969e-03 -8.91041219e-01 -3.13523978e-01 -3.87183279e-01
      -6.01059258e-01 -8.80141556e-02 7.71261573e-01 -1.13925539e-01
      2.50902921e-01 2.11281061e-01 1.74531356e-01 1.40802965e-01
      -2.05162689e-01 7.29825854e-01 -3.19556482e-02 2.13398248e-01
      -1.13652968e+00 1.69096261e-01 4.76606041e-01 -6.33225024e-01
      -2.59128630e-01 7.18018532e-01 1.25124797e-01 4.28180546e-01
      1.75973356e-01 -2.50823479e-02 -3.61232199e-02 1.94827899e-01
      3.42525512e-01 6.82475507e-01 -3.61288965e-01 2.20998880e-02
      1.77349880e-01 -3.55433196e-01 -3.57054591e-01 -2.56298453e-01
      -1.56518102e-01 -2.59714067e-01 -2.54301667e-01 -9.64531451e-02
      -1.50023982e-01 3.50847512e-01 -2.71976531e-01 2.82510132e-01
      1.96902394e-01 -5.63868880e-01 -1.04805720e+00 1.03093237e-02
      -3.29730213e-01 -1.68299317e-01 5.90306044e-01 4.39815879e-01
      -3.80137950e-01 -3.16725791e-01 4.98153389e-01 4.43069905e-01
      9.24570382e-01 -3.87048791e-03 -1.34550631e+00 3.46170902e-01
      3.36521953e-01 -1.96449503e-01 -5.54166019e-01 6.75827146e-01
      3.29579175e-01 1.42466664e+00 1.31216139e-01 -3.02758843e-01
      -1.04931556e-01 1.83455557e-01 -1.39057446e+00 -2.24479422e-01
      -8.12281296e-03 -7.25752339e-02 1.04656839e+00 2.64002562e-01
      2.54101157e-01 -3.02902043e-01 6.47146404e-02 6.87816322e-01
      -2.26666629e-01 -2.42081106e-01 1.89028025e-01 5.64491749e-01
      -4.86053713e-02 1.00636208e+00 6.22216046e-01 6.91880286e-02
      -1.38388723e-01 1.15318298e+00 -4.44750041e-01 9.81976045e-04
      3.22416008e-01 -4.14211869e-01 3.41417164e-01 -9.54964340e-01
      -6.81635797e-01 -9.09959614e-01 -3.27024937e-01 -1.38512659e+00
      -1.03541744e+00 -1.10591270e-01 1.03653431e+00 -1.93116546e-01
      3.41777027e-01 2.33180240e-01 1.91030666e-01 2.88926046e-02
      4.56713766e-01 1.01219296e+00 -1.50827289e-01 -3.53415400e-01
      -4.45897609e-01 1.01130396e-01 -4.80261624e-01 5.66898465e-01
      8.41911733e-01 3.14074963e-01 7.51033306e-01 -3.69666815e-01
      -3.75490367e-01 3.28017741e-01 -1.33240557e+00 5.24323285e-01
      -4.24804181e-01 -1.94742531e-01 -2.01981589e-01 1.57632482e+00
      2.72607297e-01 1.74639001e-01 1.11595869e-01 -2.12716967e-01
      -1.57907307e-01 3.96291107e-01 6.28933012e-01 -1.96322143e-01
      5.51665008e-01 9.91099142e-03 -2.17325032e-01 -8.09176564e-01
      -8.61739159e-01 -5.31344891e-01 3.19005728e-01 5.76855242e-01
      -1.96537882e-01 6.32767975e-01 1.10405087e+00 -9.45163965e-02
      -3.14435929e-01 1.46154597e-01 -1.57079682e-01 1.13888070e-01
      -9.79373634e-01 -1.34108901e-01 -7.73827434e-01 -2.09201239e-02
      -1.13944328e+00 5.62206388e-01 6.87986687e-02 3.81409377e-01
      1.19172275e-01 -2.12899357e-01 -5.44122100e-01 -1.73149478e+00
      -1.25008598e-01 2.56432682e-01 5.11563301e-01 -2.63524622e-01
      -4.61611032e-01 -8.05994496e-03 -1.73736677e-01 7.78172076e-01
      -3.25167358e-01 3.01861405e-01 3.95565122e-01 4.48672205e-01
      4.16689724e-01 6.78378940e-01 3.45438004e-01 8.61702621e-01
      5.26007473e-01 7.36512197e-03 3.57870758e-01 4.22262579e-01
      4.17012125e-01 3.24504375e-01 5.22384584e-01 5.87262034e-01
      8.23499680e-01 -4.27843183e-01 -5.63920021e-01 -3.04577768e-01
      2.61503696e-01 -9.06760156e-01 -6.67106986e-01 -9.04424548e-01
      6.36288166e-01 6.90115333e-01 -9.75766405e-02 -3.86633128e-01
      1.31511331e+00 -7.44843185e-01 -1.09423232e+00 -1.68648350e+00
      -6.41758263e-01 7.00086802e-02 3.70821476e-01 5.67625284e-01
      1.00412726e+00 7.28744745e-01 -1.19783767e-01 -7.10829347e-02
      -1.44513905e-01 -1.65603086e-01 -7.70597398e-01 3.96130383e-01
      3.25606346e-01 -9.18867663e-02 9.98347104e-01 -2.59233236e-01
      -5.01962788e-02 1.91593226e-02 -1.66547015e-01 4.87663686e-01
      4.14153576e-01 -5.41174188e-02 -4.72082555e-01 1.03477025e+00
      7.36167878e-02 5.98650873e-01 4.82130140e-01 -3.57261628e-01
      -4.18170452e-01 6.93187058e-01 7.22973824e-01 -7.81162679e-01
      3.90386671e-01 3.74987274e-02 1.66750271e-02 -3.68880987e-01
      -4.96198773e-01 -4.84823138e-01 9.79002491e-02 -6.46343708e-01
      8.72386396e-02 2.13472947e-01 1.84197038e-01 -4.44988042e-01
      4.76459324e-01 6.81513906e-01 8.82493496e-01 -1.00041814e-01
      8.02528739e-01 7.19514787e-01 -2.26740941e-01 1.19566131e+00
      -7.02771127e-01 3.68845165e-01 -1.20379150e+00 -1.06533527e+00
      6.38206363e-01 -7.62274921e-01 2.89463788e-01 6.72071874e-01
      7.67223537e-01 1.42231154e+00 -8.38486433e-01 -1.57681137e-01
      3.33690941e-01 1.13539755e+00 4.65136886e-01 1.46225601e-01
      -5.14751911e-01 -9.26694036e-01 -3.85359377e-01 3.32515627e-01
      9.83611226e-01 -1.24244280e-01 -1.02348936e+00 8.68576989e-02
      -6.93126857e-01 1.22200894e+00 4.22060668e-01 3.74272972e-01
      8.98535073e-01 2.09966019e-01 9.02185261e-01 3.29130553e-02
      6.38689756e-01 -1.97675139e-01 5.15397072e-01 -4.73228723e-01
      -3.87449414e-01 5.55981815e-01 -4.59920585e-01 -5.37902117e-01
      5.53862453e-01 -9.42332208e-01 -5.67969203e-01 1.17036808e+00
      -3.81365269e-01 -3.38796943e-01 -5.10034978e-01 3.92222673e-01
      -9.65868771e-01 -7.43105829e-01 9.78763998e-02 -9.24511790e-01
      8.14970136e-01 -4.57754791e-01 -5.05264282e-01 6.61212206e-01
      2.04734921e-01 -5.50734520e-01 3.67951035e-01 -7.71390080e-01
      -4.34515715e-01 -4.41433847e-01 1.21137261e+00 5.22347130e-02
      -3.72423321e-01 -1.34161890e+00 -1.68672442e-01 9.41081494e-02
      7.84068048e-01 8.73985469e-01 6.30180836e-02 3.70264947e-01
      1.24486589e+00 5.64256966e-01 5.96507788e-01 -2.80668944e-01
      -1.27279484e+00 -5.15515864e-01 -5.15797913e-01 -1.50778279e-01
      1.76286697e-01 1.04370344e+00 1.53013811e-01 -1.06784558e+00
      -1.14066564e-01 1.21000123e+00 1.06940985e+00 3.01563710e-01
      -5.68859696e-01 6.51168525e-02 -1.52410197e+00 -5.52056968e-01
      -1.74178496e-01 -6.12580895e-01 6.98330581e-01 7.37216294e-01
      6.28654361e-01 3.27663064e-01 -7.86387265e-01 -3.87542039e-01
      -7.06194222e-01 -2.00616732e-01 6.21768773e-01 -7.04670846e-01
      9.35724080e-01 -4.81436163e-01 7.35779703e-01 -4.29385304e-01
      -9.68148112e-01 -4.78674084e-01 1.03245282e+00 -8.90211225e-01
      4.16399688e-01 7.36353874e-01 2.63243705e-01 -6.01451695e-01
      -1.04492033e+00</_></support_vectors>
  <decision_functions>
    <_>
      <sv_count>1</sv_count>
      <rho>-8.8552386185097220e-01</rho>
      <alpha>
        1.</alpha></_></decision_functions></opencv_ml_svm>
</opencv_storage>
