<?xml version="1.0"?>
<opencv_storage>
<opencv_ml_svm>
  <format>3</format>
  <svmType>C_SVC</svmType>
  <kernel>
    <type>LINEAR</type></kernel>
  <C>10.</C>
  <term_criteria><epsilon>1.1920928955078125e-07</epsilon>
    <iterations>1000</iterations></term_criteria>
  <var_count>625</var_count>
  <class_count>2</class_count>
  <class_labels type_id="opencv-matrix">
    <rows>2</rows>
    <cols>1</cols>
    <dt>i</dt>
    <data>
      0 1</data></class_labels>
  <sv_total>1</sv_total>
  <support_vectors>
    <_>
      -7.06613481e-01 2.10290208e-01 -8.62386882e-01 7.45439604e-02
      -4.54500705e-01 4.93566483e-01 -7.94782817e-01 7.08497763e-01
      3.03823948e-01 1.17949867e+00 -5.68949468e-02 1.17032588e+00
      7.87870139e-02 4.58428621e-01 2.68758208e-01 -4.48970526e-01
      -2.48775214e-01 9.59085152e-02 -4.95641679e-01 -4.32375163e-01
      6.19159281e-01 -2.22816542e-01 7.25424528e-01 2.26564810e-01
      -6.71294868e-01 6.87153220e-01 1.99847504e-01 3.55731875e-01
      -4.92480993e-01 -1.30356121e+00 6.86576366e-01 6.36163175e-01
      -1.52733907e-01 4.30568531e-02 5.64108372e-01 4.80154991e-01
      -5.76354384e-01 -4.47373390e-01 9.01657939e-02 3.52827489e-01
      1.42601505e-01 8.25939119e-01 6.22514725e-01 3.30709875e-01
      -1.29347110e+00 6.90017164e-01 -1.19141948e+00 1.00925624e+00
      6.54074073e-01 1.81432590e-01 -4.76666451e-01 7.50992060e-01
      8.08224231e-02 3.98752868e-01 -4.34276089e-02 3.69339734e-01
      -2.05450878e-01 -1.48474619e-01 1.71493039e-01 1.05912423e+00
      -4.47078794e-02 2.99960494e-01 7.80516863e-01 8.93992484e-01
      1.41529143e-01 4.50706989e-01 -1.19051385e+00 2.58040220e-01
      3.29453409e-01 1.13210395e-01 -2.65023187e-02 6.20700181e-01
      2.23721504e-01 -7.55057409e-02 -1.44049132e+00 4.29823369e-01
      1.37365592e+00 -7.96727359e-01 -1.35032463e+00 1.42114952e-01
      -6.64808273e-01 -4.88210648e-01 -4.19379205e-01 -2.37628877e-01
      4.87380981e-01 -3.14959466e-01 7.67604113e-01 4.77329135e-01
      1.42868280e-01 5.85424483e-01 5.10797679e-01 -5.90175539e-02
      4.02438343e-01 4.67728078e-01 4.94810224e-01 -5.87321639e-01
      -8.94042552e-01 1.18770790e+00 8.38769734e-01 -1.05391514e+00
      1.60748884e-01 2.15829313e-01 7.02248096e-01 -7.33181357e-01
      -1.63854027e+00 1.56097996e+00 4.67268854e-01 -2.40638047e-01
      -1.17495370e+00 1.47868082e-01 -8.58965397e-01 6.64229274e-01
      2.09240094e-01 9.60571647e-01 8.17312375e-02 6.73262402e-02
      -1.12589526e+00 -1.16711152e+00 -1.48418140e+00 -1.73850432e-01
      6.11407936e-01 8.34131002e-01 1.32748151e+00 -2.07013398e-01
      4.58679825e-01 -4.90174621e-01 4.61499900e-01 4.77496266e-01
      -3.69212925e-01 -6.58949688e-02 -7.08563924e-02 8.58944237e-01
      1.48729932e+00 1.54192936e+00 2.51556307e-01 -5.55555820e-01
      -6.31166920e-02 -5.15056729e-01 2.40974140e+00 -3.63071322e-01
      -2.00633854e-01 -9.91890907e-01 -1.00906634e+00 -1.10000241e+00
      -7.12914288e-01 7.33898222e-01 1.63718283e-01 -3.39577198e-01
      1.90760338e+00 -5.48159242e-01 -1.38211355e-01 -6.99807405e-01
      -3.30008000e-01 4.07056630e-01 1.11752912e-01 -9.56192553e-01
      -7.59677496e-03 -3.98323834e-01 1.70517787e-01 6.50131583e-01
      1.02822876e+00 5.37327111e-01 -8.04160893e-01 1.13322914e+00
      -1.58350062e+00 -5.68471372e-01 -4.74016815e-01 2.03233838e+00
      -6.73900723e-01 -9.31402564e-01 5.58344901e-01 3.13832819e-01
      9.27768350e-01 -6.30275682e-02 -1.15552139e+00 -1.37685925e-01
      1.40618300e+00 5.63351691e-01 1.34625638e+00 -2.66376734e-01
      4.03272510e-01 -2.80766159e-01 -3.45114321e-01 -8.19427133e-01
      -2.26902112e-01 2.57262170e-01 2.03213319e-01 1.42572260e+00
      -6.52408659e-01 4.04329717e-01 5.65089345e-01 -1.62829638e+00
      1.25275645e-03 -5.36989234e-02 -1.30630851e+00 -1.08056712e+00
      -2.06166053e+00 2.86471337e-01 2.02784598e-01 1.86022425e+00
      1.06746864e+00 -7.43321598e-01 2.99584061e-01 4.02552366e-01
      3.15261483e-01 -1.11545615e-01 1.41988671e+00 4.36494976e-01
      -2.27055609e-01 -2.01937604e+00 -2.26925588e+00 1.94466841e+00
      -2.79448330e-01 -2.34941649e+00 1.86925590e+00 1.25471354e-01
      6.73099101e-01 2.58958340e-01 3.47133458e-01 4.31140244e-01
      -5.22110522e-01 8.94777775e-01 -1.17870486e+00 1.01603866e-01
      -4.65197535e-03 -5.10223389e-01 4.54414971e-02 5.05226791e-01
      -1.61487218e-02 4.03199494e-01 -5.00775933e-01 2.69830853e-01
      -1.46126199e+00 4.02487069e-01 -1.09546036e-01 -1.76897001e+00
      -1.32661068e+00 1.07301161e-01 -1.53278279e+00 -7.76962399e-01
      -8.82853746e-01 6.58283114e-01 4.12723005e-01 7.00289488e-01
      1.77669600e-01 1.81287080e-01 3.84904891e-01 5.29443085e-01
      -1.06133842e+00 -1.18133116e+00 2.01178360e+00 -7.92102814e-02
      4.73574519e-01 -1.17484026e-01 -1.08527172e+00 1.46033013e+00
      5.01418531e-01 -4.13649380e-01 2.21192747e-01 -1.85133606e-01
      4.26932186e-01 3.46493900e-01 -4.82151151e-01 3.44218922e+00
      -1.03445435e+00 -7.71723986e-01 8.99363309e-02 -4.87745404e-01
      1.71308661e+00 1.56216478e+00 -1.38490844e+00 1.34565425e+00
      9.41525519e-01 1.53129232e+00 -1.48245543e-01 8.98063362e-01
      2.29738444e-01 -2.62097239e-01 -1.49599171e+00 -7.25445449e-01
      -8.27594817e-01 2.88254476e+00 7.69485831e-01 8.95300686e-01
      6.52738929e-01 1.81479335e-01 1.22125542e+00 -3.73724252e-01
      1.30332148e+00 1.18192089e+00 1.59375679e+00 3.10134053e-01
      -9.87950265e-01 9.86067891e-01 -1.64456677e+00 -3.63165617e-01
      -8.25405836e-01 9.45182264e-01 -4.21185255e-01 1.25908935e+00
      -1.87776566e-01 8.85985255e-01 -1.95660639e+00 -3.40196341e-01
      -1.49522817e+00 -6.26717389e-01 6.17714703e-01 -1.01904124e-01
      -1.21865880e+00 -6.89203322e-01 1.12102187e+00 1.59644639e+00
      7.67531171e-02 3.21170926e-01 -1.65607974e-01 -8.02611887e-01
      -7.12372720e-01 1.14949453e+00 1.79665580e-01 7.43159294e-01
      -1.05393100e+00 1.42516148e+00 -8.69501531e-02 1.64994746e-01
      1.81559756e-01 -1.04095399e+00 4.31839302e-02 -2.30406955e-01
      -2.13752270e+00 1.11552036e+00 -6.42598271e-01 6.56738460e-01
      1.12834537e+00 -6.00752652e-01 -2.90887058e-01 -6.70729160e-01
      6.52522385e-01 9.48192552e-03 -8.48770589e-02 7.76363730e-01
      7.98953533e-01 -7.97340035e-01 -1.41808689e+00 3.07773173e-01
      1.41874218e+00 -6.46705553e-02 1.39886236e+00 -3.91631484e-01
      9.38626766e-01 1.32156050e+00 9.68801618e-01 6.77424908e-01
      7.81675458e-01 -6.61677420e-01 3.31089437e-01 -1.26100707e+00
      4.45625812e-01 1.77371585e+00 1.81987569e-01 1.72578657e+00
      -8.79387081e-01 -9.70537007e-01 -5.89545406e-02 5.86228669e-01
      -5.65981746e-01 -1.41010916e+00 -8.36390853e-01 3.27359103e-02
      -7.45659769e-01 8.30889821e-01 6.16248429e-01 6.14980936e-01
      2.81486601e-01 2.05821204e+00 5.26679516e-01 -4.83079314e-01
      -2.75211185e-01 -3.90705373e-03 -3.32137495e-01 5.49539804e-01
      -5.05634129e-01 2.63353854e-01 2.43398786e+00 1.19258034e+00
      1.11688411e+00 -7.20379362e-03 9.03874099e-01 8.57031703e-01
      5.79079747e-01 -1.02345240e+00 -7.12793171e-01 -9.81928706e-01
      -1.29766393e+00 -9.92942005e-02 -5.71027547e-02 2.56338096e+00
      -4.18969423e-01 -1.89356613e+00 8.94121900e-02 -1.43586710e-01
      6.78786099e-01 -6.80657566e-01 6.92927718e-01 -1.08935738e+00
      -1.18666959e+00 -3.16652954e-01 1.37528494e-01 5.76219976e-01
      6.98833108e-01 -1.59718478e+00 -8.94183695e-01 -7.95217574e-01
      -1.19853348e-01 -7.47989774e-01 -6.58821702e-01 7.52365232e-01
      -9.91718233e-01 4.14425015e-01 -1.71108305e+00 1.72957659e+00
      1.68424475e+00 4.51960534e-01 1.77372709e-01 8.66094947e-01
      -9.19626355e-01 -4.41743284e-01 8.29985738e-01 -1.29556561e+00
      -5.27781069e-01 5.24720013e-01 -4.55635577e-01 -6.58754468e-01
      -5.83270788e-01 -3.54680091e-01 -2.57538497e-01 -2.15211824e-01
      -4.06925738e-01 1.83530182e-01 4.70121503e-01 7.91731775e-01
      -1.08724797e+00 1.24955833e+00 6.84787273e-01 -7.04267621e-01
      -2.49130756e-01 5.16936004e-01 -3.99412125e-01 -2.10710526e-01
      3.30221295e-01 -6.69462025e-01 -1.46213031e+00 4.40049887e-01
      1.40857488e-01 -5.81361175e-01 6.66451752e-01 7.70101726e-01
      -7.44453609e-01 1.54664552e+00 1.32697558e+00 -2.28795123e+00
      8.36357176e-01 5.50333381e-01 -1.45985019e+00 1.38305116e+00
      -1.01585948e+00 9.38942015e-01 -1.09206975e+00 -7.52698243e-01
      1.22189426e+00 1.45673561e+00 3.64342570e-01 4.14043993e-01
      4.35603745e-02 -7.15911448e-01 -1.57080054e+00 2.28828967e-01
      1.33585989e+00 1.93698615e-01 -1.09015845e-01 -1.08828473e+00
      2.33992100e-01 2.64670044e-01 8.46322715e-01 -1.37894297e+00
      -1.63216293e+00 3.25394981e-02 6.42462790e-01 -1.34192660e-01
      2.88767487e-01 -2.16480419e-01 -3.88831347e-01 -3.49573106e-01
      -3.17127615e-01 5.28596416e-02 3.78833324e-01 1.28243387e+00
      -4.13320839e-01 -1.07795024e+00 9.74330485e-01 1.48844934e+00
      7.61235237e-01 -1.03991993e-01 -3.86110306e-01 1.57440543e-01
      1.09852970e+00 -6.68642640e-01 9.26745415e-01 8.85477439e-02
      -2.21100092e-01 -5.37102938e-01 -6.73196852e-01 -2.59839249e+00
      1.58976996e+00 1.30046642e+00 5.15807509e-01 -9.46053922e-01
      6.39078557e-01 -6.68843687e-01 1.90994358e+00 5.00330329e-01
      -1.85871229e-01 2.07606286e-01 -3.56367856e-01 -1.53279495e+00
      -1.00505853e+00 -3.13830048e-01 -3.60902995e-01 1.85269129e+00
      -6.48745716e-01 -5.06359160e-01 -6.25842139e-02 4.91202205e-01
      1.47570693e+00 -1.08835351e+00 -5.75392604e-01 -2.86114424e-01
      -1.71717942e+00 -4.15973604e-01 -3.71843308e-01 -6.98678613e-01
      -2.61862546e-01 -4.29826796e-01 -1.33578396e+00 -9.50024128e-01
      -1.40140319e+00 8.26513290e-01 -1.92811698e-01 -4.48168159e-01
      -1.78577030e+00 -1.07601190e+00 1.61441877e-01 7.92888820e-01
      1.89981031e+00 1.43583465e+00 1.27703834e+00 -7.90511668e-01
      -9.32664037e-01 1.00496769e+00 6.74856603e-01 1.45495641e+00
      8.63464594e-01 -1.18499577e+00 4.93274510e-01 -1.47731292e+00
      -2.27178752e-01 -8.26258540e-01 1.12972534e+00 -2.80291033e+00
      2.31500834e-01 -9.14934099e-01 -1.54910123e+00 1.24433565e+00
      6.00229017e-02 1.69553089e+00 2.90346667e-02 3.69529963e-01
      -3.59070688e-01 -1.13729203e+00 -2.05551529e+00 9.42224860e-01
      5.76227427e-01 -1.26020181e+00 -5.95319986e-01 2.03633428e+00
      -4.51855838e-01 1.69862127e+00 1.44086957e-01 -8.09893131e-01
      -5.33592701e-01 1.77491441e-01 7.51176596e-01 -2.15016246e+00
      1.08929682e+00 -3.58520627e-01 4.29211967e-02 -5.05717218e-01
      -1.01853454e+00 -9.40636337e-01 7.06193089e-01 7.78044403e-01
      5.07086396e-01 -3.13018352e-01 -8.12698722e-01 1.05475627e-01
      1.09419286e+00 1.62220541e-02 -1.09698486e+00 1.08294785e+00
      2.67206401e-01 -1.02055840e-01 -3.11785191e-01 3.94409835e-01
      -2.85117626e-01 1.08131357e-01 -1.30553901e+00 -3.20554376e-01
      3.54837537e-01 -7.90279031e-01 -2.24901271e+00 -1.23408020e+00
      7.17107296e-01 2.15468788e+00 2.11570287e+00 5.26676178e-01
      -3.12726945e-01</_></support_vectors>
  <decision_functions>
    <_>
      <sv_count>1</sv_count>
      <rho>-1.9347154068837515e+00</rho>
      <alpha>
        1.</alpha></_></decision_functions></opencv_ml_svm>
</opencv_storage>
