<?xml version="1.0"?>
<opencv_storage>
<opencv_ml_svm>
  <format>3</format>
  <svmType>C_SVC</svmType>
  <kernel>
    <type>LINEAR</type></kernel>
  <C>10.</C>
  <term_criteria><epsilon>1.1920928955078125e-07</epsilon>
    <iterations>1000</iterations></term_criteria>
  <var_count>630</var_count>
  <class_count>2</class_count>
  <class_labels type_id="opencv-matrix">
    <rows>2</rows>
    <cols>1</cols>
    <dt>i</dt>
    <data>
      0 1</data></class_labels>
  <sv_total>1</sv_total>
  <support_vectors>
    <_>
      -1.62405238e-01 2.37767234e-01 -2.45989189e-01 8.42447221e-01
      4.82408702e-02 2.65729070e-01 1.18510462e-01 -8.14261258e-01
      -4.42987353e-01 2.85944164e-01 1.83543965e-01 -7.27024600e-02
      -6.69460073e-02 3.51628140e-02 1.12932436e-01 6.31247014e-02
      -3.01767141e-01 3.76719087e-02 2.46489748e-01 2.00939268e-01
      4.64356422e-01 5.11092767e-02 -1.25570418e-02 -1.13172665e-01
      -1.47800997e-01 2.93764677e-02 2.03600358e-02 -9.32655111e-02
      -1.92653388e-02 -8.11506361e-02 6.23456463e-02 -1.01229131e+00
      1.10853612e-01 4.23111720e-03 5.90824336e-02 1.26908764e-01
      6.27974197e-02 6.86270297e-01 1.42776549e-01 -1.18087061e-01
      8.51011351e-02 9.93325487e-02 -5.58037013e-02 -8.72451663e-01
      -1.57590911e-01 2.84385476e-02 -4.10588309e-02 -6.67927563e-01
      9.33773071e-02 -2.13214129e-01 -3.59059364e-01 -1.17322765e-01
      -2.09201261e-01 9.84713078e-01 1.47513777e-01 2.46543989e-01
      -9.75703597e-02 -2.82756865e-01 2.84811202e-02 -3.51151749e-02
      -1.04770791e-02 3.75532836e-01 1.10749349e-01 -3.75418395e-01
      6.13689721e-01 -1.71040278e-03 -4.73058373e-01 1.73888862e+00
      1.30060839e-03 7.77929351e-02 1.00062147e-01 2.20160350e-01
      -8.64756778e-02 -5.48948705e-01 -2.61248136e+00 -6.03128448e-02
      5.22040725e-02 8.02191272e-02 9.76130366e-03 3.37294303e-02
      -1.49972290e-01 -2.49482736e-01 6.83161803e-03 -3.83879900e-01
      -1.39831614e+00 -1.33524075e-01 -3.54628712e-01 2.90665209e-01
      5.50869778e-02 3.77727076e-02 -1.88603267e-01 -2.73506731e-01
      -6.12194352e-02 7.94278234e-02 -1.03602484e-01 1.28402638e+00
      2.99168099e-02 -7.01416016e-01 1.88912451e-01 -5.05108386e-02
      -3.94203095e-03 2.20140275e-02 1.30201176e-01 -1.97467044e-01
      9.34670269e-02 -1.32007515e+00 -6.68174207e-01 -1.02110541e+00
      -1.57122880e-01 -8.34290326e-01 8.45229328e-01 -1.49527586e+00
      -1.54310799e+00 -2.48108804e-01 9.35079873e-01 -2.94471651e-01
      9.76516128e-01 1.09815681e+00 -4.49140489e-01 -1.49760389e+00
      7.80460060e-01 -2.18429461e-01 -1.09911847e+00 7.89080918e-01
      2.37703860e-01 -1.22820902e+00 -4.26867157e-01 -1.62520611e+00
      -1.76785156e-01 -8.95428956e-01 8.72832119e-01 3.83136868e-01
      1.27805054e-01 -1.02161922e-01 2.47993684e+00 1.85472786e+00
      -1.59909993e-01 4.08810098e-03 -8.17956567e-01 -4.97856915e-01
      -5.33133507e-01 5.29092789e-01 4.73481625e-01 -7.84730494e-01
      -4.81205702e-01 -4.40652579e-01 1.22932494e+00 6.16345145e-02
      3.87682348e-01 1.13566053e+00 -1.18464433e-01 2.54035801e-01
      1.83880544e+00 1.41880310e+00 -5.11102676e-01 -8.21611881e-01
      9.91109759e-02 -6.45440578e-01 7.09475517e-01 4.51383799e-01
      -5.45747459e-01 -2.68750697e-01 -7.18170583e-01 -2.66451049e+00
      3.44186366e-01 6.98894680e-01 -4.13842261e-01 2.54178822e-01
      2.75423020e-01 -2.61195630e-01 -1.38315454e-01 -4.21063155e-01
      -1.13343740e+00 -9.03476700e-02 -7.89991200e-01 -1.57002425e+00
      -1.44547713e+00 -4.08951432e-01 -2.68584132e-01 2.59968817e-01
      4.65110034e-01 2.78588906e-02 -1.36385298e+00 1.41349530e+00
      6.52068436e-01 -6.12526655e-01 -6.23578250e-01 2.85702080e-01
      -6.18164301e-01 -1.90769330e-01 5.68583250e-01 1.11884288e-01
      6.83296621e-02 1.08470269e-01 -7.46963024e-01 -4.77407604e-01
      3.23142141e-01 8.88610601e-01 -6.68177962e-01 7.42301106e-01
      2.54564047e-01 6.71304464e-02 -1.43268633e+00 4.37622517e-01
      6.30823791e-01 2.33438477e-01 8.05172384e-01 4.34440136e-01
      4.82698828e-01 5.35830855e-01 -4.40082932e-03 -2.21593454e-01
      -6.66534066e-01 -1.52453706e-02 1.55979171e-01 4.78965342e-02
      -1.74285322e-01 -3.48704048e-02 -4.74994361e-01 -6.10123992e-01
      -3.17742497e-01 2.12549954e-03 -1.34817049e-01 3.41709793e-01
      3.52578819e-01 3.49950314e-01 1.43505931e-01 9.66011703e-01
      1.47689474e+00 5.76431341e-02 1.82703868e-01 1.39115289e-01
      -9.86910909e-02 1.95493221e+00 -5.25029778e-01 -9.40091461e-02
      8.77375379e-02 1.96384206e-01 -1.33069545e-01 2.52749801e-01
      4.76389408e-01 -1.59866408e-01 -1.25011706e+00 4.50106323e-01
      4.76543665e-01 -5.93554638e-02 -4.55706865e-01 -4.50230062e-01
      5.66618025e-01 -1.94297349e+00 7.35204965e-02 3.07919174e-01
      8.88091624e-01 -7.97108412e-01 -5.92393160e-01 -1.02645981e+00
      2.13665605e-01 1.00454740e-01 1.16747499e+00 -8.13760102e-01
      8.15838754e-01 -8.39546084e-01 -1.24915826e+00 2.10729390e-02
      -1.22066116e+00 3.12437683e-01 -1.44752592e-01 1.06093192e+00
      1.21042645e+00 7.43472099e-01 1.40332890e+00 -3.31766188e-01
      7.97150135e-01 6.48321748e-01 -1.29483271e+00 2.36511841e-01
      1.94607601e-01 -4.55701530e-01 8.31111372e-02 -1.95314276e+00
      -4.01484281e-01 6.02102995e-01 -4.84903067e-01 1.51894644e-01
      -3.36565316e-01 7.53546894e-01 1.39396414e-01 -8.18968594e-01
      4.76797998e-01 7.75010586e-01 -1.24816525e+00 2.18041253e+00
      -1.16793311e+00 -7.61445940e-01 3.54300559e-01 -3.39201957e-01
      1.83305824e+00 -2.90335000e-01 -1.04480422e+00 -3.47998381e-01
      1.99962333e-01 3.99918675e-01 -8.09023440e-01 7.20293581e-01
      -5.01703441e-01 -8.30546856e-01 -1.87974036e+00 -1.50213099e+00
      1.85299218e+00 1.23569262e+00 -2.13656977e-01 -9.70480561e-01
      9.74548638e-01 -3.14125508e-01 4.75829467e-02 -1.94452420e-01
      -2.06017423e+00 8.94919336e-01 9.28824842e-01 -9.25744653e-01
      2.06076336e+00 -1.64152169e+00 1.32732224e+00 -2.08145529e-01
      1.98253119e+00 1.55565512e+00 -2.28970432e+00 -5.33406854e-01
      2.88142979e-01 3.64365399e-01 -1.24423039e+00 -8.53268132e-02
      8.63027334e-01 4.03656840e-01 1.77357066e+00 -4.27924991e-01
      -1.78933799e+00 -5.75190708e-02 -1.27320015e+00 3.00412983e-01
      7.08973780e-02 6.44749165e-01 1.20677722e+00 4.90308613e-01
      -5.05276501e-01 -1.48759675e+00 1.67481530e+00 -9.61036742e-01
      -8.60251427e-01 -2.13215113e+00 5.23642540e-01 2.39687967e+00
      -2.82533956e+00 -1.00592530e+00 3.84672374e-01 6.44415796e-01
      4.88742501e-01 1.44017470e+00 2.51712888e-01 3.28417346e-02
      1.76144505e+00 -4.08398509e-01 -4.81852770e-01 1.79647699e-01
      2.77435750e-01 -3.15543026e-01 2.11802649e+00 -2.61122465e-01
      -6.83867216e-01 -1.19131708e+00 5.76764762e-01 1.91865206e+00
      -9.92348194e-02 3.55083168e-01 7.90525198e-01 8.59814882e-01
      4.93991494e-01 2.54680634e-01 5.99248290e-01 -2.73721290e+00
      1.32116699e+00 -2.16579154e-01 -3.17780995e+00 8.85720015e-01
      -2.01534629e-01 1.40898418e+00 -1.80365816e-01 2.04287553e+00
      2.01229262e+00 -2.14172292e+00 -4.16066587e-01 -8.07059705e-01
      1.01450109e+00 2.39607424e-01 1.73362911e-01 1.20003092e+00
      -4.49069321e-01 -7.76940733e-02 2.39155102e+00 -3.67761612e-01
      -1.16786331e-01 6.44194424e-01 2.62948364e-01 -4.69313323e-01
      -2.55147040e-01 -5.13737559e-01 9.00203705e-01 -1.58446002e+00
      -9.76159144e-03 9.40267146e-01 4.90145475e-01 -5.76597273e-01
      -1.19514406e-01 -5.66112220e-01 3.52658659e-01 1.11866856e+00
      7.73650765e-01 -7.06956089e-01 3.33935887e-01 2.45964003e+00
      6.47610605e-01 -1.53941095e-01 5.27074695e-01 -1.67767429e+00
      -2.71995477e-02 3.59022647e-01 -4.16754663e-01 -9.66469198e-02
      2.79415488e+00 9.06702280e-01 -1.25588465e+00 1.03339565e+00
      -1.46120417e+00 -6.90298915e-01 1.88537014e+00 -1.87533092e+00
      6.61553562e-01 1.16761100e+00 -1.12705576e+00 9.58443284e-01
      1.47587121e+00 9.31036711e-01 8.33805799e-01 1.54235113e+00
      2.34902525e+00 4.22676057e-01 8.45307171e-01 -7.07425296e-01
      -1.81760752e+00 -1.32648313e+00 -9.03002083e-01 -5.82381070e-01
      -6.33131087e-01 -1.60603225e-01 3.51072103e-01 2.84368932e-01
      3.25004846e-01 7.45369971e-01 -1.06983495e+00 4.80109245e-01
      -1.14569247e+00 -5.83060324e-01 7.13105977e-01 8.17010999e-01
      1.19183518e-01 1.24059224e+00 1.36042452e+00 -2.96345025e-01
      1.05288291e+00 8.37572336e-01 -1.89724267e+00 -1.29504788e+00
      -1.30478311e+00 2.26972491e-01 2.45900020e-01 1.05357659e+00
      -1.15706468e+00 4.53431427e-01 -6.95982635e-01 5.16224802e-01
      4.34952199e-01 1.21483779e+00 9.10328329e-02 5.75384676e-01
      -5.29361427e-01 8.98012638e-01 1.42902780e+00 8.11665714e-01
      -1.40572834e+00 -2.85712481e-01 -3.89903218e-01 1.09853876e+00
      -5.31366348e-01 3.85417789e-01 6.15992963e-01 -1.32486331e+00
      5.54407895e-01 -1.17293584e+00 1.65181887e+00 -1.82624412e+00
      -2.90299058e-01 -2.25754768e-01 3.16774392e+00 -1.48213172e+00
      4.52865839e-01 -1.98672879e+00 -4.73377854e-01 -6.04237355e-02
      1.41436562e-01 7.32190013e-01 1.37844479e+00 -6.35122478e-01
      9.67509806e-01 1.78547800e+00 -7.32535660e-01 -3.60045701e-01
      1.61281455e+00 -6.57253742e-01 6.95487261e-01 5.54392636e-01
      -1.71790731e+00 -3.62191647e-01 -5.37786186e-01 1.26755345e+00
      3.65701139e-01 1.60820889e+00 2.28542542e+00 1.28026378e+00
      -1.97550166e+00 -1.36494768e+00 4.91042674e-01 -8.48852158e-01
      6.65102184e-01 1.36783671e+00 -1.38377213e+00 1.31133366e+00
      6.47698224e-01 1.13704574e+00 6.51449919e-01 1.78589201e+00
      4.77104396e-01 -3.31139490e-02 -1.87015498e+00 1.02346754e+00
      -2.04985476e+00 -1.34040165e+00 -8.44442964e-01 -4.11013477e-02
      -3.84223491e-01 -1.96150649e+00 -8.31753969e-01 -8.60386074e-01
      -2.58407474e+00 -1.61110568e+00 -6.23978376e-01 8.90714347e-01
      7.07042217e-01 2.21679044e+00 9.80210900e-01 5.52545488e-01
      -2.27018118e+00 4.81298417e-01 2.14778066e+00 -1.72248244e+00
      -8.98491740e-01 -4.67217356e-01 -2.52229571e+00 6.61296248e-01
      5.26207805e-01 7.97243863e-02 -3.74562681e-01 -7.40286589e-01
      1.61271378e-01 4.43862332e-03 3.61063838e-01 -7.34744668e-01
      5.44160092e-03 -4.07285959e-01 -9.48749423e-01 1.85722917e-01
      -1.93392634e+00 -7.27491304e-02 2.29233190e-01 1.12849283e+00
      1.01451981e+00 8.70798469e-01 8.76763999e-01 -4.73406374e-01
      2.20759845e+00 2.15636387e-01 9.65537652e-02 1.70846775e-01
      1.03298390e+00 3.24604213e-01 -7.90726840e-01 -8.21915567e-01
      -2.57499397e-01 4.24713522e-01 -5.04529238e-01 3.88375938e-01
      2.02149209e-02 1.14202894e-01 -1.71666443e-01 -2.66051978e-01
      -7.98494935e-01 4.32655334e-01 2.11573735e-01 1.62582725e-01
      -1.66709769e+00 5.56829691e-01 6.92478776e-01 -1.69438469e+00
      1.08947551e+00 -1.45943892e+00 -1.29850292e+00 1.26041782e+00
      -1.05591156e-01 -2.52945757e+00 -9.15444732e-01 -3.60072970e-01
      1.75516188e+00 1.53958708e-01 -1.12698150e+00 -1.42480040e+00
      -7.22016752e-01 -1.07512504e-01 8.68717849e-01 4.40636247e-01
      1.15696287e+00 2.47434163e+00</_></support_vectors>
  <decision_functions>
    <_>
      <sv_count>1</sv_count>
      <rho>-2.6407901252187110e-01</rho>
      <alpha>
        1.</alpha></_></decision_functions></opencv_ml_svm>
</opencv_storage>
