<?xml version="1.0"?>
<opencv_storage>
<opencv_ml_svm>
  <format>3</format>
  <svmType>C_SVC</svmType>
  <kernel>
    <type>LINEAR</type></kernel>
  <C>10.</C>
  <term_criteria><epsilon>1.1920928955078125e-07</epsilon>
    <iterations>1000</iterations></term_criteria>
  <var_count>630</var_count>
  <class_count>2</class_count>
  <class_labels type_id="opencv-matrix">
    <rows>2</rows>
    <cols>1</cols>
    <dt>i</dt>
    <data>
      0 1</data></class_labels>
  <sv_total>1</sv_total>
  <support_vectors>
    <_>
      1.85861923e-02 -9.57413390e-02 -2.47277487e-02 -2.04787016e-01
      -2.09946390e-02 -7.67264545e-01 -7.30178431e-02 5.02014518e-01
      1.08495325e-01 -3.22999246e-02 -7.08384812e-01 3.42620403e-01
      1.08024655e-02 -3.56369326e-03 3.17034692e-01 1.76194161e-01
      -3.99545059e-02 -6.78462209e-03 3.10336471e-01 -1.74439624e-01
      -4.10867006e-01 -3.06482971e-01 -6.54666647e-02 -3.77104133e-02
      4.23063189e-01 -7.20327348e-02 9.20762792e-02 3.82234640e-02
      -1.18216932e-01 2.26042494e-02 -1.75751135e-01 3.45292985e-01
      -1.41056776e-01 -2.22993307e-02 -7.43938461e-02 -1.42455697e-01
      -3.71306807e-01 7.39013016e-01 7.85458684e-02 2.57844776e-02
      1.19767576e-01 4.79628406e-02 -1.71004653e-01 2.58086026e-01
      -5.16755581e-02 1.02964744e-01 -1.34717405e-01 4.93768901e-01
      4.86726426e-02 2.25885697e-02 2.68815339e-01 -1.66186452e-01
      2.30324298e-01 -3.45541924e-01 1.89749934e-02 -6.79927915e-02
      -1.03970297e-01 1.41957000e-01 3.58437002e-02 -2.05051467e-01
      -2.39145577e-01 1.77137390e-01 -1.05655575e-02 4.42182690e-01
      3.91484737e-01 -2.01884769e-02 1.63527235e-01 -2.62701958e-01
      -7.84226805e-02 -9.26039666e-02 6.14086874e-02 -5.68095595e-02
      -1.42040834e-01 7.10910559e-01 9.00513411e-01 -1.31724715e-01
      -4.25010294e-01 1.35163724e-01 -3.27760994e-01 -4.28695619e-01
      1.92431659e-02 -1.73856393e-02 -1.68405488e-01 2.40496904e-01
      1.91862378e-02 2.61265397e-01 2.18183085e-01 -6.09165318e-02
      7.33343000e-03 3.92096788e-02 2.90758103e-01 1.39808923e-01
      2.27524880e-02 -5.21803610e-02 -1.60636708e-01 1.39403464e-02
      -1.61561090e-02 5.39264977e-01 -1.12511821e-01 5.87673159e-03
      -6.62818998e-02 2.09045365e-01 -1.60768293e-02 3.01256806e-01
      4.57013957e-02 7.52113402e-01 6.35200918e-01 8.81717727e-02
      -1.10432059e-01 2.88601577e-01 9.47956383e-01 3.68732452e-01
      -2.97066476e-02 1.36673391e+00 -4.53590006e-02 -1.80899441e-01
      -1.35014609e-01 -1.36660129e-01 1.01336069e-01 8.22601378e-01
      -2.22783983e-01 4.41119283e-01 1.05395746e+00 2.34490894e-02
      7.50940889e-02 4.91007179e-01 4.48854685e-01 -4.60661918e-01
      4.96785715e-02 2.51770876e-02 -6.90268772e-03 -2.87976824e-02
      4.47732538e-01 1.10605121e+00 1.07316744e+00 3.78070414e-01
      -1.03385496e+00 -6.99145377e-01 1.01770115e+00 -4.75289643e-01
      -1.93536758e-01 -5.24787366e-01 1.93371612e-03 4.04854380e-02
      9.52950835e-01 5.01375258e-01 1.99880099e+00 1.58357680e-01
      -6.60941184e-01 -3.35430980e-01 5.84231257e-01 6.46981120e-01
      -1.10334301e+00 -5.55081189e-01 -9.41654265e-01 -6.05895042e-01
      -2.60261502e-02 -6.69982076e-01 -6.96182847e-02 -7.84656629e-02
      9.88422453e-01 1.92647398e+00 -3.20133299e-01 1.22210276e+00
      6.08532548e-01 3.98677051e-01 3.16809386e-01 3.13954502e-01
      4.79902267e-01 1.36648118e+00 6.37461990e-02 7.92217553e-01
      6.01109982e-01 3.38134974e-01 -3.32126409e-01 5.91180325e-01
      1.84977567e+00 9.89543974e-01 4.91007507e-01 -3.38035375e-02
      -7.54985094e-01 6.35818765e-02 4.76530492e-01 9.32958424e-01
      -6.24487996e-01 1.34030700e+00 1.49606955e+00 3.12100559e-01
      -3.01715314e-01 -3.35116118e-01 -4.69354957e-01 2.44671375e-01
      1.21007562e+00 -1.00694585e+00 -1.26885042e-01 -7.63720945e-02
      -4.29084927e-01 5.63343227e-01 3.38082016e-01 -1.24366865e-01
      2.08351627e-01 -5.87277055e-01 6.10335350e-01 -1.20105278e+00
      -1.29596329e+00 -2.71561354e-01 -1.46806872e+00 -1.51187047e-01
      -3.17614824e-01 9.67448056e-02 -7.61878669e-01 2.72999555e-01
      1.26314509e+00 2.39663690e-01 4.55883950e-01 -1.19754560e-01
      3.77689376e-02 9.71786976e-01 1.27846527e+00 -2.14771360e-01
      1.31014478e+00 -2.28709746e-02 -1.61353365e-01 -6.92448616e-01
      9.74098071e-02 8.06979656e-01 9.16891396e-01 5.20136297e-01
      -5.87161481e-01 2.55403459e-01 -2.12750435e-01 8.64029109e-01
      6.76420450e-01 -5.13928711e-01 2.74874687e+00 5.21868944e-01
      1.35687813e-01 -6.77847266e-01 -7.61473417e-01 1.13017595e+00
      -1.58459008e+00 5.45795679e-01 3.06596588e-02 -2.81371295e-01
      -2.97081858e-01 2.96190888e-01 4.50792104e-01 -2.78792381e-01
      -1.31623775e-01 5.04848778e-01 1.88889936e-01 -2.30071023e-01
      -9.57555234e-01 6.38477981e-01 2.29795009e-01 5.10033906e-01
      7.41788030e-01 3.21752220e-01 -4.86751169e-01 1.75662935e+00
      5.92842638e-01 1.01212716e+00 3.41508716e-01 9.37990323e-02
      4.76647407e-01 1.06192935e+00 4.72966790e-01 8.56081486e-01
      -1.38189542e+00 -1.45198488e+00 -1.46347249e+00 -1.07330799e+00
      -8.93853962e-01 -1.04037559e+00 8.18525732e-01 1.62042215e-01
      9.30323184e-01 1.15570903e+00 -1.15465021e+00 -6.34567380e-01
      -4.88249421e-01 1.70166481e+00 -6.25288725e-01 -8.86593521e-01
      1.05431303e-01 2.77096415e+00 1.13969934e+00 5.54704785e-01
      -1.34550655e+00 4.34569091e-01 -3.45587313e-01 -1.86276662e+00
      2.13771129e+00 -5.58521688e-01 -1.50639907e-01 6.61168754e-01
      2.53554791e-01 2.82491773e-01 1.37716591e+00 -7.02005804e-01
      -9.20925200e-01 -1.09034669e+00 -2.01383305e+00 5.56522131e-01
      5.21071255e-01 -5.87746561e-01 2.05557418e+00 3.01574111e-01
      3.71331602e-01 1.68139052e+00 -1.03138208e-01 7.91673586e-02
      1.57571054e+00 2.51460314e-01 -2.35830933e-01 -9.02732849e-01
      -1.47892809e+00 1.54440606e+00 -1.21114707e+00 4.80352610e-01
      -1.68242240e+00 -1.51827502e+00 8.80381882e-01 -1.19145334e+00
      -1.24287355e+00 -5.56130171e-01 -1.09226453e+00 1.74370122e+00
      3.20523302e-03 -2.36507267e-01 -9.17228341e-01 4.28738534e-01
      -1.13931632e+00 7.18105137e-01 3.51865441e-01 9.47891951e-01
      2.85508126e-01 -1.56626892e+00 -6.25614464e-01 -8.02862465e-01
      -2.38298893e+00 1.20006776e+00 1.25681961e+00 1.49568869e-02
      1.56028295e+00 9.47833002e-01 3.32937539e-01 -2.63338629e-02
      -1.68975198e+00 1.10317099e+00 4.11359787e-01 -5.50190508e-01
      1.74102855e+00 -9.95721400e-01 -4.64239031e-01 -5.68947077e-01
      -2.13058662e+00 -1.04350770e+00 1.25283277e+00 1.41581535e+00
      9.27169919e-01 -4.78263736e-01 1.40322709e+00 1.85007346e+00
      2.00379515e+00 5.44943810e-01 -4.45894390e-01 -6.96018338e-02
      5.77348731e-02 1.95122764e-01 -9.61885750e-01 4.09118026e-01
      4.94219065e-01 9.89956379e-01 3.30866289e+00 9.51542974e-01
      -1.40372708e-01 2.99207509e-01 1.55088508e+00 -5.77140093e-01
      6.08775854e-01 -8.66016626e-01 2.24030995e+00 3.14491183e-01
      1.76788020e+00 -5.69191873e-01 1.15322685e+00 3.99814665e-01
      2.96730101e-01 5.51577806e-01 1.22946537e+00 2.46502548e-01
      7.72652030e-01 -4.49420393e-01 1.50888681e+00 6.56617880e-01
      1.28390777e+00 3.86662096e-01 1.01126361e+00 -5.90511918e-01
      -1.91618299e+00 -9.25746024e-01 -1.60580409e+00 7.16495514e-01
      1.21083593e+00 8.40362668e-01 -1.59490037e+00 -8.20985913e-01
      -1.08127916e+00 -1.06775916e+00 -1.22929716e+00 -4.74284559e-01
      4.97037262e-01 7.33211339e-01 -1.24469809e-01 7.02377200e-01
      -5.23768067e-01 -2.01393056e+00 -1.57148254e+00 1.45883530e-01
      1.20044637e+00 -1.81017756e-01 1.01088893e+00 -3.69950026e-01
      -1.23047090e+00 -5.51768839e-01 1.58842647e+00 -2.51395559e+00
      -4.45735097e-01 2.43460998e-01 -7.05734551e-01 2.46263221e-01
      8.03322196e-02 6.00238502e-01 -8.89117420e-02 1.67948592e+00
      1.64959788e+00 2.12250903e-01 -3.28392126e-02 -2.07458997e+00
      -6.86686754e-01 -6.37001395e-02 7.62001753e-01 6.23667598e-01
      -5.63402414e-01 -1.32733572e+00 2.08851433e+00 -5.01373172e-01
      -1.54479957e+00 8.83255959e-01 -2.46586585e+00 -7.40800500e-02
      3.24483186e-01 1.04339850e+00 -8.89042690e-02 -8.64758134e-01
      -5.52427411e-01 1.52259842e-01 -1.45258880e+00 -1.15990758e+00
      6.71712518e-01 -3.06619853e-01 -7.07674384e-01 1.66720986e+00
      2.14756757e-01 -1.19397286e-02 -2.20397258e+00 -3.71709645e-01
      -1.46972254e-01 -7.76166558e-01 -1.09991622e+00 1.46667635e+00
      -9.07012641e-01 -8.38907212e-02 -7.55146861e-01 1.52658474e+00
      9.12240669e-02 1.46309048e-01 2.16426778e+00 -1.63422811e+00
      -1.53558397e+00 -9.42453504e-01 -1.15725528e-02 -7.30947971e-01
      -7.37448096e-01 7.50749230e-01 -8.97140265e-01 -1.28737700e+00
      3.94021794e-02 9.66966450e-01 9.67358828e-01 -8.91690776e-02
      2.65416980e+00 1.69379264e-01 -9.92455125e-01 1.02944553e+00
      1.32137990e+00 1.45349586e+00 -4.77053225e-01 1.93953991e+00
      -1.94597781e+00 2.79025054e+00 1.16731966e+00 -9.67180729e-01
      5.72660625e-01 -2.41482764e-01 7.95274496e-01 1.45802045e+00
      1.73830032e-01 -5.59345722e-01 -6.25102818e-01 -1.75481215e-01
      1.35629594e+00 -1.43059981e+00 2.02984023e+00 -1.03266060e+00
      -5.82181990e-01 -1.79912239e-01 -3.54709685e-01 -2.99074471e-01
      3.02540511e-01 -8.02727461e-01 6.70413733e-01 -1.68785965e+00
      6.62368178e-01 -1.80195332e+00 1.10356472e-01 -1.34069431e+00
      1.06323503e-01 5.75613439e-01 -5.42227507e-01 -1.78387482e-02
      1.55965161e+00 -1.38242459e+00 1.19907856e+00 -8.45296085e-01
      -9.68794525e-01 -3.85742515e-01 -3.47437710e-01 -9.14428830e-01
      7.17016831e-02 8.09879243e-01 7.78693020e-01 -2.15137199e-01
      -5.09786427e-01 -3.71059120e-01 1.76144287e-01 -4.24878329e-01
      3.67766142e-01 -2.45114610e-01 1.23631716e+00 -5.18128872e-01
      -5.21246433e-01 2.79232359e+00 -1.43612003e+00 -3.12799716e+00
      -4.44217920e-01 -9.66213584e-01 7.55742371e-01 -1.18403113e+00
      2.60200709e-01 2.29943132e+00 -3.18797916e-01 9.25816834e-01
      1.12653279e+00 -3.81100066e-02 4.82761085e-01 1.53691158e-01
      1.24925926e-01 3.50581110e-01 5.05507290e-01 6.33914918e-02
      -6.42024679e-03 -9.24869478e-02 1.02918975e-01 1.82248044e+00
      -1.06805360e+00 2.61035293e-01 -1.71907687e+00 -2.04890251e-01
      -4.49172817e-02 -5.40616453e-01 -7.40781248e-01 -8.12615216e-01
      -9.38169897e-01 -2.29258835e-01 -1.24516726e+00 5.98805726e-01
      1.08703637e+00 1.59831569e-01 -5.18270075e-01 -5.30218363e-01
      -6.37843966e-01 4.24055189e-01 2.23201418e+00 -7.16752052e-01
      -8.21619332e-01 -7.93621063e-01 8.05229008e-01 -1.87228958e-04
      9.82350826e-01 7.01132238e-01 -3.28882217e-01 1.45170808e-01
      -1.32600594e+00 -1.34175345e-01 -9.06126440e-01 -1.00744046e-01
      6.27933860e-01 1.55592740e+00 -2.02978492e-01 1.24545300e+00
      1.31784225e+00 1.74587226e+00 3.11527491e-01 -1.06441987e+00
      2.68524909e+00 -3.28811496e-01 -5.99096358e-01 -1.63456082e-01
      -6.48841918e-01 -1.42090142e-01 -9.82320830e-02 1.03857529e+00
      7.97612906e-01 -3.91665772e-02 -2.36897683e+00 5.24756722e-02
      -1.19238901e+00 -6.82914676e-03</_></support_vectors>
  <decision_functions>
    <_>
      <sv_count>1</sv_count>
      <rho>8.4044958578072912e-02</rho>
      <alpha>
        1.</alpha></_></decision_functions></opencv_ml_svm>
</opencv_storage>
