<?xml version="1.0"?>
<opencv_storage>
<opencv_ml_svm>
  <format>3</format>
  <svmType>C_SVC</svmType>
  <kernel>
    <type>LINEAR</type></kernel>
  <C>10.</C>
  <term_criteria><epsilon>1.1920928955078125e-07</epsilon>
    <iterations>1000</iterations></term_criteria>
  <var_count>630</var_count>
  <class_count>2</class_count>
  <class_labels type_id="opencv-matrix">
    <rows>2</rows>
    <cols>1</cols>
    <dt>i</dt>
    <data>
      0 1</data></class_labels>
  <sv_total>1</sv_total>
  <support_vectors>
    <_>
      -2.02178597e-01 6.47921026e-01 -3.45695406e-01 -1.61061734e-01
      -1.34224996e-01 -2.84016162e-01 1.18085735e-01 -4.70489621e-01
      -2.33107626e-01 -3.02780509e-01 -5.50270557e-01 1.85963325e-02
      -3.23489755e-02 -1.24465987e-01 -3.07537347e-01 -2.96334922e-01
      9.02354270e-02 -5.92055023e-01 6.79257333e-01 9.03479829e-02
      -1.55006707e-01 6.19228370e-02 -1.02067173e-01 7.41283745e-02
      -4.28840101e-01 1.11667275e-01 1.41996711e-01 9.61168036e-02
      -8.90954658e-02 1.90659333e-02 -9.54561904e-02 5.97496033e-01
      -5.77305742e-02 6.59063384e-02 -7.49407783e-02 -1.56959668e-01
      1.39570430e-01 -6.40372932e-01 -2.93954641e-01 1.41354516e-01
      5.66217722e-03 2.06223980e-01 -2.99669597e-02 3.64333242e-01
      2.05193833e-01 -7.01890513e-02 4.13455456e-01 -8.22187066e-01
      4.29325625e-02 -3.63720089e-01 1.90393060e-01 -4.60537881e-01
      -2.60222882e-01 -7.32883215e-01 -2.98939824e-01 -3.63093108e-01
      1.02940522e-01 2.17776820e-01 -1.26348138e-01 7.73624182e-02
      1.68803081e-01 8.75156283e-01 1.73464119e-01 -5.32012701e-01
      1.35468733e+00 1.25044435e-01 -4.42225099e-01 1.09571926e-01
      3.01396959e-02 -1.02396381e+00 1.42580077e-01 -4.22036126e-02
      -3.06682028e-02 7.95194924e-01 9.21083987e-01 -1.70168784e-02
      1.88076973e-01 7.55318463e-01 1.79433554e-01 3.57573658e-01
      -6.02905303e-02 -1.57938242e-01 -1.75259467e-02 2.56219599e-02
      -4.04298007e-01 -1.28224373e-01 1.66077316e-01 8.92340485e-03
      2.86092479e-02 -1.36942714e-01 -2.05136817e-02 2.60296434e-01
      1.95834950e-01 6.21365532e-02 6.20251186e-02 -1.78110063e-01
      -2.16856778e-01 -6.57604456e-01 -7.68529952e-01 4.15801965e-02
      -1.30938133e-02 -9.14578661e-02 -1.21639967e-01 -3.57495189e-01
      1.72202080e-01 -7.51170933e-01 5.69792986e-01 -1.47825092e-01
      -8.61393631e-01 -5.54426908e-01 -7.57893860e-01 7.28922561e-02
      4.71824557e-01 7.76845813e-01 -5.82901180e-01 -3.86543311e-02
      -8.86639804e-02 -2.23153219e-01 -1.74771070e-01 -1.23825538e+00
      -9.00406912e-02 -1.40319788e+00 2.28083715e-01 -7.60992110e-01
      -1.88630164e-01 1.37191817e-01 4.95126009e-01 9.90886331e-01
      -7.69317985e-01 -8.61373916e-02 1.73788607e+00 -1.40873551e-01
      -6.88285351e-01 -9.21106815e-01 9.44889411e-02 3.60318422e-01
      1.44459474e+00 -7.65997112e-01 -3.68334413e-01 2.15844226e+00
      1.79064974e-01 -1.06425619e+00 9.98898447e-01 -9.14492786e-01
      1.34062719e+00 8.69986594e-01 -1.12389302e+00 4.05924469e-01
      -5.75424016e-01 -5.35742529e-02 -8.28442335e-01 -9.50227022e-01
      1.30344939e+00 1.19179145e-01 3.90451819e-01 -4.21698481e-01
      -1.23679531e+00 -4.31046695e-01 -1.26937568e+00 -1.16943133e+00
      -1.03032482e+00 -8.96686018e-01 3.02387786e+00 4.80366886e-01
      -1.21247697e+00 -7.16622472e-02 -8.03166270e-01 1.12141475e-01
      3.32913578e-01 6.55260563e-01 2.07127833e+00 -2.08714113e-01
      1.04418993e+00 2.33230472e+00 3.70089173e-01 -5.40783703e-01
      -1.30002272e+00 4.12663847e-01 8.99360299e-01 1.21902056e-01
      -1.01415403e-01 -1.47300318e-01 -2.96295136e-01 -2.41839075e+00
      -7.87681818e-01 4.60514307e-01 3.00801158e-01 -3.20481777e-01
      4.89211768e-01 1.08581972e+00 6.34175658e-01 1.33666337e+00
      -6.64840460e-01 2.28964239e-01 2.41398647e-01 2.58370399e-01
      -9.27048385e-01 -1.70686531e+00 1.27462760e-01 -4.20962274e-01
      -8.99102151e-01 -1.13499835e-01 2.21203208e+00 1.46160984e+00
      1.85072207e+00 8.19238544e-01 -5.97790718e-01 -2.64985740e-01
      -4.85230356e-01 2.81019121e-01 1.38203442e+00 4.06172544e-01
      1.33503687e+00 6.76600933e-01 1.03828359e+00 7.06556952e-03
      7.28099108e-01 7.90443182e-01 -3.37446064e-01 5.48085928e-01
      3.79537083e-02 -7.40622878e-01 2.49302443e-02 -6.15386724e-01
      -7.21281409e-01 -1.74933708e+00 -2.02501655e+00 -3.02794957e+00
      1.15077853e+00 1.54753292e+00 1.96216077e-01 -1.05942488e+00
      3.69278878e-01 -3.46795470e-01 -8.35233867e-01 4.21490550e-01
      2.44653359e-01 -8.30733836e-01 1.11596656e+00 -3.18443227e+00
      3.87042724e-02 -4.83359806e-02 9.84519720e-01 4.55567092e-01
      -6.02619499e-02 -2.91061759e-01 -3.46617401e-01 7.02636421e-01
      -1.46461165e+00 8.67285803e-02 6.70639426e-02 -3.53018194e-01
      4.55649018e-01 9.44685757e-01 4.61495668e-01 -1.39815056e+00
      2.12713107e-01 1.02927935e+00 -1.24342990e+00 -1.17035232e-01
      1.20858896e+00 -6.41525686e-01 6.83628768e-02 9.96698499e-01
      1.52983814e-01 5.20752490e-01 -5.09742787e-03 -6.80114746e-01
      -1.39799312e-01 2.42600188e-01 6.76988304e-01 5.36461286e-02
      2.41102740e-01 -4.46625412e-01 -6.47951603e-01 3.42685968e-01
      -9.58788216e-01 -3.02148703e-02 -4.20841426e-01 2.32246614e+00
      1.71798337e+00 -2.11284161e+00 -1.36051536e+00 4.96665537e-01
      -2.26087794e-01 8.54864061e-01 -1.37198472e+00 2.85244882e-01
      3.85140300e-01 6.46193102e-02 6.83868349e-01 -9.85879898e-01
      1.33352196e+00 -5.53444028e-01 -3.10332403e-02 6.30963147e-02
      -4.69083518e-01 4.82404739e-01 1.15891743e+00 2.65808582e-01
      1.60628363e-01 -1.32206881e+00 -5.19650817e-01 8.14799905e-01
      -1.42692417e-01 1.32883251e+00 -9.30701852e-01 -2.39955127e-01
      2.06524208e-02 -1.24769342e+00 -2.43927062e-01 2.11340809e+00
      -1.79882944e+00 6.13179803e-01 9.89414990e-01 6.01952314e-01
      -1.27464402e+00 3.23748022e-01 7.61780798e-01 2.89036036e+00
      -4.80042994e-01 -3.17470580e-01 8.03404272e-01 1.21498466e+00
      6.59366027e-02 -1.72564793e+00 -3.13974351e-01 -5.87330401e-01
      -6.35893226e-01 2.70368308e-01 1.77069759e+00 2.82854766e-01
      1.05105472e+00 -2.01331496e-01 -8.50943685e-01 -9.99185681e-01
      9.87231731e-01 1.89180791e-01 6.29381835e-02 -1.69068336e-01
      -5.49809635e-01 -1.05902767e+00 3.20365652e-02 -2.13113856e+00
      1.24827385e+00 -7.84162343e-01 -2.52184176e+00 -5.21297872e-01
      -8.17481756e-01 4.37709183e-01 2.21048385e-01 -9.16412532e-01
      -1.26834404e+00 1.59855127e+00 7.15638816e-01 -4.25870180e-01
      -7.02495635e-01 4.97454196e-01 -4.36224222e-01 -3.02186221e-01
      -1.34214619e-02 -3.91536951e-01 -1.49201584e+00 -9.88741219e-01
      -1.15849689e-01 -5.65043986e-01 -1.56747460e-01 2.72165847e+00
      5.35272300e-01 1.14881194e+00 3.49892497e-01 4.31126982e-01
      6.44110799e-01 -7.94334829e-01 -2.43189025e+00 -8.42315912e-01
      -1.03595221e+00 -3.59019600e-02 -4.81469721e-01 -5.57262421e-01
      -1.53057349e+00 -6.26375020e-01 3.76567811e-01 1.01078022e+00
      -1.90013826e-01 -1.24936175e+00 -2.10023746e-02 2.18163237e-01
      2.01718897e-01 1.36464798e+00 -1.51639676e+00 6.49406374e-01
      3.26751590e-01 1.42081603e-01 1.94608915e+00 6.01439238e-01
      4.60631877e-01 -6.70334041e-01 1.22961259e+00 1.61685169e+00
      9.36340094e-01 -5.88544965e-01 -4.57683206e-01 5.74625611e-01
      -4.93777126e-01 1.00082672e+00 4.40513343e-02 1.01360166e+00
      1.05675530e+00 8.91707659e-01 6.38943791e-01 -1.88104081e+00
      2.85254717e-01 1.14763744e-01 4.92903650e-01 -7.57710040e-02
      2.55050063e-01 9.25381184e-01 6.67011380e-01 -5.66864491e-01
      4.91144866e-01 2.19802305e-01 -1.30607748e+00 -1.60676324e+00
      3.49582613e-01 1.06249690e+00 -1.92988348e+00 -1.30096599e-01
      5.80850840e-01 -1.30547333e+00 1.38364267e+00 1.14085841e+00
      6.91258371e-01 5.82057953e-01 -4.25964862e-01 1.43859446e+00
      1.90941441e+00 -1.14872586e-02 -1.94536519e+00 5.43130398e-01
      2.54018933e-01 -9.39999819e-01 4.90605831e-01 -1.12189341e+00
      -1.43147826e+00 4.38030541e-01 5.80344856e-01 -1.32670060e-01
      -9.14348066e-01 -1.26046705e+00 6.22071505e-01 -1.88729271e-01
      2.47295827e-01 -6.41819835e-01 8.64919960e-01 -3.04446697e-01
      1.07324338e+00 3.39477390e-01 2.15687484e-01 1.53524542e+00
      -6.93754077e-01 1.71727097e+00 2.45618492e-01 6.65797532e-01
      -1.02899849e+00 -6.62586451e-01 -1.75561145e-01 -6.20310783e-01
      -7.69659281e-01 2.01389933e+00 -2.36265346e-01 3.91948134e-01
      -1.78376043e+00 6.99904382e-01 -1.43606460e+00 2.45823935e-01
      -7.23053694e-01 -4.39801157e-01 1.78181243e+00 -3.45141679e-01
      -1.99590653e-01 1.42841184e+00 -3.81728083e-01 1.47531343e+00
      1.57162204e-01 -1.65864515e+00 3.33166599e-01 8.12721968e-01
      2.35646039e-01 1.34464979e-01 -2.45256066e+00 -1.45797086e+00
      -4.48653959e-02 1.03482342e+00 1.40774548e+00 8.29508066e-01
      -4.52692837e-01 -4.66000587e-01 -2.58703768e-01 -1.05534720e+00
      5.44721305e-01 2.86512583e-01 4.33590859e-01 5.58970809e-01
      7.40945995e-01 -1.64161742e-01 7.95275047e-02 -4.14952487e-01
      1.58507264e+00 1.53081745e-01 -3.23505312e-01 -4.62139189e-01
      -3.90415043e-01 -3.47446561e-01 1.67050350e+00 2.94979602e-01
      -1.00257123e+00 1.23449810e-01 1.63931578e-01 -2.69328475e-01
      2.09352732e+00 -1.86482102e-01 1.29160702e-01 4.25681353e-01
      -5.05581498e-01 -1.34704351e+00 2.44738996e-01 9.87817287e-01
      3.06132764e-01 -4.94436413e-01 2.15259418e-01 1.70703423e+00
      -4.23821539e-01 2.54632533e-01 1.21885788e+00 4.79485691e-02
      -9.16822031e-02 -1.65132165e+00 4.25360709e-01 -3.45522195e-01
      -9.15592164e-02 1.72362804e+00 -2.30394900e-01 5.58777153e-01
      4.69900556e-02 -4.89638090e-01 7.55413353e-01 -9.57361877e-01
      -1.60166883e+00 -6.19508684e-01 -3.75275254e-01 4.45697345e-02
      6.72527015e-01 1.48074999e-01 2.23725438e+00 -5.35080135e-01
      1.73303008e+00 1.14449728e+00 6.51050687e-01 8.37816238e-01
      -3.25280279e-01 -1.04454637e+00 -4.00175714e+00 1.42875409e+00
      2.36999944e-01 -8.25325608e-01 -2.31311455e-01 2.52338648e-01
      7.59272754e-01 -1.66552365e+00 -4.65725929e-01 1.52114844e+00
      9.58949149e-01 -5.31372070e-01 -4.39977676e-01 -1.15702175e-01
      -8.31270218e-02 -1.52410418e-01 3.26181680e-01 -5.77530503e-01
      -1.48438251e+00 -1.35734975e-01 2.86063641e-01 -5.83144836e-02
      8.41622889e-01 -8.34157348e-01 -4.46865976e-01 9.37352061e-01
      1.83913246e-01 -7.98643380e-02 3.62393588e-01 4.95895505e-01
      2.31595457e-01 -1.48650631e-01 9.03926015e-01 -7.50171095e-02
      -2.19354063e-01 -8.20066556e-02 -1.53304294e-01 -4.15446043e-01
      1.70195788e-01 5.26887655e-01 -7.76929975e-01 5.39208293e-01
      2.67087184e-02 2.47506291e-01 7.97910094e-01 8.22524190e-01
      8.61134753e-02 2.42759883e-01 1.38283122e+00 -8.15941393e-02
      -2.02805495e+00 -7.20586658e-01 1.16523556e-01 -2.78512865e-01
      -2.35219464e-01 -1.87569037e-01 6.58164918e-01 -6.54029965e-01
      -4.41764146e-01 6.09365284e-01 -3.43933068e-02 3.22560835e+00
      6.84940398e-01 6.92516625e-01 -9.47921216e-01 -1.87461808e-01
      -4.21752989e-01 1.49056032e-01</_></support_vectors>
  <decision_functions>
    <_>
      <sv_count>1</sv_count>
      <rho>-3.8959982859549804e-02</rho>
      <alpha>
        1.</alpha></_></decision_functions></opencv_ml_svm>
</opencv_storage>
