<?xml version="1.0"?>
<opencv_storage>
<opencv_ml_svm>
  <format>3</format>
  <svmType>C_SVC</svmType>
  <kernel>
    <type>LINEAR</type></kernel>
  <C>10.</C>
  <term_criteria><epsilon>1.1920928955078125e-07</epsilon>
    <iterations>1000</iterations></term_criteria>
  <var_count>630</var_count>
  <class_count>2</class_count>
  <class_labels type_id="opencv-matrix">
    <rows>2</rows>
    <cols>1</cols>
    <dt>i</dt>
    <data>
      0 1</data></class_labels>
  <sv_total>1</sv_total>
  <support_vectors>
    <_>
      3.68469842e-02 6.21494092e-02 7.99668580e-02 -2.42986560e-01
      -1.10109961e-02 3.76759589e-01 -1.53286913e-02 -9.25348461e-01
      1.75418571e-01 -1.64746687e-01 -1.38635442e-01 -5.38836159e-02
      1.43012796e-02 -1.45434320e-01 1.49757236e-01 9.20897070e-03
      9.33318026e-03 2.33844355e-01 1.02510385e-01 2.60286499e-02
      9.01303962e-02 3.63967456e-02 -5.60082169e-03 5.33282943e-02
      4.31698747e-02 3.40818837e-02 2.37771198e-02 9.51066986e-03
      1.07414098e-02 4.11911756e-02 8.88579618e-03 8.44538808e-02
      1.28305294e-02 1.77225452e-02 6.86637452e-03 1.34082278e-02
      1.13690980e-01 -2.84457654e-01 -5.47188371e-02 -1.38102565e-03
      8.36550072e-02 1.71807893e-02 2.84177763e-03 5.89789525e-02
      2.89166849e-02 1.10260397e-01 9.16662738e-02 7.90010169e-02
      -8.48998427e-02 -7.13676810e-02 -2.56719235e-02 8.78282730e-03
      9.80080515e-02 2.13805676e-01 6.24914803e-02 5.92751913e-02
      -7.94991851e-02 8.05627182e-03 -6.95028007e-02 -1.47003075e-03
      -2.61780452e-02 1.81961611e-01 -1.70245990e-02 2.61207342e-01
      3.25261503e-01 -3.96889597e-02 2.35573053e-01 -2.15941370e-01
      -8.22153762e-02 6.20876113e-03 3.35848927e-02 -6.71591237e-02
      -4.22472833e-03 1.97150230e-01 3.08661193e-01 4.65118811e-02
      5.60652353e-02 2.54366994e-01 2.05969512e-02 5.69596626e-02
      -9.40444320e-03 -6.48205131e-02 3.02991401e-02 -6.72732517e-02
      -5.63268661e-02 9.39668119e-02 1.81847792e-02 -3.20855640e-02
      -3.45418267e-02 1.22746356e-01 -4.72965054e-02 -5.87773025e-02
      2.31350847e-02 1.97647717e-02 -7.55881369e-02 -1.03525348e-01
      4.55989987e-02 1.70894861e-02 1.26875579e-01 -4.56135953e-04
      -7.83739686e-02 1.02051891e-01 2.13304758e-02 5.11213392e-02
      2.68513225e-02 -3.10857534e-01 3.40128779e-01 1.76489815e-01
      7.41624236e-02 2.80919764e-02 9.80556786e-01 1.43836308e-02
      -6.19751848e-02 -7.98501149e-02 3.54944170e-01 1.01607949e-01
      7.19150007e-02 1.54173240e-01 -2.01987829e-02 1.64464697e-01
      1.25244468e-01 -3.34976971e-01 -3.66716146e-01 -4.11850959e-01
      -3.46859545e-01 1.42826214e-02 2.61096824e-02 -1.63130224e-01
      2.07097203e-01 1.08632155e-01 -6.36137486e-01 2.32685059e-01
      4.16529566e-01 1.88565567e-01 2.99207922e-02 -1.98580831e-01
      4.57073897e-01 -1.53158633e-02 3.10650349e-01 -3.19991261e-01
      -6.71874881e-01 -4.06305492e-01 1.30086001e-02 2.53025383e-01
      1.05469801e-01 1.09320842e-01 -8.81644547e-01 -1.12785161e-01
      3.73152554e-01 1.87249929e-02 5.72488248e-01 5.54036200e-01
      -5.93273677e-02 -5.16676426e-01 1.70194894e-01 -2.41286770e-01
      8.61805141e-01 2.39941269e-01 6.11060083e-01 5.95315933e-01
      -3.27805609e-01 2.36807823e-01 -2.25383192e-01 2.10130826e-01
      1.82822630e-01 -2.64015168e-01 1.65798977e-01 -6.86938107e-01
      -9.04037058e-01 2.71593984e-02 -1.27798021e-01 -5.63399851e-01
      -5.91415048e-01 -7.86278188e-01 1.00640044e-01 3.82814944e-01
      2.56237268e-01 -2.80868560e-01 -7.65237510e-01 1.94765642e-01
      4.40474451e-01 1.50817245e-01 -1.63098395e-01 -9.51030925e-02
      -5.32886446e-01 1.99368536e-01 8.58500078e-02 -3.25247735e-01
      -9.04400349e-01 -1.31190026e+00 -2.18046263e-01 -2.43338212e-01
      -2.76728302e-01 -1.26311675e-01 -1.32009700e-01 -3.35313060e-04
      1.61102802e-01 -7.76705742e-01 2.15208024e-01 1.00481868e-01
      -2.94744611e-01 -5.13502836e-01 -7.85083324e-02 -7.74064720e-01
      -2.43222162e-01 8.02235678e-02 -1.80541262e-01 -5.41580081e-01
      -5.05282521e-01 -8.88763547e-01 -7.32839346e-01 -7.39745051e-02
      2.04751998e-01 2.61304021e-01 3.69445175e-01 -2.88655847e-01
      -9.47019085e-02 -3.33247751e-01 -1.27961397e-01 2.38409817e-01
      -7.20639005e-02 8.31344537e-03 -1.76648702e-02 2.23600954e-01
      2.05557838e-01 -1.19267583e-01 1.42586708e-01 4.43160608e-02
      -2.00490162e-01 7.49493465e-02 -3.87899019e-02 -7.70424381e-02
      -2.43247643e-01 2.33142003e-01 5.16179442e-01 -2.26823688e-01
      -3.78806084e-01 -6.50124133e-01 3.82574975e-01 -9.23805535e-02
      2.13188857e-01 1.81644157e-01 5.96485257e-01 2.69756466e-01
      2.37632185e-01 5.56521654e-01 -7.70171359e-02 -3.67729403e-02
      2.76037324e-02 7.86395818e-02 6.76831961e-01 7.88981795e-01
      -1.23795301e-01 5.24355590e-01 -3.12273353e-02 4.89609927e-01
      -2.55103856e-01 -1.41904995e-01 -1.16244662e+00 1.55223027e-01
      1.60856307e-01 3.29401791e-01 1.13033228e-01 -2.28002995e-01
      1.30031154e-01 2.44942039e-01 6.43438771e-02 4.82569337e-02
      -3.66125762e-01 6.14583455e-02 1.79579869e-01 3.03375304e-01
      3.41825915e-04 7.42009133e-02 4.09950644e-01 6.88773468e-02
      -6.25356078e-01 2.37414055e-02 -2.00185806e-01 2.47635305e-01
      7.89397776e-01 4.46101353e-02 -2.45593622e-01 -2.49719486e-01
      2.82866091e-01 2.13683352e-01 2.79184431e-01 -6.49096549e-01
      -7.20975161e-01 1.42360041e-02 -2.97500240e-03 -7.47487918e-02
      7.15224594e-02 3.31610739e-01 6.39901042e-01 5.82379222e-01
      -1.23972726e+00 -3.58209133e-01 -4.52325344e-01 8.61513987e-02
      -1.67775974e-01 -9.41764638e-02 5.88565648e-01 -1.82134557e+00
      -6.47106111e-01 -2.02005640e-01 2.88100451e-01 2.19530806e-01
      -2.31729597e-01 -1.13576343e-02 8.14168062e-03 -3.33346874e-01
      1.80902898e-01 -6.12810552e-01 -6.16327465e-01 5.68550788e-02
      3.06036174e-01 6.92167342e-01 -5.22860028e-02 4.10113484e-01
      1.00786483e+00 -6.44386351e-01 3.49307001e-01 1.24832165e+00
      -2.18390509e-01 -4.05075699e-01 3.71561825e-01 -1.01450229e+00
      -6.80577397e-01 2.62066603e-01 -2.80108571e-01 6.41088903e-01
      4.69406724e-01 1.33381233e-01 2.86320776e-01 4.49859083e-01
      -4.74445581e-01 3.06941241e-01 5.27077436e-01 -6.63533807e-02
      1.86205640e-01 -1.17644119e+00 -1.15696704e+00 4.16611969e-01
      7.77514100e-01 -7.37854958e-01 8.79892111e-01 -1.03265956e-01
      -1.72431231e-01 7.85607338e-01 1.28238751e-02 -6.69986457e-02
      4.80552733e-01 -1.08069694e+00 5.76342285e-01 -1.83007587e-02
      8.45177844e-02 9.86664668e-02 4.25954670e-01 -8.07534754e-02
      -1.10680795e+00 -4.50106025e-01 -7.09870517e-01 7.53015935e-01
      7.10462332e-02 6.91256225e-01 -6.71003819e-01 4.72605109e-01
      -3.46372455e-01 -3.21464062e-01 -1.25041068e-01 -4.47250694e-01
      -7.13255346e-01 6.25181198e-02 -1.88755774e+00 -1.66638583e-01
      1.37939143e+00 8.31727505e-01 1.10626511e-01 3.35355043e-01
      -1.03916302e-01 3.24342191e-01 -6.16717637e-01 1.35506600e-01
      -6.16934061e-01 7.31521189e-01 -2.15090401e-02 5.09265184e-01
      9.08177614e-01 -2.28815287e-01 -4.76561099e-01 -6.54999971e-01
      1.19399107e+00 4.65575486e-01 1.16598368e-01 -8.01915407e-01
      -1.73098993e+00 5.61123133e-01 3.47689748e-01 3.22991721e-02
      3.26141149e-01 1.66740477e-01 4.85869944e-01 -4.53647934e-02
      -3.07451278e-01 -3.23378623e-01 7.49205768e-01 2.57509619e-01
      -1.59312761e+00 -8.78972948e-01 -1.18729544e+00 2.92271644e-01
      9.40960884e-01 5.09536155e-02 -1.62754044e-01 4.01313692e-01
      5.05062521e-01 -6.06085777e-01 -5.10607213e-02 -2.58834541e-01
      6.64600551e-01 9.76491690e-01 5.32003522e-01 9.37150478e-01
      -3.16882551e-01 -3.06278467e-01 1.50267422e-01 -1.09868038e+00
      -8.84042680e-02 2.06057951e-02 -6.52381539e-01 -5.15789166e-02
      4.75610495e-01 -5.60268044e-01 3.37921023e-01 -5.13507873e-02
      -4.48902905e-01 -3.53637934e-01 1.37729824e-01 -6.42760754e-01
      -4.08291727e-01 1.48339355e+00 -5.09803414e-01 -1.85548469e-01
      5.21595478e-01 3.41089845e-01 -9.54659462e-01 -1.32310724e+00
      1.59199321e+00 3.36175621e-01 8.69861126e-01 2.40199268e-01
      -5.19268751e-01 -1.53192675e+00 1.94493979e-02 6.63342237e-01
      -8.56456757e-01 1.82968378e-01 1.96234897e-01 4.03400689e-01
      -7.17576563e-01 -1.64804801e-01 -1.58808160e+00 -1.20572710e+00
      -4.52145666e-01 3.77000600e-01 1.83278635e-01 -3.26706499e-01
      6.91897571e-01 2.08125055e-01 2.05825076e-01 3.85588884e-01
      3.45994920e-01 1.68043464e-01 2.04697132e-01 2.49797460e-02
      1.78941756e-01 -1.92528760e+00 6.72549903e-01 4.28300679e-01
      -2.71219403e-01 1.19597936e+00 -8.60350728e-02 7.27585495e-01
      -7.17020035e-01 1.76257879e-01 -1.06626546e+00 -3.30795705e-01
      4.07997638e-01 7.21416473e-01 4.20237154e-01 -4.37159985e-01
      -1.24504972e+00 -8.46644402e-01 1.70020863e-01 -5.20769179e-01
      -1.19493079e+00 4.86201584e-01 -6.64861560e-01 1.10412441e-01
      9.61690307e-01 -8.19256544e-01 -6.62292659e-01 2.09881186e+00
      9.24720019e-02 3.33980501e-01 1.02221453e+00 -3.71330082e-01
      5.96711218e-01 2.97065735e-01 1.03905730e-01 3.02152365e-01
      1.23054862e+00 -5.72181404e-01 1.48650002e+00 -2.05943380e-02
      -8.46399665e-01 -1.09819400e+00 2.28334263e-01 -5.40643752e-01
      1.39222071e-01 4.86482441e-01 -8.07698727e-01 -1.29306543e+00
      2.86103785e-01 3.56317282e-01 -1.34423888e+00 -3.06025356e-01
      4.92230892e-01 4.79581654e-01 7.19406456e-03 1.64165601e-01
      8.31429288e-02 5.44652522e-01 -8.54554415e-01 3.33644658e-01
      1.60578534e-01 7.26616979e-01 -1.50306284e+00 1.02073395e+00
      -1.13718557e+00 9.76295173e-01 3.77198756e-01 -5.14889956e-01
      -4.31673944e-01 8.13994765e-01 -5.61142862e-01 4.74728942e-01
      -4.39450622e-01 6.72788858e-01 1.21409464e+00 1.22458482e+00
      2.73571372e-01 -1.55127615e-01 8.69800568e-01 1.85999334e-01
      1.42329729e+00 -1.00674343e+00 -3.52102458e-01 5.56264162e-01
      2.94201970e-01 -2.80335516e-01 1.37556866e-01 -2.19746411e-01
      3.92817020e-01 7.60626018e-01 -1.56770453e-01 6.40152693e-01
      9.31118727e-01 -8.73674631e-01 8.23969468e-02 -5.63457787e-01
      -1.33915275e-01 -9.72770035e-01 -1.56428838e+00 2.56684124e-01
      -5.73429942e-01 1.00888741e+00 4.87301946e-01 -2.28907675e-01
      -6.40756249e-01 1.07793760e+00 7.74850175e-02 2.68381596e-01
      -6.97885975e-02 5.52021742e-01 2.95212984e-01 -3.15144300e-01
      -1.57992291e+00 -1.51024252e-01 -3.45626742e-01 5.43563128e-01
      1.08548152e+00 6.06159508e-01 -1.49797440e-01 -3.34038973e-01
      4.78291184e-01 6.19544446e-01 -8.32286716e-01 1.23530626e+00
      1.41371477e+00 4.09221500e-02 -5.15053749e-01 3.72233354e-02
      4.24585193e-01 4.21413094e-01 5.86745739e-01 -7.01828659e-01
      -6.64037347e-01 6.32697940e-01 -7.18418539e-01 7.10934103e-01
      1.41480565e+00 4.17147249e-01 -1.85969114e-01 1.45910132e+00
      -7.82207251e-01 3.19225013e-01 1.70953080e-01 -7.51200378e-01
      -5.06895185e-01 -1.62963942e-01 -3.06089669e-01 8.21075141e-01
      1.10365498e+00 -1.02702773e+00 -6.91989660e-02 -3.33096892e-01
      1.22985750e-01 4.38642889e-01</_></support_vectors>
  <decision_functions>
    <_>
      <sv_count>1</sv_count>
      <rho>-2.8136263581709234e-02</rho>
      <alpha>
        1.</alpha></_></decision_functions></opencv_ml_svm>
</opencv_storage>
