<?xml version="1.0"?>
<opencv_storage>
<opencv_ml_svm>
  <format>3</format>
  <svmType>C_SVC</svmType>
  <kernel>
    <type>LINEAR</type></kernel>
  <C>10.</C>
  <term_criteria><epsilon>1.1920928955078125e-07</epsilon>
    <iterations>1000</iterations></term_criteria>
  <var_count>630</var_count>
  <class_count>2</class_count>
  <class_labels type_id="opencv-matrix">
    <rows>2</rows>
    <cols>1</cols>
    <dt>i</dt>
    <data>
      0 1</data></class_labels>
  <sv_total>1</sv_total>
  <support_vectors>
    <_>
      -2.04885811e-01 3.88695337e-02 -3.32847573e-02 3.92266273e-01
      1.69029176e-01 5.74377537e-01 1.09141901e-01 6.21946156e-01
      1.67031184e-01 1.77564956e-02 5.31828225e-01 -1.26878684e-02
      6.85122935e-03 1.62986621e-01 -5.42580068e-01 1.67445205e-02
      3.49925719e-02 -1.87768750e-02 -1.86003461e-01 2.32946258e-02
      2.81395912e-01 2.95637012e-01 2.13846490e-01 1.52615756e-01
      1.97042614e-01 1.10742234e-01 -1.44705877e-01 -3.18022780e-02
      1.18953548e-01 -4.14640419e-02 5.17039783e-02 -2.38500580e-01
      1.35629013e-01 1.93583723e-02 1.20504990e-01 2.09346414e-01
      -9.65385064e-02 1.36076242e-01 -5.37213963e-03 -9.17920321e-02
      -2.29307219e-01 -3.56568217e-01 3.47173572e-01 -6.32584989e-02
      1.47373632e-01 -2.48391703e-02 1.16908863e-01 2.43278265e-01
      2.36440644e-01 3.61193925e-01 8.08390453e-02 2.72665888e-01
      3.85214508e-01 1.49959013e-01 -2.33837873e-01 -1.71775371e-01
      3.66061091e-01 -1.33755103e-01 -4.12664324e-01 2.44459331e-01
      5.08853141e-03 1.59746274e-01 4.80895047e-04 -7.65008688e-01
      7.20169544e-01 -9.82950255e-02 1.38653302e+00 -3.56733769e-01
      1.10066473e-03 3.94624531e-01 -2.11445794e-01 -3.45244288e-01
      -1.39763132e-01 -2.49048740e-01 3.53762358e-01 1.66469887e-01
      2.72362590e-01 4.47561443e-02 1.59093186e-01 1.10248169e-02
      -3.39133739e-02 -3.45356107e-01 6.13810010e-02 -1.36454292e-02
      5.63271083e-02 -4.05722678e-01 -9.08754617e-02 -2.37912714e-01
      3.67610827e-02 -1.49765210e-02 8.09723735e-02 -3.48911397e-02
      2.01327614e-02 1.19813971e-01 4.00548279e-01 -1.33282578e+00
      2.24221852e-02 5.40141053e-02 5.30078746e-02 2.11325705e-01
      2.28349473e-02 5.40423989e-02 6.21141158e-02 2.64682233e-01
      -3.13424617e-02 5.84758162e-01 -1.27432227e+00 9.69155371e-01
      -5.24570048e-01 -7.55672634e-01 3.13314199e-01 -4.80002463e-01
      2.85623848e-01 3.82039189e-01 -1.68286011e-01 3.46995443e-02
      -3.27618331e-01 -1.22483797e-01 5.04911721e-01 -1.35093606e+00
      -4.55276728e-01 1.18437803e+00 3.64623964e-01 7.03588068e-01
      2.23240301e-01 1.85632423e-01 -2.31178746e-01 -1.14774096e+00
      -1.51124978e+00 -1.14576638e+00 -8.47504437e-01 -3.81561071e-01
      -1.83016330e-01 1.59740031e+00 -1.69551492e+00 -1.64672148e+00
      6.81620896e-01 -2.26886064e-01 -1.38203132e+00 -1.25167191e-01
      6.22810841e-01 2.01666617e+00 -5.31062841e-01 1.11796379e+00
      -7.67049015e-01 -2.51457691e-01 -1.12787485e+00 -5.91772556e-01
      4.55241799e-01 1.08052444e+00 -1.58264005e+00 -1.40193105e+00
      -8.95217478e-01 -5.54851651e-01 1.88183558e+00 2.03532243e+00
      -8.92568350e-01 1.20070338e-01 -3.66864741e-01 3.25865567e-01
      1.51611173e+00 5.45769095e-01 -1.23725963e+00 6.64361358e-01
      1.59201574e+00 -1.61186469e+00 4.68503386e-01 -3.03923059e-02
      -1.13792166e-01 -1.06296778e+00 -1.27289021e+00 8.04723084e-01
      1.35147643e+00 -1.70165017e-01 -2.06575179e+00 8.30025852e-01
      2.26131722e-01 -2.59766802e-02 1.61232427e-01 -8.61154318e-01
      -5.54317117e-01 -3.22936356e-01 9.87119079e-01 -1.09925330e+00
      -1.15710385e-01 -2.21239686e-01 9.63273048e-02 -1.67509362e-01
      -1.44725263e-01 6.34577051e-02 -1.35391131e-01 -2.82444882e+00
      -4.00086939e-01 6.74231350e-01 1.39102018e+00 9.17004108e-01
      -1.27140272e+00 6.15224242e-01 -1.17316210e+00 -3.99737835e-01
      -2.55423188e-01 -1.43838227e-01 1.43797648e+00 5.54330684e-02
      -3.50661308e-01 9.24990535e-01 3.33600616e+00 9.48546350e-01
      9.76798773e-01 -4.66802388e-01 4.40577358e-01 2.23604403e-02
      -1.95543957e+00 -4.91616614e-02 -3.96944553e-01 -1.77502370e+00
      -1.32742429e+00 -6.76782250e-01 -9.96681035e-01 -1.55592120e+00
      -1.79772437e-01 -8.60604465e-01 -1.59454930e+00 -6.06219411e-01
      -9.72712710e-02 -5.84957182e-01 -7.85504937e-01 -7.27081478e-01
      -1.19332127e-01 6.74563587e-01 1.28393471e-01 -2.40542203e-01
      1.61546573e-01 -1.97838366e+00 1.85137606e+00 1.87120400e-02
      3.29342842e-01 1.48862052e+00 3.96580100e-01 -2.91080892e-01
      1.45546898e-01 -7.63702452e-01 1.13585067e+00 -1.82578981e-01
      -3.80225152e-01 -1.19272172e+00 -4.63161111e-01 1.53924453e+00
      9.88606457e-03 5.06973326e-01 -2.36812487e-01 -4.53745782e-01
      4.21446301e-02 -8.50793779e-01 1.72801897e-01 -2.07152748e+00
      -2.46156186e-01 -1.97618932e-01 1.27723968e+00 -5.55423975e-01
      -4.63443995e-01 3.52923900e-01 -2.28922024e-01 -7.19590038e-02
      -1.13028777e+00 -5.10244966e-01 -6.57398880e-01 3.37119997e-01
      -4.41003442e-02 5.39267778e-01 2.28217021e-01 1.10611379e-01
      3.62030447e-01 4.22067791e-01 -1.67292941e+00 -1.05182302e+00
      -5.74516244e-02 -1.10260892e+00 -4.42266136e-01 -1.05236864e+00
      -1.21317530e+00 1.17889810e+00 1.04258466e+00 6.74951673e-01
      9.68214452e-01 7.13206708e-01 1.34131157e+00 -7.40492105e-01
      -1.13649257e-01 -1.36368620e+00 1.64916411e-01 1.49331117e+00
      1.96931720e-01 4.88256723e-01 -1.11749065e+00 1.29903507e+00
      1.34431887e+00 -6.46653295e-01 2.36726552e-01 2.52998662e+00
      6.01434469e-01 -8.99887457e-02 -5.35281420e-01 1.41166055e+00
      1.82957470e+00 -1.24315530e-01 7.07213402e-01 -1.43351674e+00
      7.27067471e-01 -6.71785176e-01 1.80517688e-01 6.64976656e-01
      1.44565821e+00 1.98058343e+00 1.83160532e+00 5.19592583e-01
      3.90643930e+00 -8.12139332e-01 -1.32872450e+00 9.58320975e-01
      -1.70742244e-01 9.44671810e-01 3.36576194e-01 1.15284061e+00
      -8.47124517e-01 2.40413576e-01 -1.73241079e+00 1.44786048e+00
      1.44548190e+00 2.17642725e-01 1.12429523e+00 -1.21612108e+00
      5.68927586e-01 -8.35304141e-01 -2.40750313e+00 2.78222591e-01
      8.63146842e-01 -2.86595201e+00 -2.19556645e-01 -6.13667965e-01
      4.44687009e-01 1.19215202e+00 -2.39788070e-01 2.04305363e+00
      -4.51159596e-01 -4.93176907e-01 -4.42631811e-01 -1.84454978e+00
      1.95280874e+00 -1.80912256e+00 5.61224341e-01 -2.14300323e+00
      -4.65914816e-01 8.86438072e-01 -3.62129569e-01 9.88158286e-01
      5.26536226e-01 9.06822979e-01 -9.31159258e-01 -1.56797969e+00
      -2.03596592e+00 1.14589262e+00 -1.67945608e-01 1.36497426e+00
      1.10708165e+00 -4.09777582e-01 -6.54889762e-01 -1.70073521e+00
      1.41382396e+00 6.67642891e-01 1.41570783e+00 -1.15160215e+00
      7.72274017e-01 -2.26365542e+00 3.01496565e-01 -1.92084241e+00
      -4.27698009e-02 -3.36158514e-01 -1.90796280e+00 2.65125966e+00
      1.62722722e-01 -6.03764653e-01 9.85847294e-01 -1.85612857e+00
      7.76110530e-01 -8.43489170e-01 -9.13767517e-01 -4.87654686e-01
      -1.01639128e+00 2.79537052e-01 7.29240716e-01 5.03491759e-01
      -2.02068138e+00 4.12647665e-01 -4.81101006e-01 3.81286800e-01
      -5.41420937e-01 -4.70256694e-02 -7.89505661e-01 7.84622133e-01
      -7.19415545e-01 2.63020694e-01 -1.89749221e-03 4.22634408e-02
      -8.88500869e-01 -2.47686863e+00 5.33830263e-02 4.45093691e-01
      5.18866777e-01 2.89796978e-01 -1.04675388e+00 5.11598468e-01
      6.29725337e-01 -1.12272575e-01 1.19889510e+00 4.52394933e-01
      -1.86950898e+00 -4.73960906e-01 -2.28514686e-01 -1.03637791e+00
      -1.39256740e+00 -6.72116220e-01 1.72762704e+00 2.96497631e+00
      -4.85767394e-01 9.28432882e-01 1.86584353e+00 2.18681240e+00
      1.40331268e+00 7.53093898e-01 -2.28537416e+00 -6.06769741e-01
      1.91252545e-01 5.74644148e-01 3.92280608e-01 -1.85403004e-01
      -1.42169309e+00 -1.99768198e+00 5.20910263e-01 1.43248904e+00
      1.46910667e+00 -1.70079076e+00 1.16600585e+00 -1.30148947e-01
      -5.38539231e-01 -9.18717802e-01 5.34403443e-01 6.58222795e-01
      -8.84243667e-01 2.44209290e-01 1.28578198e+00 -7.35605180e-01
      -2.97461361e-01 2.45223358e-01 -7.93423772e-01 1.89367568e+00
      -1.00789428e+00 -4.13634181e-01 -5.89972436e-01 -7.11188912e-01
      3.19344737e-02 1.44054651e+00 -4.42008562e-02 -7.14544117e-01
      -1.38074148e+00 -7.67251909e-01 2.29368734e+00 2.13428593e+00
      -1.39030385e+00 1.80467629e+00 2.80956960e+00 -1.39385045e-01
      2.03010648e-01 3.18439275e-01 -2.15545654e+00 -9.70155537e-01
      3.02694273e+00 -1.03699720e+00 -3.28539535e-02 2.26482487e+00
      2.03806376e+00 1.13014209e+00 1.55045927e+00 -5.68366610e-02
      2.79463716e-02 -1.26035929e+00 1.68340778e+00 -1.01955736e+00
      -8.06727171e-01 -3.41635883e-01 -4.81684327e-01 -3.66755903e-01
      -1.08343887e+00 3.93700212e-01 3.14397025e+00 2.09436715e-02
      -9.24276471e-01 4.05869007e-01 -8.27334762e-01 4.45313156e-01
      -8.20106864e-01 -2.05008730e-01 -1.75908223e-01 2.29813266e+00
      1.38876402e+00 1.33927143e+00 -5.96721470e-01 8.29871058e-01
      4.41406339e-01 -6.63851321e-01 1.18475389e+00 -1.05315912e+00
      1.08415522e-01 -4.24477190e-01 -7.90462673e-01 7.19114065e-01
      -6.68484032e-01 8.95257533e-01 -2.15118432e+00 -2.83912838e-01
      2.04256512e-02 -3.67450625e-01 -4.05372769e-01 2.21545720e+00
      -3.50894600e-01 -1.91042399e+00 -8.58374357e-01 -9.15748477e-01
      8.43207777e-01 5.70876002e-01 -2.11298943e+00 -7.34030902e-01
      -1.19375634e+00 6.86163366e-01 6.03997231e-01 -4.79527302e-02
      2.85530031e-01 9.41938460e-01 -1.03213179e+00 -8.53206754e-01
      3.00105602e-01 -2.25262284e+00 -2.31481373e-01 -1.74525118e+00
      2.32408404e-01 -1.26839602e+00 -8.51339757e-01 -8.02423537e-01
      1.53103426e-01 1.24849290e-01 3.40746135e-01 -9.26837564e-01
      1.95394111e+00 -9.68203247e-01 7.82621145e-01 -7.15584457e-01
      1.17940307e+00 -6.22966468e-01 -9.57902193e-01 1.10407901e+00
      1.36540234e+00 -1.15468729e+00 1.02173948e+00 -1.50819731e+00
      2.56032437e-01 1.71115965e-01 2.65777856e-01 -8.65249634e-01
      -1.04123318e+00 -5.16026795e-01 -1.62074411e+00 -3.96263868e-01
      2.25423470e-01 -6.29003525e-01 -1.90945578e+00 -1.39391422e+00
      4.92688149e-01 -9.18566585e-01 1.40856415e-01 -3.09396267e-01
      3.46227622e+00 2.37435713e-01 3.34363692e-02 -4.26064074e-01
      -9.96998608e-01 4.34757411e-01 3.22053939e-01 5.18066585e-01
      1.47439197e-01 -3.10364306e-01 2.74869412e-01 1.92588186e+00
      -1.58437812e+00 8.54150951e-01 -1.39505014e-01 -6.27067089e-01
      -4.88994151e-01 1.34060705e+00 -6.46322787e-01 -1.25846827e+00
      9.34301555e-01 6.89368188e-01 -4.32897806e-01 7.79464781e-01
      7.37046778e-01 -4.32508618e-01 1.06950879e+00 -2.74009466e-01
      -2.88870335e-02 2.84744412e-01 -2.68145621e-01 1.84372663e+00
      1.16743672e+00 1.08990204e+00 -6.44051880e-02 1.03157949e+00
      -9.48104680e-01 5.92159450e-01 -1.36855567e+00 1.33100763e-01
      5.55563807e-01 7.37823769e-02 -1.24838263e-01 -1.21057555e-01
      1.14252293e+00 3.21212769e-01 1.57196379e+00 -3.89005452e-01
      5.77715635e-01 -6.01021945e-01</_></support_vectors>
  <decision_functions>
    <_>
      <sv_count>1</sv_count>
      <rho>4.1051981332885895e-01</rho>
      <alpha>
        1.</alpha></_></decision_functions></opencv_ml_svm>
</opencv_storage>
