<?xml version="1.0"?>
<opencv_storage>
<opencv_ml_svm>
  <format>3</format>
  <svmType>C_SVC</svmType>
  <kernel>
    <type>LINEAR</type></kernel>
  <C>10.</C>
  <term_criteria><epsilon>1.1920928955078125e-07</epsilon>
    <iterations>1000</iterations></term_criteria>
  <var_count>630</var_count>
  <class_count>2</class_count>
  <class_labels type_id="opencv-matrix">
    <rows>2</rows>
    <cols>1</cols>
    <dt>i</dt>
    <data>
      0 1</data></class_labels>
  <sv_total>1</sv_total>
  <support_vectors>
    <_>
      1.37549877e-01 -3.73210125e-02 3.81051041e-02 1.62690908e-01
      1.88306049e-01 -1.87249072e-02 8.90856981e-03 9.18817937e-01
      1.99284237e-02 2.59085029e-01 4.03661579e-01 1.12125985e-01
      -4.83854599e-02 2.03437999e-01 9.66232777e-01 9.94118825e-02
      3.27486992e-02 7.20450580e-02 -5.30290484e-01 -1.08920634e-02
      1.41731173e-01 -8.17322060e-02 1.65250465e-01 -6.82650483e-04
      -1.39525875e-01 -6.32080883e-02 1.62345078e-02 -1.13053601e-02
      1.05993569e-01 -2.13460177e-02 2.18935357e-03 3.43654188e-03
      6.26539206e-03 -8.42090249e-02 1.88198313e-02 4.93780617e-03
      -1.17660254e-01 3.67024839e-01 3.19864005e-01 -7.17307702e-02
      -5.37991524e-02 1.51777230e-02 2.80180871e-02 2.85966218e-01
      -2.23312117e-02 1.72721863e-01 -1.55580183e-02 -4.54205930e-01
      1.12368669e-02 -1.63433596e-01 -3.19592714e-01 1.69326216e-01
      3.39039654e-01 -3.30308259e-01 -1.74017519e-01 -9.43264738e-02
      -1.63294956e-01 3.49065624e-02 1.73727527e-01 9.67458729e-03
      -1.25865750e-02 2.34167919e-01 -1.00756258e-01 1.75115675e-01
      -6.51498079e-01 -4.41772714e-02 -2.08162522e+00 4.54187095e-01
      -1.65500641e-02 1.88100591e-01 9.31089595e-02 7.45634809e-02
      2.60870680e-02 8.22796524e-02 3.65185678e-01 1.70759454e-01
      2.34412789e-01 3.91532838e-01 -1.20498523e-01 1.30816922e-01
      3.28524858e-02 2.99824566e-01 4.73179407e-02 -7.54869804e-02
      3.87919456e-01 8.80106091e-02 2.51400083e-01 -5.21020889e-02
      5.20273671e-02 3.24379578e-02 1.74340516e-01 -7.99131170e-02
      -2.43948996e-02 -2.98851170e-02 3.08306366e-01 6.97912872e-01
      1.04088046e-01 -1.10010296e-01 4.94380951e-01 5.73349632e-02
      2.22702082e-02 -8.06862712e-02 7.65272751e-02 -1.63946718e-01
      -3.65069918e-02 -2.71544665e-01 1.05259156e+00 -4.81586218e-01
      4.46461618e-01 2.63078928e-01 -3.29461098e-01 4.75728542e-01
      1.91842392e-01 -1.85740292e+00 6.10528402e-02 9.27071050e-02
      -4.29042578e-02 6.90469146e-01 3.61679792e-01 -8.76633525e-01
      3.67701918e-01 -6.30077422e-01 -5.53634644e-01 -1.03699303e+00
      -6.40342891e-01 -5.56240439e-01 -5.80357611e-01 1.08465445e+00
      5.89177668e-01 4.10395473e-01 -1.04906034e+00 1.48150936e-01
      -6.47955984e-02 -3.17330137e-02 -9.87226069e-01 -3.27213407e-01
      -4.63769287e-01 6.30509615e-01 -3.28046858e-01 -7.57231653e-01
      1.02553439e+00 4.30393368e-01 3.47193837e-01 -4.38624620e-02
      -5.31330407e-01 -1.00496113e+00 3.63915235e-01 -4.80032176e-01
      -2.12086618e-01 6.37481332e-01 -3.42352688e-02 4.01114553e-01
      -1.04294407e+00 -2.38020286e-01 -7.38009393e-01 -5.39155602e-01
      4.20115173e-01 -6.49822712e-01 4.07267809e-01 2.32004896e-01
      -8.03629637e-01 -4.05506164e-01 -1.32717824e+00 -1.86028734e-01
      -2.80816227e-01 1.57358849e+00 -3.78076673e-01 1.26065668e-02
      -4.57775891e-02 7.18376637e-01 -2.68691868e-01 -8.57309520e-01
      -7.34541059e-01 2.16608584e-01 1.32718638e-01 6.01558924e-01
      1.56863201e+00 -1.49128830e+00 4.21585947e-01 -7.04106316e-02
      1.30217090e-01 -1.67650551e-01 2.47989088e-01 -9.51949894e-01
      -1.00356221e+00 -6.83816373e-02 6.24623783e-02 5.45802601e-02
      -1.83224082e-01 -4.95251827e-02 2.26598114e-01 -1.35869116e-01
      4.53616530e-01 -9.34025228e-01 -1.10002244e+00 2.00523119e-02
      8.63282025e-01 6.67504132e-01 8.79963577e-01 -1.54244035e-01
      1.36766970e+00 1.49013710e+00 9.24542964e-01 1.08223665e+00
      5.39961040e-01 -3.61256957e-01 -4.05102782e-03 2.74654031e-01
      3.89859974e-01 4.77136046e-01 9.72164214e-01 -3.64793479e-01
      5.40955067e-01 -3.13301325e-01 -6.60564601e-01 4.11931336e-01
      9.58972573e-01 8.73645723e-01 1.15140051e-01 6.57213569e-01
      8.74397099e-01 9.83702183e-01 9.68608022e-01 7.25322217e-02
      2.73419227e-02 9.89618480e-01 9.67333972e-01 1.13943005e+00
      -2.23809555e-02 -4.82091576e-01 -2.85770416e-01 -2.11701035e-01
      1.31532282e-01 -1.54760048e-01 -5.14685452e-01 2.28478044e-01
      3.13197523e-01 1.45303503e-01 4.25846338e-01 9.48260725e-01
      3.82560194e-01 6.46405891e-02 -1.13094246e+00 1.62370592e-01
      4.81832772e-02 3.63687277e-01 3.10312778e-01 -1.32395661e+00
      2.30031341e-01 4.53538507e-01 -3.08009118e-01 -2.30811521e-01
      1.26349004e-02 -1.28869927e+00 -2.30309106e-02 -3.37491482e-01
      -8.59209225e-02 -8.90726149e-02 2.66112566e-01 3.26134637e-02
      -5.80935657e-01 4.30601895e-01 9.46574509e-02 -7.48628259e-01
      -5.18501103e-01 5.75783730e-01 -7.82353044e-01 -7.18690753e-01
      2.50396550e-01 -1.20258488e-01 -1.64994121e-01 3.64250302e-01
      1.93075389e-01 2.85715252e-01 -1.05033815e-01 1.34623170e-01
      2.29722783e-01 1.65889069e-01 9.14356768e-01 -1.59750473e+00
      -6.30659223e-01 1.00901926e+00 3.81416023e-01 1.13123202e+00
      -1.68768895e+00 -2.00180054e+00 7.87442803e-01 -1.19437373e+00
      4.96952593e-01 -1.57099104e+00 -1.13550878e+00 2.05395803e-01
      2.14335784e-01 -1.30633682e-01 3.63236606e-01 -7.58583009e-01
      -4.63584438e-02 2.86507219e-01 6.35105968e-02 8.64089355e-02
      2.60760128e-01 2.69515008e-01 1.57624650e+00 -6.66035354e-01
      -7.12626636e-01 -2.11504637e-03 -6.97999537e-01 6.58961684e-02
      -5.43840647e-01 -5.95001757e-01 4.76350248e-01 -1.55112040e+00
      -2.53024173e+00 -1.03531110e+00 -1.11026239e+00 1.17346048e-01
      6.44888759e-01 1.45155418e+00 -8.50861073e-01 2.65080988e-01
      -6.00674272e-01 1.35056770e+00 -1.73547530e+00 -2.57189691e-01
      -7.46811330e-01 1.98924258e-01 -3.65317881e-01 -5.01480758e-01
      1.07880019e-01 4.27770130e-02 5.96469007e-02 1.24467337e+00
      -3.30284089e-01 -1.83416486e+00 4.48474437e-02 1.66142869e+00
      5.13939559e-01 4.43736255e-01 -4.13949877e-01 2.01608062e-01
      8.00497353e-01 5.71944356e-01 9.36620951e-01 3.66023555e-02
      -1.17791049e-01 1.16868174e+00 9.34571087e-01 -2.43262574e-02
      -5.05259693e-01 1.27174616e+00 -1.89512715e-01 -1.93996525e+00
      2.08007669e+00 -1.20213819e+00 -1.05774331e+00 -4.17023510e-01
      3.58150870e-01 8.25777233e-01 2.68473387e-01 9.39343154e-01
      3.43905181e-01 1.08741152e+00 1.03671312e+00 -2.92625666e-01
      -1.96563646e-01 -3.82638484e-01 -3.09088141e-01 -4.11010414e-01
      -4.11528200e-01 2.08635569e-01 -1.23861432e-01 3.36889416e-01
      4.64407988e-02 -4.15705711e-01 1.03739536e+00 5.16579211e-01
      1.11834776e+00 1.87883362e-01 -3.66065979e-01 1.77102053e+00
      -2.04210353e+00 8.70729506e-01 2.28882027e+00 7.14338779e-01
      2.53622979e-01 4.56245333e-01 1.76538855e-01 -2.03319639e-01
      8.69109631e-02 6.80428296e-02 -2.93381494e-02 2.41487741e-01
      -9.25079584e-01 1.03023016e+00 -1.16478014e+00 7.60681033e-01
      1.99519396e-01 1.24634600e+00 8.52888942e-01 -2.72900081e+00
      1.19568877e-01 6.23801887e-01 -9.52115893e-01 1.34482741e-01
      9.40563232e-02 -2.97897100e-01 1.71645439e+00 1.02592444e+00
      -4.06733990e-01 -2.58838236e-01 -3.27165842e-01 2.77132928e-01
      6.89396933e-02 1.59829766e-01 -1.40201318e+00 8.45577657e-01
      1.57747328e+00 -9.26103666e-02 1.11095750e+00 1.55674231e+00
      6.10804498e-01 -7.00285316e-01 -1.50911248e+00 -2.36046886e+00
      -9.96713787e-02 -2.32651019e+00 -5.71179509e-01 -6.10952199e-01
      6.62735045e-01 1.26103473e+00 1.19746709e+00 -8.05522501e-01
      -5.86021423e-01 -1.16248703e+00 -1.52783978e+00 4.11068857e-01
      -4.26643819e-01 2.52541184e-01 1.09310853e+00 -4.23510104e-01
      -6.22431219e-01 7.53887713e-01 1.43738255e-01 1.04808080e+00
      4.79581118e-01 1.53200716e-01 -1.06241798e+00 1.41901958e+00
      1.00068435e-01 1.75756574e+00 1.24770343e+00 -5.69456875e-01
      2.61239076e+00 1.16424572e+00 -1.36836803e+00 5.74383616e-01
      1.92395771e+00 -1.47610748e+00 1.10155547e+00 1.45080099e-02
      6.59074068e-01 1.24199402e+00 6.08158171e-01 8.10422480e-01
      5.94091415e-01 -1.33386052e+00 4.42868859e-01 -9.39271569e-01
      -7.27184832e-01 -1.64131486e+00 -7.78892457e-01 -1.19751766e-01
      -5.67024909e-02 3.74248683e-01 1.05597460e+00 -1.11055471e-01
      -6.24501526e-01 1.19962990e+00 -7.26392508e-01 -9.96965170e-01
      4.89817739e-01 -7.00429976e-01 2.75432110e-01 -1.41043532e+00
      7.92697787e-01 1.32409826e-01 6.81462884e-01 1.57748565e-01
      1.41803348e+00 2.02865660e-01 6.06265128e-01 7.37862289e-01
      2.19278172e-01 -4.57478791e-01 -2.89304912e-01 -6.70146048e-01
      1.00238532e-01 -1.30058038e+00 7.73119390e-01 -3.54423285e-01
      4.34114635e-01 -6.88172340e-01 -3.53507042e-01 -3.03725395e-02
      -9.50470090e-01 -3.95069540e-01 1.62083898e-02 -5.48707098e-02
      2.46534273e-01 1.23611093e+00 2.85726160e-01 -2.36798093e-01
      -1.07115972e+00 8.43432367e-01 -1.56578815e+00 6.53681979e-02
      6.98702037e-01 7.86930859e-01 -3.44219327e-01 -2.89437175e-01
      -4.36450958e-01 8.95278275e-01 -2.84173107e+00 -2.07202458e+00
      1.24882185e+00 6.38533771e-01 3.54039025e+00 1.11344790e+00
      5.55845737e-01 -8.75473246e-02 4.68740225e-01 3.59935850e-01
      -2.46713817e-01 2.18336388e-01 9.66696441e-01 2.06743431e+00
      4.19007568e-03 2.74856257e+00 9.14521158e-01 7.53377974e-01
      4.56293195e-01 1.03883994e+00 1.33448052e+00 2.09213591e+00
      1.16570067e+00 6.15287483e-01 1.02566600e+00 5.88293612e-01
      2.46049380e+00 8.16915751e-01 7.19965100e-01 1.69113487e-01
      -9.03049231e-01 2.43457686e-02 -1.22625567e-01 1.74657297e+00
      -4.17660177e-01 -1.27068907e-01 2.85238266e-01 -4.51052904e-01
      1.11507690e+00 -1.23514199e+00 9.96479020e-02 -1.96649227e-02
      -6.21840835e-01 1.16395271e+00 7.15517938e-01 4.04785961e-01
      2.09243035e+00 6.06344759e-01 -2.43820742e-01 2.22627163e+00
      2.19414759e+00 7.94785440e-01 -4.17254835e-01 -4.09067087e-02
      5.87757453e-02 1.29805303e+00 -1.29001021e+00 -8.49600673e-01
      1.95770824e+00 -2.12621272e-01 2.94905994e-02 -3.96889478e-01
      -7.89749622e-01 4.51231062e-01 2.97470111e-02 -5.24664968e-02
      -1.15964699e+00 -1.32521808e-01 -9.58123863e-01 -3.51495624e-01
      -4.58939088e-04 -1.40838802e+00 8.48942459e-01 6.88035667e-01
      1.43678641e+00 -6.07593954e-01 -6.55951321e-01 9.57841218e-01
      -1.93769240e+00 -1.40945017e+00 1.04649973e+00 -5.43132126e-01
      7.83902258e-02 -8.06671381e-01 -9.58284199e-01 2.21731201e-01
      -4.13116515e-01 6.05409503e-01 1.44316816e+00 -1.68761408e+00
      5.04486918e-01 -2.23838821e-01 -7.10691452e-01 -2.13700509e+00
      -9.76375937e-01 1.17062056e+00 -2.23295033e-01 9.66755450e-01
      -4.73633140e-01 -8.09775352e-01 -1.08673370e+00 -8.37260187e-01
      -1.25821781e+00 -5.11427224e-01 -1.00753784e+00 -1.63734838e-01
      1.43932030e-01 -1.42515147e+00</_></support_vectors>
  <decision_functions>
    <_>
      <sv_count>1</sv_count>
      <rho>-2.3577918824447733e-01</rho>
      <alpha>
        1.</alpha></_></decision_functions></opencv_ml_svm>
</opencv_storage>
