<?xml version="1.0"?>
<opencv_storage>
<opencv_ml_svm>
  <format>3</format>
  <svmType>C_SVC</svmType>
  <kernel>
    <type>LINEAR</type></kernel>
  <C>10.</C>
  <term_criteria><epsilon>1.1920928955078125e-07</epsilon>
    <iterations>1000</iterations></term_criteria>
  <var_count>630</var_count>
  <class_count>2</class_count>
  <class_labels type_id="opencv-matrix">
    <rows>2</rows>
    <cols>1</cols>
    <dt>i</dt>
    <data>
      0 1</data></class_labels>
  <sv_total>1</sv_total>
  <support_vectors>
    <_>
      2.65035123e-01 -9.28181648e-01 -1.11384176e-01 -4.11876023e-01
      -2.46806499e-02 -3.83821249e-01 -3.52873318e-02 8.34236085e-01
      3.17696333e-02 3.76406237e-02 -9.86922204e-01 -2.08514988e-01
      7.31311664e-02 7.32952505e-02 -5.54156899e-01 -1.20727345e-01
      2.40930483e-01 -4.57625777e-01 -2.00575218e-01 1.29630670e-01
      -2.54029810e-01 1.95099771e-01 1.23949796e-01 -8.98680687e-02
      1.44763812e-01 3.80738312e-03 2.21635774e-02 -4.29216260e-03
      1.44699600e-03 7.51269758e-02 9.95018035e-02 -4.07038122e-01
      8.66300017e-02 7.86175355e-02 1.90780327e-01 2.69155979e-01
      -8.44316632e-02 -8.22088957e-01 3.12471777e-01 1.66387767e-01
      2.03385383e-01 9.09913704e-02 1.84335932e-01 -4.18970764e-01
      1.01301298e-01 -3.44002038e-01 1.73426822e-01 1.01507890e+00
      -1.90092158e-02 3.32849234e-01 4.02646035e-01 2.80350924e-01
      -1.37111917e-01 5.54315329e-01 -1.40227675e-01 2.22905189e-01
      2.18923479e-01 -1.54751122e-01 -1.01379678e-01 9.77400467e-02
      1.04245000e-01 1.72985166e-01 1.02515463e-02 -5.37807226e-01
      1.93385594e-02 6.44625910e-03 1.66885316e+00 -4.22033489e-01
      -5.03865182e-02 4.61695552e-01 1.74369514e-01 2.37818852e-01
      7.22164661e-02 5.91026843e-01 -2.41641715e-01 5.71796671e-02
      2.24113271e-01 -1.21387362e-01 5.98923722e-03 1.81079954e-02
      1.97627723e-01 2.49092743e-01 1.04400449e-01 -9.30241346e-02
      3.60060334e-01 -1.90790817e-01 -4.81938981e-02 2.25548491e-01
      4.05665934e-02 -5.69227599e-02 3.72643977e-01 2.62038469e-01
      2.62497574e-01 1.70260087e-01 -1.73826903e-01 3.75432402e-01
      2.29046196e-02 -2.01138288e-01 -5.23482375e-02 2.03603823e-02
      1.75076425e-01 -5.02153575e-01 1.09034710e-01 2.78474808e-01
      2.81404778e-02 2.68161952e-01 1.10935293e-01 5.95312953e-01
      1.14396882e+00 1.32676673e+00 8.05453420e-01 1.24385107e+00
      1.38489819e+00 -6.68929517e-01 5.22686481e-01 7.71104872e-01
      5.04347205e-01 -6.11699559e-02 9.46285009e-01 5.34018695e-01
      4.61401612e-01 2.24916816e+00 1.33264172e+00 2.04463243e+00
      1.05232918e+00 7.55472302e-01 1.50160596e-01 8.47798347e-01
      7.53325284e-01 1.17939186e+00 1.24938095e+00 3.94867837e-01
      4.36662734e-01 1.59943926e+00 -1.31268299e+00 -1.23447275e+00
      9.18640256e-01 1.97397697e+00 5.48056126e-01 2.25881532e-01
      4.81050104e-01 8.24448913e-02 4.24724787e-01 9.23470855e-01
      7.70548940e-01 1.06708407e+00 -1.22142464e-01 5.93701303e-02
      5.64684212e-01 -6.83733106e-01 5.43667972e-01 2.99340785e-01
      1.92347378e-01 2.06874356e-01 1.16805601e+00 1.18484592e+00
      7.00421333e-02 3.47334534e-01 5.76837838e-01 1.81949604e-02
      -1.15425944e+00 -1.12187529e+00 2.02026457e-01 8.05999935e-01
      -1.84742177e+00 -1.58534241e+00 9.36076701e-01 8.10536027e-01
      6.43969595e-01 6.25170320e-02 -1.70305505e-01 -1.30162716e+00
      -1.10864973e+00 -2.64498442e-01 1.74272966e+00 9.97255683e-01
      -9.70179021e-01 7.65811563e-01 5.91689408e-01 7.11708784e-01
      1.19705796e+00 8.13983023e-01 -3.27647030e-01 -9.41396773e-01
      2.87721324e+00 6.30662739e-01 -6.24319971e-01 5.74254692e-01
      1.64291918e-01 -5.05013347e-01 -1.15817535e+00 -5.20812869e-02
      7.09607780e-01 1.57110488e+00 1.40843654e+00 1.14251983e+00
      4.72932965e-01 -1.15088677e+00 7.13793159e-01 6.17986560e-01
      -1.00143838e+00 -2.75368005e-01 -1.61033794e-01 4.33889657e-01
      -4.71170843e-01 -7.07111537e-01 -5.23963630e-01 5.44513345e-01
      4.82240856e-01 1.26227155e-01 -2.97334599e+00 5.09311318e-01
      -3.29870939e-01 -2.90211606e+00 -2.65056896e+00 -1.03319138e-01
      -1.56625450e+00 -1.57629228e+00 3.62569094e-01 1.12242401e+00
      9.23846439e-02 3.47133875e-01 1.02272725e+00 8.85242522e-01
      7.39633799e-01 1.21198702e+00 1.27020061e+00 1.07954538e+00
      6.48157001e-02 -4.14956272e-01 -1.78016379e-01 6.87137008e-01
      -5.68038877e-03 1.40712589e-01 -1.99381900e+00 3.56628567e-01
      8.04476202e-01 2.30305505e+00 -1.27094078e+00 -5.98311841e-01
      2.78137833e-01 -1.89420413e-02 1.44338536e+00 5.66262960e-01
      4.98300761e-01 1.58908093e+00 4.00906861e-01 2.11780024e+00
      1.23532701e+00 7.75599837e-01 6.50633454e-01 9.39930081e-01
      9.65802550e-01 -2.58072704e-01 -1.11934461e-01 1.92322743e+00
      8.62412512e-01 8.07538033e-01 4.60317522e-01 5.75674236e-01
      -6.39466107e-01 -5.21422386e-01 1.22108495e+00 1.39011455e+00
      1.28346682e+00 1.47588849e+00 -5.20932972e-01 -1.28368664e+00
      -2.65135437e-01 9.28127885e-01 1.18117726e+00 1.56746197e+00
      6.45706058e-01 1.40697062e+00 4.41970408e-01 2.05843639e+00
      -5.56929298e-02 5.14093041e-01 3.26646894e-01 -5.94937384e-01
      8.62776637e-01 -3.27082396e-01 9.00192916e-01 -7.37013817e-01
      7.40003288e-01 2.38151148e-01 9.52441812e-01 8.24523807e-01
      -3.05760026e-01 1.84461176e+00 7.47296214e-01 9.01638806e-01
      -1.99396086e+00 3.99652719e-01 2.35115027e+00 9.22354877e-01
      -1.18417358e+00 1.12456060e-03 5.68016134e-02 -4.30050539e-04
      7.82832503e-01 1.10104048e+00 3.21656084e+00 9.88621235e-01
      4.35745120e-01 9.68116045e-01 6.96140707e-01 1.79289246e+00
      -1.51768529e+00 -1.75919020e+00 2.09391773e-01 -5.53209066e-01
      -9.89532247e-02 -5.51148117e-01 -1.38588977e+00 1.52757001e+00
      -3.07553351e-01 -4.55328137e-01 6.85522616e-01 1.29822338e+00
      1.68084931e+00 4.28014606e-01 2.88036585e-01 1.19013339e-01
      -4.87735093e-01 -2.61452317e-01 5.22767365e-01 1.59257507e+00
      -4.61237162e-01 -3.01481748e+00 -2.22981386e-02 1.13865495e+00
      1.40019906e+00 2.35712266e+00 1.54024148e+00 7.63797402e-01
      1.62740493e+00 1.22019649e+00 -4.92009372e-01 2.21413994e+00
      2.02521014e+00 1.55915010e+00 3.48017097e-01 -2.81211883e-01
      -1.37515509e+00 -5.66546619e-01 1.83840143e-03 1.48818278e+00
      5.11957824e-01 7.47564342e-03 5.85275412e-01 -1.25322714e-01
      6.49215281e-01 -1.33975887e+00 1.62518728e+00 -3.05987179e-01
      1.46195805e+00 -1.03781402e+00 -1.27527297e-01 -4.06624407e-01
      -2.32955003e+00 -2.19171834e+00 -6.47310615e-01 3.73492315e-02
      -1.83242917e-01 -9.85007107e-01 -1.12607527e+00 1.18793035e+00
      -2.98325300e-01 4.67099398e-01 2.20678020e+00 -6.02605999e-01
      1.63008869e-01 1.01522207e+00 -7.81513512e-01 1.10850775e+00
      3.87467235e-01 -1.32896888e+00 -1.37011826e+00 -1.25896013e+00
      1.32658148e+00 1.83903766e+00 3.88294905e-01 -1.95395537e-02
      -1.88883090e+00 -1.41676441e-01 1.14298999e+00 1.50385261e+00
      9.08272266e-01 -5.58936238e-01 3.03130794e+00 8.30213904e-01
      1.51572537e+00 -8.34044099e-01 3.29088010e-02 1.05044830e+00
      2.40593100e+00 -5.82903624e-01 -1.89496255e+00 4.72423166e-01
      1.97696045e-01 6.68448746e-01 -2.68645793e-01 -9.15377960e-02
      -8.76996040e-01 -3.24169695e-01 -5.17880261e-01 1.53538978e+00
      2.08308291e+00 -8.53557885e-02 1.77685428e+00 3.39427853e+00
      -6.72446430e-01 -8.20628822e-01 -6.73755705e-01 -9.52686489e-01
      -7.02396929e-01 1.14196432e+00 6.73697770e-01 -6.27855182e-01
      -2.04471707e+00 1.41488004e+00 1.11097658e+00 8.50953221e-01
      -4.50499684e-01 -9.39151704e-01 1.26277232e+00 7.82397389e-01
      -7.56939054e-01 7.09446728e-01 -1.31117538e-01 -9.60918009e-01
      1.60662246e+00 -1.16384399e+00 -1.15113044e+00 1.18568145e-01
      -2.40890056e-01 6.98407829e-01 -2.89488465e-01 2.33349800e+00
      7.04687834e-02 3.37621391e-01 6.98976755e-01 8.82133365e-01
      -8.80038917e-01 -5.58126092e-01 -9.37246859e-01 -1.24392122e-01
      2.54846907e+00 4.06379640e-01 -2.63915155e-02 1.47407615e+00
      -1.08820319e+00 -8.28020453e-01 1.35926694e-01 -1.74293771e-01
      2.46732861e-01 -1.30457044e+00 -1.00637305e+00 -3.49574596e-01
      6.12501740e-01 -9.64604080e-01 5.46100676e-01 -1.70539963e+00
      6.94513917e-01 1.11909664e+00 -1.41553593e+00 -5.27644753e-01
      1.27233887e+00 7.55365491e-01 -5.04046619e-01 -3.01512897e-01
      1.60525715e+00 1.03879082e+00 -9.10441220e-01 1.54153913e-01
      -1.46266997e+00 7.42915392e-01 1.66276097e-01 -4.39961314e-01
      4.71930236e-01 -1.43772519e+00 -3.81584853e-01 -5.51623404e-01
      -4.71243620e-01 -1.23976916e-01 -2.97201604e-01 -6.57122374e-01
      1.94599247e+00 -3.30140740e-01 4.71174777e-01 1.19049752e+00
      1.72050261e+00 -4.39778268e-01 -1.13926804e+00 3.17300886e-01
      1.20903587e+00 3.09628576e-01 -1.21121645e+00 1.82202563e-01
      1.13102567e+00 -2.46277064e-01 -2.55700588e-01 -9.80052710e-01
      -5.55488169e-01 -3.62017244e-01 5.48236847e-01 -9.89664555e-01
      5.22288263e-01 1.43150985e+00 -5.19499719e-01 1.61955893e+00
      5.35150349e-01 1.93391478e+00 -8.73796940e-01 1.55137074e+00
      7.02220678e-01 -1.30870223e+00 -5.10806262e-01 7.50920534e-01
      1.43566625e-02 -5.40517867e-01 -1.02548506e-02 -8.39638785e-02
      -4.31535333e-01 3.48700076e-01 -2.00772479e-01 1.41485763e+00
      1.33272147e+00 8.38855267e-01 8.54995176e-02 -5.75837016e-01
      -5.81962049e-01 1.53436601e+00 -6.47567391e-01 -1.36187065e+00
      8.37349415e-01 1.14341855e+00 1.93972921e+00 -7.68634319e-01
      4.07657959e-02 -7.09318280e-01 -5.76344311e-01 -6.33303106e-01
      7.74074852e-01 6.87716961e-01 -2.17134833e+00 3.92480224e-01
      -2.49463152e-02 1.89663991e-01 -5.94551444e-01 1.39996755e+00
      2.78453350e+00 -1.00289023e+00 4.57680672e-01 -5.22356391e-01
      -1.05310690e+00 5.72108030e-01 -8.11577260e-01 4.47930217e-01
      4.15214561e-02 1.53580541e-02 1.58995903e+00 1.88664293e+00
      1.29175150e+00 -3.37761998e-01 -1.50610542e+00 -1.34391755e-01
      -1.73429325e-01 -5.76125920e-01 5.66435874e-01 -8.21325302e-01
      1.42180592e-01 6.84076726e-01 3.49035454e+00 1.14288616e+00
      -9.99381006e-01 9.72360820e-02 2.82421827e+00 -2.65648484e-01
      -1.56114578e+00 -6.94888353e-01 2.57925451e-01 2.80090362e-01
      -1.49103594e+00 -2.63902813e-01 -7.42774963e-01 -2.06971005e-01
      -9.05606687e-01 4.54246163e-01 1.04351962e+00 3.23528558e-01
      -1.30659330e+00 7.87137821e-02 2.64766723e-01 5.76715827e-01
      7.98949525e-02 8.15053582e-01 -6.44543707e-01 -1.00219810e+00
      3.76426905e-01 -2.43517995e-01 7.93043315e-01 -5.40137112e-01
      4.65625763e-01 -4.98705283e-02 -5.79431355e-01 -9.83816385e-01
      -9.90059197e-01 -8.96366537e-01 2.03013234e-02 -2.65725881e-01
      -6.89611316e-01 4.25749496e-02 1.52740967e+00 -1.00132155e+00
      -1.74233139e+00 1.25913113e-01 1.00751472e+00 1.38551533e+00
      -4.37052809e-02 2.66011357e-01 -1.08713424e+00 7.69815519e-02
      -1.43894404e-01 1.85980365e-01 8.95983756e-01 -7.87798986e-02
      -2.35867396e-01 2.70023257e-01</_></support_vectors>
  <decision_functions>
    <_>
      <sv_count>1</sv_count>
      <rho>5.1985599316423203e-01</rho>
      <alpha>
        1.</alpha></_></decision_functions></opencv_ml_svm>
</opencv_storage>
